{"learner":{"attributes":{"scikit_learn":"{\"_estimator_type\": \"regressor\"}"},"feature_names":[],"feature_types":[],"gradient_booster":{"model":{"gbtree_model_param":{"num_parallel_tree":"1","num_trees":"500"},"iteration_indptr":[0,1,2,3,4,5,6,7,8,9,10,11,12,13,14,15,16,17,18,19,20,21,22,23,24,25,26,27,28,29,30,31,32,33,34,35,36,37,38,39,40,41,42,43,44,45,46,47,48,49,50,51,52,53,54,55,56,57,58,59,60,61,62,63,64,65,66,67,68,69,70,71,72,73,74,75,76,77,78,79,80,81,82,83,84,85,86,87,88,89,90,91,92,93,94,95,96,97,98,99,100,101,102,103,104,105,106,107,108,109,110,111,112,113,114,115,116,117,118,119,120,121,122,123,124,125,126,127,128,129,130,131,132,133,134,135,136,137,138,139,140,141,142,143,144,145,146,147,148,149,150,151,152,153,154,155,156,157,158,159,160,161,162,163,164,165,166,167,168,169,170,171,172,173,174,175,176,177,178,179,180,181,182,183,184,185,186,187,188,189,190,191,192,193,194,195,196,197,198,199,200,201,202,203,204,205,206,207,208,209,210,211,212,213,214,215,216,217,218,219,220,221,222,223,224,225,226,227,228,229,230,231,232,233,234,235,236,237,238,239,240,241,242,243,244,245,246,247,248,249,250,251,252,253,254,255,256,257,258,259,260,261,262,263,264,265,266,267,268,269,270,271,272,273,274,275,276,277,278,279,280,281,282,283,284,285,286,287,288,289,290,291,292,293,294,295,296,297,298,299,300,301,302,303,304,305,306,307,308,309,310,311,312,313,314,315,316,317,318,319,320,321,322,323,324,325,326,327,328,329,330,331,332,333,334,335,336,337,338,339,340,341,342,343,344,345,346,347,348,349,350,351,352,353,354,355,356,357,358,359,360,361,362,363,364,365,366,367,368,369,370,371,372,373,374,375,376,377,378,379,380,381,382,383,384,385,386,387,388,389,390,391,392,393,394,395,396,397,398,399,400,401,402,403,404,405,406,407,408,409,410,411,412,413,414,415,416,417,418,419,420,421,422,423,424,425,426,427,428,429,430,431,432,433,434,435,436,437,438,439,440,441,442,443,444,445,446,447,448,449,450,451,452,453,454,455,456,457,458,459,460,461,462,463,464,465,466,467,468,469,470,471,472,473,474,475,476,477,478,479,480,481,482,483,484,485,486,487,488,489,490,491,492,493,494,495,496,497,498,499,500],"tree_info":[0,0,0,0,0,0,0,0,0,0,0,0,0,0,0,0,0,0,0,0,0,0,0,0,0,0,0,0,0,0,0,0,0,0,0,0,0,0,0,0,0,0,0,0,0,0,0,0,0,0,0,0,0,0,0,0,0,0,0,0,0,0,0,0,0,0,0,0,0,0,0,0,0,0,0,0,0,0,0,0,0,0,0,0,0,0,0,0,0,0,0,0,0,0,0,0,0,0,0,0,0,0,0,0,0,0,0,0,0,0,0,0,0,0,0,0,0,0,0,0,0,0,0,0,0,0,0,0,0,0,0,0,0,0,0,0,0,0,0,0,0,0,0,0,0,0,0,0,0,0,0,0,0,0,0,0,0,0,0,0,0,0,0,0,0,0,0,0,0,0,0,0,0,0,0,0,0,0,0,0,0,0,0,0,0,0,0,0,0,0,0,0,0,0,0,0,0,0,0,0,0,0,0,0,0,0,0,0,0,0,0,0,0,0,0,0,0,0,0,0,0,0,0,0,0,0,0,0,0,0,0,0,0,0,0,0,0,0,0,0,0,0,0,0,0,0,0,0,0,0,0,0,0,0,0,0,0,0,0,0,0,0,0,0,0,0,0,0,0,0,0,0,0,0,0,0,0,0,0,0,0,0,0,0,0,0,0,0,0,0,0,0,0,0,0,0,0,0,0,0,0,0,0,0,0,0,0,0,0,0,0,0,0,0,0,0,0,0,0,0,0,0,0,0,0,0,0,0,0,0,0,0,0,0,0,0,0,0,0,0,0,0,0,0,0,0,0,0,0,0,0,0,0,0,0,0,0,0,0,0,0,0,0,0,0,0,0,0,0,0,0,0,0,0,0,0,0,0,0,0,0,0,0,0,0,0,0,0,0,0,0,0,0,0,0,0,0,0,0,0,0,0,0,0,0,0,0,0,0,0,0,0,0,0,0,0,0,0,0,0,0,0,0,0,0,0,0,0,0,0,0,0,0,0,0,0,0,0,0,0,0,0,0,0,0,0,0,0,0,0,0,0,0,0,0,0,0,0,0,0,0,0,0,0,0,0,0,0,0,0,0,0,0,0,0,0,0,0,0,0,0,0,0,0,0,0,0,0,0,0,0,0,0,0,0,0,0,0,0,0],"trees":[{"base_weights":[-4.9630284E-2,-7.499975E0,2.3076704E0,-1.0014738E1,-4.6903744E0,6.590167E-1,5.1561666E0,-8.358082E0,-1.4528085E1,-7.1576147E0,-3.7975056E0,-1.0359029E0,1.8014843E0,4.193762E0,9.515315E0,-1.4313695E-1,-3.618981E-1,-6.3514316E-1,-3.8679218E-1,-2.3240294E-2,-3.2125875E-1,-1.907963E-1,-2.5254576E-2,-1.4852214E-1,-2.3543524E-2,-1.0791604E-2,8.454486E-2,4.613221E-2,1.9513866E-1,4.428052E-1,2.3396137E-1],"categories":[],"categories_nodes":[],"categories_segments":[],"categories_sizes":[],"default_left":[0,0,0,0,0,0,0,0,0,0,0,0,0,0,0,0,0,0,0,0,0,0,0,0,0,0,0,0,0,0,0],"id":0,"left_children":[1,3,5,7,9,11,13,15,17,19,21,23,25,27,29,-1,-1,-1,-1,-1,-1,-1,-1,-1,-1,-1,-1,-1,-1,-1,-1],"loss_changes":[1.4884417E5,1.43439375E4,3.023005E4,7.9066484E3,2.0953398E3,7.900481E3,9.859555E3,2.562789E3,1.7269336E3,1.459958E3,2.1823691E3,1.9649246E3,1.5763276E3,4.022086E3,2.3619258E3,0E0,0E0,0E0,0E0,0E0,0E0,0E0,0E0,0E0,0E0,0E0,0E0,0E0,0E0,0E0,0E0],"parents":[2147483647,0,0,1,1,2,2,3,3,4,4,5,5,6,6,7,7,8,8,9,9,10,10,11,11,12,12,13,13,14,14],"right_children":[2,4,6,8,10,12,14,16,18,20,22,24,26,28,30,-1,-1,-1,-1,-1,-1,-1,-1,-1,-1,-1,-1,-1,-1,-1,-1],"split_conditions":[4.145E1,3.801E1,4.982E1,3.7E0,3.1666667E0,4.535E1,5.619E1,8E-1,6.2E-1,6.5E-1,2.18E1,1.81E1,5E0,6.571429E0,2.44E0,-1.4313695E-1,-3.618981E-1,-6.3514316E-1,-3.8679218E-1,-2.3240294E-2,-3.2125875E-1,-1.907963E-1,-2.5254576E-2,-1.4852214E-1,-2.3543524E-2,-1.0791604E-2,8.454486E-2,4.613221E-2,1.9513866E-1,4.428052E-1,2.3396137E-1],"split_indices":[41,41,41,22,10,41,41,13,18,13,34,34,4,6,22,0,0,0,0,0,0,0,0,0,0,0,0,0,0,0,0],"split_type":[0,0,0,0,0,0,0,0,0,0,0,0,0,0,0,0,0,0,0,0,0,0,0,0,0,0,0,0,0,0,0],"sum_hessian":[8.473E3,2.036E3,6.437E3,1.073E3,9.63E2,4.078E3,2.359E3,7.87E2,2.86E2,2.54E2,7.09E2,1.642E3,2.436E3,1.934E3,4.25E2,1E2,6.87E2,2.22E2,6.4E1,3E1,2.24E2,5.42E2,1.67E2,2.34E2,1.408E3,3.19E2,2.117E3,3.56E2,1.578E3,2.97E2,1.28E2],"tree_param":{"num_deleted":"0","num_feature":"50","num_nodes":"31","size_leaf_vector":"1"}},{"base_weights":[3.147751E-2,-6.2973814E0,2.788456E0,-9.801135E0,-4.068516E0,1.9958886E0,9.568908E0,-8.035965E0,-1.402298E1,3.1170797E-1,-4.4817433E0,3.354561E-1,3.0913646E0,1.1184555E1,6.4219604E0,-1.4193729E-3,-3.4484637E-1,-6.043134E-1,-3.5375825E-1,-2.0501758E-1,9.8932415E-2,-2.6692107E-1,-1.4479715E-1,-1.1945299E-2,5.9366383E-2,3.744944E-2,1.4069764E-1,2.4869865E-1,4.672658E-1,1.8242209E-1,3.3922878E-1],"categories":[],"categories_nodes":[],"categories_segments":[],"categories_sizes":[],"default_left":[0,0,0,0,0,0,0,0,0,0,0,0,0,0,0,0,0,0,0,0,0,0,0,0,0,0,0,0,0,0,0],"id":1,"left_children":[1,3,5,7,9,11,13,15,17,19,21,23,25,27,29,-1,-1,-1,-1,-1,-1,-1,-1,-1,-1,-1,-1,-1,-1,-1,-1],"loss_changes":[1.4726533E5,1.9958602E4,3.1573281E4,7.300117E3,2.838129E3,9.575465E3,3.053289E3,3.2948438E3,1.5045898E3,1.6108131E3,2.6791191E3,1.525789E3,2.9089512E3,9.255586E2,7.686113E2,0E0,0E0,0E0,0E0,0E0,0E0,0E0,0E0,0E0,0E0,0E0,0E0,0E0,0E0,0E0,0E0],"parents":[2147483647,0,0,1,1,2,2,3,3,4,4,5,5,6,6,7,7,8,8,9,9,10,10,11,11,12,12,13,13,14,14],"right_children":[2,4,6,8,10,12,14,16,18,20,22,24,26,28,30,-1,-1,-1,-1,-1,-1,-1,-1,-1,-1,-1,-1,-1,-1,-1,-1],"split_conditions":[4.331E1,3.774E1,5.4025E1,3.7E0,2.724E1,4.728E1,2.41E0,1.04E1,3.323E1,4.048E1,3.952E1,4.614E1,6E0,6.333333E-1,5.6066666E1,-1.4193729E-3,-3.4484637E-1,-6.043134E-1,-3.5375825E-1,-2.0501758E-1,9.8932415E-2,-2.6692107E-1,-1.4479715E-1,-1.1945299E-2,5.9366383E-2,3.744944E-2,1.4069764E-1,2.4869865E-1,4.672658E-1,1.8242209E-1,3.3922878E-1],"split_indices":[42,41,42,22,26,42,22,1,42,41,42,42,6,16,40,0,0,0,0,0,0,0,0,0,0,0,0,0,0,0,0],"split_type":[0,0,0,0,0,0,0,0,0,0,0,0,0,0,0,0,0,0,0,0,0,0,0,0,0,0,0,0,0,0,0],"sum_hessian":[8.438E3,2.56E3,5.878E3,9.94E2,1.566E3,5.264E3,6.14E2,7.03E2,2.91E2,1.35E2,1.431E3,2.093E3,3.171E3,4.04E2,2.1E2,4.8E1,6.55E2,2.39E2,5.2E1,3.8E1,9.7E1,4.02E2,1.029E3,1.349E3,7.44E2,5.24E2,2.647E3,3.8E1,3.66E2,1.12E2,9.8E1],"tree_param":{"num_deleted":"0","num_feature":"50","num_nodes":"31","size_leaf_vector":"1"}},{"base_weights":[4.7067426E-2,-6.1707053E0,2.6233644E0,-9.356428E0,-4.020623E0,1.8644006E0,8.487638E0,-7.8374987E0,-1.3203529E1,-5.820511E0,-3.2176554E0,6.725447E-1,3.116904E0,1.0461286E1,5.6459255E0,-3.153955E-2,-3.371195E-1,-5.698674E-1,-3.5637814E-1,-4.0625468E-2,-2.510619E-1,-4.158361E-2,-1.6084081E-1,-7.846111E-3,5.9088644E-2,6.526571E-3,1.3504876E-1,3.0516535E-1,5.0820965E-1,2.4628483E-1,2.1177072E-2],"categories":[],"categories_nodes":[],"categories_segments":[],"categories_sizes":[],"default_left":[0,0,0,0,0,0,0,0,0,0,0,0,0,0,0,0,0,0,0,0,0,0,0,0,0,0,0,0,0,0,0],"id":2,"left_children":[1,3,5,7,9,11,13,15,17,19,21,23,25,27,29,-1,-1,-1,-1,-1,-1,-1,-1,-1,-1,-1,-1,-1,-1,-1,-1],"loss_changes":[1.3648023E5,1.705757E4,2.679459E4,5.7671016E3,2.1366836E3,7.961633E3,3.8092148E3,3.0018203E3,1.1384219E3,9.986572E2,1.8045879E3,1.9122264E3,1.9913301E3,2.4812578E3,7.414971E2,0E0,0E0,0E0,0E0,0E0,0E0,0E0,0E0,0E0,0E0,0E0,0E0,0E0,0E0,0E0,0E0],"parents":[2147483647,0,0,1,1,2,2,3,3,4,4,5,5,6,6,7,7,8,8,9,9,10,10,11,11,12,12,13,13,14,14],"right_children":[2,4,6,8,10,12,14,16,18,20,22,24,26,28,30,-1,-1,-1,-1,-1,-1,-1,-1,-1,-1,-1,-1,-1,-1,-1,-1],"split_conditions":[4.313E1,3.774E1,5.3675E1,3.7E0,3.5E0,4.811E1,2.31E0,9.6E0,6.4E-1,6.5E-1,8.9E-1,4.597E1,5.25E0,3.3615473E-1,8.2E0,-3.153955E-2,-3.371195E-1,-5.698674E-1,-3.5637814E-1,-4.0625468E-2,-2.510619E-1,-4.158361E-2,-1.6084081E-1,-7.846111E-3,5.9088644E-2,6.526571E-3,1.3504876E-1,3.0516535E-1,5.0820965E-1,2.4628483E-1,2.1177072E-2],"split_indices":[42,41,42,22,8,42,22,33,18,13,18,42,5,15,9,0,0,0,0,0,0,0,0,0,0,0,0,0,0,0,0],"split_type":[0,0,0,0,0,0,0,0,0,0,0,0,0,0,0,0,0,0,0,0,0,0,0,0,0,0,0,0,0,0,0],"sum_hessian":[8.518E3,2.495E3,6.023E3,1.004E3,1.491E3,5.334E3,6.89E2,7.22E2,2.82E2,4.58E2,1.033E3,2.734E3,2.6E3,4.05E2,2.84E2,5.6E1,6.66E2,2.25E2,5.7E1,4E1,4.18E2,2.79E2,7.54E2,1.315E3,1.419E3,2.1E2,2.39E3,1.81E2,2.24E2,2.58E2,2.6E1],"tree_param":{"num_deleted":"0","num_feature":"50","num_nodes":"31","size_leaf_vector":"1"}},{"base_weights":[1.6920073E-2,-5.749681E0,2.5438056E0,-8.762648E0,-3.6520114E0,1.8219746E0,8.732669E0,-7.3979816E0,-1.2346099E1,5.2021074E-1,-4.3319073E0,4.3196172E-1,2.6527855E0,2.1212633E0,9.327625E0,-2.6405344E-2,-3.170743E-1,-5.530567E-1,-3.2864192E-1,-6.7554996E-3,2.39471E-1,-2.4521725E-1,-1.3043866E-1,-8.635052E-2,2.641656E-2,-1.1776354E-2,1.1791726E-1,2.0548086E-1,-1.776942E-2,2.5855902E-1,4.2366657E-1],"categories":[],"categories_nodes":[],"categories_segments":[],"categories_sizes":[],"default_left":[0,0,0,0,0,0,0,0,0,0,0,0,0,0,0,0,0,0,0,0,0,0,0,0,0,0,0,0,0,0,0],"id":3,"left_children":[1,3,5,7,9,11,13,15,17,19,21,23,25,27,29,-1,-1,-1,-1,-1,-1,-1,-1,-1,-1,-1,-1,-1,-1,-1,-1],"loss_changes":[1.2324583E5,1.625393E4,2.6255305E4,5.0756484E3,4.3172188E3,6.0822324E3,2.3942383E3,2.7306602E3,1.6572031E3,8.0773083E2,2.4984238E3,1.168418E3,2.869039E3,4.050714E2,1.9677617E3,0E0,0E0,0E0,0E0,0E0,0E0,0E0,0E0,0E0,0E0,0E0,0E0,0E0,0E0,0E0,0E0],"parents":[2147483647,0,0,1,1,2,2,3,3,4,4,5,5,6,6,7,7,8,8,9,9,10,10,11,11,12,12,13,13,14,14],"right_children":[2,4,6,8,10,12,14,16,18,20,22,24,26,28,30,-1,-1,-1,-1,-1,-1,-1,-1,-1,-1,-1,-1,-1,-1,-1,-1],"split_conditions":[4.331E1,3.801E1,5.4025E1,3.68E0,7.2E-1,4.7115E1,8E0,1.04E1,6.1E-1,4.96E1,4.01E1,1.87E1,5.2222223E0,5.476E1,1.42E0,-2.6405344E-2,-3.170743E-1,-5.530567E-1,-3.2864192E-1,-6.7554996E-3,2.39471E-1,-2.4521725E-1,-1.3043866E-1,-8.635052E-2,2.641656E-2,-1.1776354E-2,1.1791726E-1,2.0548086E-1,-1.776942E-2,2.5855902E-1,4.2366657E-1],"split_indices":[42,41,42,21,14,42,5,1,18,40,42,34,6,42,14,0,0,0,0,0,0,0,0,0,0,0,0,0,0,0,0],"split_type":[0,0,0,0,0,0,0,0,0,0,0,0,0,0,0,0,0,0,0,0,0,0,0,0,0,0,0,0,0,0,0],"sum_hessian":[8.456E3,2.576E3,5.88E3,1.056E3,1.52E3,5.267E3,6.13E2,7.67E2,2.89E2,2.13E2,1.307E3,1.971E3,3.296E3,5.1E1,5.62E2,5.6E1,7.11E2,2.11E2,7.8E1,1.9E2,2.3E1,4.86E2,8.21E2,1.59E2,1.812E3,3E2,2.996E3,2.3E1,2.8E1,1.74E2,3.88E2],"tree_param":{"num_deleted":"0","num_feature":"50","num_nodes":"31","size_leaf_vector":"1"}},{"base_weights":[-1.0265545E-2,-5.651769E0,2.4385667E0,-8.661165E0,-3.6824715E0,1.7058011E0,8.616863E0,-7.0931015E0,-1.24639225E1,7.786676E-1,-4.1987114E0,4.312909E-1,2.625117E0,1.0232283E1,6.171963E0,-1.4439367E-1,-3.152775E-1,-5.412768E-1,-3.184353E-1,-1.623102E-2,2.5860548E-1,-2.66138E-1,-1.4581475E-1,-1.0425583E-1,2.6306793E-2,2.3268607E-2,1.2057496E-1,1.6020203E-1,4.589029E-1,9.981642E-2,2.845956E-1],"categories":[],"categories_nodes":[],"categories_segments":[],"categories_sizes":[],"default_left":[0,0,0,0,0,0,0,0,0,0,0,0,0,0,0,0,0,0,0,0,0,0,0,0,0,0,0,0,0,0,0],"id":4,"left_children":[1,3,5,7,9,11,13,15,17,19,21,23,25,27,29,-1,-1,-1,-1,-1,-1,-1,-1,-1,-1,-1,-1,-1,-1,-1,-1],"loss_changes":[1.1720757E5,1.5185867E4,2.6767441E4,5.962047E3,3.5825E3,6.1967363E3,2.4115664E3,1.9515078E3,1.3088477E3,1.094348E3,1.8668438E3,1.5267676E3,2.4421777E3,2.8565664E3,8.5489746E2,0E0,0E0,0E0,0E0,0E0,0E0,0E0,0E0,0E0,0E0,0E0,0E0,0E0,0E0,0E0,0E0],"parents":[2147483647,0,0,1,1,2,2,3,3,4,4,5,5,6,6,7,7,8,8,9,9,10,10,11,11,12,12,13,13,14,14],"right_children":[2,4,6,8,10,12,14,16,18,20,22,24,26,28,30,-1,-1,-1,-1,-1,-1,-1,-1,-1,-1,-1,-1,-1,-1,-1,-1],"split_conditions":[4.331E1,3.774E1,5.4025E1,3.7E0,6.4E-1,4.748E1,2.26E0,3.6666667E0,6.2E-1,4.85E1,3.1E0,1.87E1,6E0,1.37E0,8E0,-1.4439367E-1,-3.152775E-1,-5.412768E-1,-3.184353E-1,-1.623102E-2,2.5860548E-1,-2.66138E-1,-1.4581475E-1,-1.0425583E-1,2.6306793E-2,2.3268607E-2,1.2057496E-1,1.6020203E-1,4.589029E-1,9.981642E-2,2.845956E-1],"split_indices":[42,41,42,22,14,42,22,5,18,41,10,34,5,14,5,0,0,0,0,0,0,0,0,0,0,0,0,0,0,0,0],"split_type":[0,0,0,0,0,0,0,0,0,0,0,0,0,0,0,0,0,0,0,0,0,0,0,0,0,0,0,0,0,0,0],"sum_hessian":[8.482E3,2.567E3,5.915E3,1.014E3,1.553E3,5.289E3,6.26E2,7.2E2,2.94E2,1.61E2,1.392E3,2.217E3,3.072E3,3.75E2,2.51E2,1.34E2,5.86E2,2.36E2,5.8E1,1.34E2,2.7E1,2.54E2,1.138E3,1.53E2,2.064E3,4.92E2,2.58E3,6.3E1,3.12E2,5.2E1,1.99E2],"tree_param":{"num_deleted":"0","num_feature":"50","num_nodes":"31","size_leaf_vector":"1"}},{"base_weights":[2.8493896E-3,-6.0789595E0,1.8977231E0,-5.1206884E0,-1.1151345E1,1.192447E0,6.2767067E0,3.4766585E-1,-5.5827937E0,-1.2639722E1,-5.4701347E0,-4.5019388E-1,2.064517E0,4.1126523E0,8.211762E0,-5.3045023E-3,1.9195592E-1,-3.1224468E-1,-1.8142922E-1,-2.1552883E-1,-5.179172E-1,-2.5476643E-1,1.3039312E-1,-1.1674176E-1,-4.45447E-3,1.3345475E-2,1.02513686E-1,8.867572E-2,2.1721664E-1,1.8672024E-1,3.858707E-1],"categories":[],"categories_nodes":[],"categories_segments":[],"categories_sizes":[],"default_left":[0,0,0,0,0,0,0,0,0,0,0,0,0,0,0,0,0,0,0,0,0,0,0,0,0,0,0,0,0,0,0],"id":5,"left_children":[1,3,5,7,9,11,13,15,17,19,21,23,25,27,29,-1,-1,-1,-1,-1,-1,-1,-1,-1,-1,-1,-1,-1,-1,-1,-1],"loss_changes":[9.765618E4,9.725898E3,1.9945873E4,4.2856523E3,2.6264414E3,7.9743745E3,3.7170547E3,2.854345E2,3.601957E3,4.9161328E2,5.5476843E2,1.6143762E3,3.1350547E3,1.048915E3,2.3538027E3,0E0,0E0,0E0,0E0,0E0,0E0,0E0,0E0,0E0,0E0,0E0,0E0,0E0,0E0,0E0,0E0],"parents":[2147483647,0,0,1,1,2,2,3,3,4,4,5,5,6,6,7,7,8,8,9,9,10,10,11,11,12,12,13,13,14,14],"right_children":[2,4,6,8,10,12,14,16,18,20,22,24,26,28,30,-1,-1,-1,-1,-1,-1,-1,-1,-1,-1,-1,-1,-1,-1,-1,-1],"split_conditions":[4.145E1,3.7E0,5.363E1,6.75E-1,8.1E-1,4.595E1,9.777778E0,4.3333335E0,2.9E0,1.4E0,4.24E0,1.79E1,6E0,8.2E0,1.41E0,-5.3045023E-3,1.9195592E-1,-3.1224468E-1,-1.8142922E-1,-2.1552883E-1,-5.179172E-1,-2.5476643E-1,1.3039312E-1,-1.1674176E-1,-4.45447E-3,1.3345475E-2,1.02513686E-1,8.867572E-2,2.1721664E-1,1.8672024E-1,3.858707E-1],"split_indices":[41,22,41,13,18,41,6,38,10,14,22,34,6,5,14,0,0,0,0,0,0,0,0,0,0,0,0,0,0,0,0],"split_type":[0,0,0,0,0,0,0,0,0,0,0,0,0,0,0,0,0,0,0,0,0,0,0,0,0,0,0,0,0,0,0],"sum_hessian":[8.472E3,2.012E3,6.46E3,1.694E3,3.18E2,5.565E3,8.95E2,1.32E2,1.562E3,2.51E2,6.7E1,1.93E3,3.635E3,4.24E2,4.71E2,1.2E2,1.2E1,4.98E2,1.064E3,1.1E1,2.4E2,6.1E1,6E0,2.32E2,1.698E3,8.13E2,2.822E3,1.75E2,2.49E2,1.37E2,3.34E2],"tree_param":{"num_deleted":"0","num_feature":"50","num_nodes":"31","size_leaf_vector":"1"}},{"base_weights":[-9.629524E-3,-5.8773E0,1.9961604E0,-8.598671E0,-4.234041E0,1.3078408E0,7.341052E0,-6.911397E0,-1.1892503E1,6.0852456E-1,-4.612148E0,-1.7918069E-2,2.32353E0,5.3753943E0,8.910708E0,-1.3291721E-1,-3.0397677E-1,-5.0044763E-1,-3.1301096E-1,-5.4042835E-2,2.2517289E-1,-2.3404962E-1,-1.3885991E-1,-2.061456E-1,5.970272E-3,-3.4949817E-2,1.0244371E-1,2.7163312E-1,1.4050879E-1,2.2187646E-1,3.897809E-1],"categories":[],"categories_nodes":[],"categories_segments":[],"categories_sizes":[],"default_left":[0,0,0,0,0,0,0,0,0,0,0,0,0,0,0,0,0,0,0,0,0,0,0,0,0,0,0,0,0,0,0],"id":6,"left_children":[1,3,5,7,9,11,13,15,17,19,21,23,25,27,29,-1,-1,-1,-1,-1,-1,-1,-1,-1,-1,-1,-1,-1,-1,-1,-1],"loss_changes":[1.0025137E5,9.666367E3,2.3343785E4,4.450926E3,2.4842207E3,7.574666E3,2.1845078E3,1.3118242E3,5.920547E2,9.82068E2,1.7553633E3,2.0970234E3,2.421586E3,8.2933984E2,1.0691367E3,0E0,0E0,0E0,0E0,0E0,0E0,0E0,0E0,0E0,0E0,0E0,0E0,0E0,0E0,0E0,0E0],"parents":[2147483647,0,0,1,1,2,2,3,3,4,4,5,5,6,6,7,7,8,8,9,9,10,10,11,11,12,12,13,13,14,14],"right_children":[2,4,6,8,10,12,14,16,18,20,22,24,26,28,30,-1,-1,-1,-1,-1,-1,-1,-1,-1,-1,-1,-1,-1,-1,-1,-1],"split_conditions":[4.2085E1,3.6483334E1,5.353E1,3.7E0,2.589E1,4.7185E1,1.0125E1,8.5E-1,6.25E-1,3E0,3.952E1,1.69E1,5E0,7.560225E0,5.25E0,-1.3291721E-1,-3.0397677E-1,-5.0044763E-1,-3.1301096E-1,-5.4042835E-2,2.2517289E-1,-2.3404962E-1,-1.3885991E-1,-2.061456E-1,5.970272E-3,-3.4949817E-2,1.0244371E-1,2.7163312E-1,1.4050879E-1,2.2187646E-1,3.897809E-1],"split_indices":[42,40,42,22,26,42,6,13,17,44,42,2,4,43,9,0,0,0,0,0,0,0,0,0,0,0,0,0,0,0,0],"split_type":[0,0,0,0,0,0,0,0,0,0,0,0,0,0,0,0,0,0,0,0,0,0,0,0,0,0,0,0,0,0,0],"sum_hessian":[8.516E3,2.169E3,6.347E3,8.15E2,1.354E3,5.624E3,7.23E2,5.41E2,2.74E2,9.8E1,1.256E3,2.44E3,3.184E3,3.23E2,4E2,8.8E1,4.53E2,2.36E2,3.8E1,7.1E1,2.7E1,6E2,6.56E2,7.6E1,2.364E3,2.2E2,2.964E3,1.82E2,1.41E2,8.1E1,3.19E2],"tree_param":{"num_deleted":"0","num_feature":"50","num_nodes":"31","size_leaf_vector":"1"}},{"base_weights":[-7.1468446E-3,-5.1130958E0,2.0453615E0,-7.5146575E0,-3.4317155E0,1.2961135E0,6.7931514E0,-6.159348E0,-1.0938409E1,-8.531839E-2,-4.175201E0,8.342819E-2,2.1648784E0,8.120585E0,4.231191E0,-6.8579115E-2,-2.7536044E-1,-4.7325912E-1,-2.7035362E-1,-3.7208546E-2,2.2320072E-1,-2.599987E-1,-1.4483176E-1,-3.8231444E-2,2.7292885E-2,-2.3152437E-2,9.5292635E-2,2.1705765E-1,3.834766E-1,2.4838614E-1,1.077117E-1],"categories":[],"categories_nodes":[],"categories_segments":[],"categories_sizes":[],"default_left":[0,0,0,0,0,0,0,0,0,0,0,0,0,0,0,0,0,0,0,0,0,0,0,0,0,0,0,0,0,0,0],"id":7,"left_children":[1,3,5,7,9,11,13,15,17,19,21,23,25,27,29,-1,-1,-1,-1,-1,-1,-1,-1,-1,-1,-1,-1,-1,-1,-1,-1],"loss_changes":[8.8744945E4,9.777234E3,2.1476309E4,4.5665195E3,3.5570547E3,5.496958E3,2.763293E3,2.300041E3,9.7078125E2,1.2540325E3,1.4834277E3,1.3567892E3,1.815165E3,2.0836992E3,8.437451E2,0E0,0E0,0E0,0E0,0E0,0E0,0E0,0E0,0E0,0E0,0E0,0E0,0E0,0E0,0E0,0E0],"parents":[2147483647,0,0,1,1,2,2,3,3,4,4,5,5,6,6,7,7,8,8,9,9,10,10,11,11,12,12,13,13,14,14],"right_children":[2,4,6,8,10,12,14,16,18,20,22,24,26,28,30,-1,-1,-1,-1,-1,-1,-1,-1,-1,-1,-1,-1,-1,-1,-1,-1],"split_conditions":[4.2815E1,3.774E1,5.297E1,3.7E0,8E-1,4.7185E1,2.7E0,8E-1,3.323E1,4.854E1,3.8485E1,4.4845E1,5E0,1.42E0,4.9944827E-1,-6.8579115E-2,-2.7536044E-1,-4.7325912E-1,-2.7035362E-1,-3.7208546E-2,2.2320072E-1,-2.599987E-1,-1.4483176E-1,-3.8231444E-2,2.7292885E-2,-2.3152437E-2,9.5292635E-2,2.1705765E-1,3.834766E-1,2.4838614E-1,1.077117E-1],"split_indices":[42,41,42,22,14,42,21,13,42,41,42,42,4,14,48,0,0,0,0,0,0,0,0,0,0,0,0,0,0,0,0],"split_type":[0,0,0,0,0,0,0,0,0,0,0,0,0,0,0,0,0,0,0,0,0,0,0,0,0,0,0,0,0,0,0],"sum_hessian":[8.466E3,2.427E3,6.039E3,9.98E2,1.429E3,5.217E3,8.22E2,7.17E2,2.81E2,2.6E2,1.169E3,2.178E3,3.039E3,5.4E2,2.82E2,1.01E2,6.16E2,2.3E2,5.1E1,2.27E2,3.3E1,2.23E2,9.46E2,7.96E2,1.382E3,2.23E2,2.816E3,1.92E2,3.48E2,1.22E2,1.6E2],"tree_param":{"num_deleted":"0","num_feature":"50","num_nodes":"31","size_leaf_vector":"1"}},{"base_weights":[-1.6067032E-2,-4.713966E0,1.9899935E0,-7.125578E0,-2.9376864E0,1.3678406E0,7.2675505E0,-5.913568E0,-1.04220705E1,-3.816473E0,-1.2058798E0,-2.961302E-1,1.9002448E0,9.252482E0,5.627483E0,-4.345653E-2,-2.5637686E-1,-4.5557684E-1,-2.5132853E-1,-1.8913057E-1,-1.02439985E-1,-6.5118685E-2,2.0698881E-1,-2.0910719E-1,-6.8386984E-3,-1.7783985E-2,8.503921E-2,3.9477292E-1,1.5666291E-1,1.5654927E-1,2.980242E-1],"categories":[],"categories_nodes":[],"categories_segments":[],"categories_sizes":[],"default_left":[0,0,0,0,0,0,0,0,0,0,0,0,0,0,0,0,0,0,0,0,0,0,0,0,0,0,0,0,0,0,0],"id":8,"left_children":[1,3,5,7,9,11,13,15,17,19,21,23,25,27,29,-1,-1,-1,-1,-1,-1,-1,-1,-1,-1,-1,-1,-1,-1,-1,-1],"loss_changes":[8.024788E4,1.0892922E4,1.958152E4,4.251746E3,2.2305498E3,4.7305693E3,1.9941055E3,1.8879883E3,1.0837461E3,1.1021289E3,1.3438823E3,7.9790027E2,2.1421914E3,8.9143555E2,1.0538633E3,0E0,0E0,0E0,0E0,0E0,0E0,0E0,0E0,0E0,0E0,0E0,0E0,0E0,0E0,0E0,0E0],"parents":[2147483647,0,0,1,1,2,2,3,3,4,4,5,5,6,6,7,7,8,8,9,9,10,10,11,11,12,12,13,13,14,14],"right_children":[2,4,6,8,10,12,14,16,18,20,22,24,26,28,30,-1,-1,-1,-1,-1,-1,-1,-1,-1,-1,-1,-1,-1,-1,-1,-1],"split_conditions":[4.313E1,3.801E1,5.4025E1,3.7E0,4.21E1,4.597E1,1.74E0,1E-1,3.323E1,4.0585E1,4.865E1,1.54E1,5E0,3.53E1,1E1,-4.345653E-2,-2.5637686E-1,-4.5557684E-1,-2.5132853E-1,-1.8913057E-1,-1.02439985E-1,-6.5118685E-2,2.0698881E-1,-2.0910719E-1,-6.8386984E-3,-1.7783985E-2,8.503921E-2,3.9477292E-1,1.5666291E-1,1.5654927E-1,2.980242E-1],"split_indices":[42,41,42,22,41,42,22,15,42,42,41,34,4,24,5,0,0,0,0,0,0,0,0,0,0,0,0,0,0,0,0],"split_type":[0,0,0,0,0,0,0,0,0,0,0,0,0,0,0,0,0,0,0,0,0,0,0,0,0,0,0,0,0,0,0],"sum_hessian":[8.513E3,2.547E3,5.966E3,1.079E3,1.468E3,5.338E3,6.28E2,7.91E2,2.88E2,9.73E2,4.95E2,1.294E3,4.044E3,2.82E2,3.46E2,7.4E1,7.17E2,2.32E2,5.6E1,5.62E2,4.11E2,4.65E2,3E1,3.1E1,1.263E3,3.55E2,3.689E3,2.52E2,3E1,1.8E2,1.66E2],"tree_param":{"num_deleted":"0","num_feature":"50","num_nodes":"31","size_leaf_vector":"1"}},{"base_weights":[4.818382E-2,-4.629105E0,1.9907793E0,-7.3545747E0,-3.247103E0,1.4327427E0,6.751559E0,-5.896806E0,-9.972154E0,-4.6242476E0,-2.2052567E0,1.3274057E-2,2.134374E0,7.7595325E0,3.093656E0,-1.9946026E-2,-2.544311E-1,-4.3328342E-1,-2.5155345E-1,-1.13610275E-1,-2.1672013E-1,1.4309897E-2,-1.274491E-1,-1.860822E-1,4.0499247E-3,-1.9469924E-2,9.496824E-2,1.0219343E-1,3.3837414E-1,-2.2977285E-2,1.8604152E-1],"categories":[],"categories_nodes":[],"categories_segments":[],"categories_sizes":[],"default_left":[0,0,0,0,0,0,0,0,0,0,0,0,0,0,0,0,0,0,0,0,0,0,0,0,0,0,0,0,0,0,0],"id":9,"left_children":[1,3,5,7,9,11,13,15,17,19,21,23,25,27,29,-1,-1,-1,-1,-1,-1,-1,-1,-1,-1,-1,-1,-1,-1,-1,-1],"loss_changes":[7.737692E4,9.387805E3,1.5974805E4,3.1449023E3,2.3708438E3,5.3649043E3,2.3014492E3,1.3536328E3,8.7721875E2,9.948467E2,2.3824004E3,7.318091E2,2.2675527E3,1.7766133E3,7.9142017E2,0E0,0E0,0E0,0E0,0E0,0E0,0E0,0E0,0E0,0E0,0E0,0E0,0E0,0E0,0E0,0E0],"parents":[2147483647,0,0,1,1,2,2,3,3,4,4,5,5,6,6,7,7,8,8,9,9,10,10,11,11,12,12,13,13,14,14],"right_children":[2,4,6,8,10,12,14,16,18,20,22,24,26,28,30,-1,-1,-1,-1,-1,-1,-1,-1,-1,-1,-1,-1,-1,-1,-1,-1],"split_conditions":[4.313E1,3.6483334E1,5.4025E1,3.61E0,4E0,4.6735E1,2.94E0,7E-1,6.4E-1,9E-1,8.9E-1,1.69E1,5E0,6.5E-1,7.5E0,-1.9946026E-2,-2.544311E-1,-4.3328342E-1,-2.5155345E-1,-1.13610275E-1,-2.1672013E-1,1.4309897E-2,-1.274491E-1,-1.860822E-1,4.0499247E-3,-1.9469924E-2,9.496824E-2,1.0219343E-1,3.3837414E-1,-2.2977285E-2,1.8604152E-1],"split_indices":[42,40,42,22,8,42,22,13,18,13,18,2,4,17,4,0,0,0,0,0,0,0,0,0,0,0,0,0,0,0,0],"split_type":[0,0,0,0,0,0,0,0,0,0,0,0,0,0,0,0,0,0,0,0,0,0,0,0,0,0,0,0,0,0,0],"sum_hessian":[8.514E3,2.498E3,6.016E3,8.39E2,1.659E3,5.386E3,6.3E2,5.41E2,2.98E2,7.13E2,9.46E2,1.782E3,3.604E3,4.93E2,1.37E2,4.3E1,4.98E2,2.4E2,5.8E1,2.21E2,4.92E2,2.62E2,6.84E2,3.2E1,1.75E3,3.02E2,3.302E3,5.9E1,4.34E2,4.1E1,9.6E1],"tree_param":{"num_deleted":"0","num_feature":"50","num_nodes":"31","size_leaf_vector":"1"}},{"base_weights":[-1.3882174E-2,-4.3106613E0,1.8526533E0,-6.917585E0,-3.088986E0,1.2779261E0,6.9177136E0,-5.545806E0,-9.785721E0,6.859503E-1,-3.6561165E0,3.3814698E-1,2.226805E0,8.006181E0,3.7608287E0,-9.327253E-2,-2.485086E-1,-1.6692445E-1,-4.1852155E-1,-1.3602045E-3,1.1649964E-1,-1.8122339E-1,-8.410515E-2,-1.373578E-2,4.05969E-2,-1.1450863E-2,9.932839E-2,1.5599076E-1,3.498857E-1,8.58828E-3,1.9923666E-1],"categories":[],"categories_nodes":[],"categories_segments":[],"categories_sizes":[],"default_left":[0,0,0,0,0,0,0,0,0,0,0,0,0,0,0,0,0,0,0,0,0,0,0,0,0,0,0,0,0,0,0],"id":10,"left_children":[1,3,5,7,9,11,13,15,17,19,21,23,25,27,29,-1,-1,-1,-1,-1,-1,-1,-1,-1,-1,-1,-1,-1,-1,-1,-1],"loss_changes":[6.7874234E4,8.1403125E3,1.7165404E4,3.1586367E3,3.7429258E3,4.7251943E3,2.0338477E3,1.1742695E3,9.546758E2,3.6747623E2,2.053334E3,1.2291874E3,1.7001221E3,1.321666E3,6.7335767E2,0E0,0E0,0E0,0E0,0E0,0E0,0E0,0E0,0E0,0E0,0E0,0E0,0E0,0E0,0E0,0E0],"parents":[2147483647,0,0,1,1,2,2,3,3,4,4,5,5,6,6,7,7,8,8,9,9,10,10,11,11,12,12,13,13,14,14],"right_children":[2,4,6,8,10,12,14,16,18,20,22,24,26,28,30,-1,-1,-1,-1,-1,-1,-1,-1,-1,-1,-1,-1,-1,-1,-1,-1],"split_conditions":[4.331E1,3.6483334E1,5.4025E1,3.7E0,6.9E-1,4.811E1,2.82E0,8.5E-1,1.5E0,4.7283333E1,4.1205E1,1.1666666E0,5.5E0,1.2875E0,1.4832397E0,-9.327253E-2,-2.485086E-1,-1.6692445E-1,-4.1852155E-1,-1.3602045E-3,1.1649964E-1,-1.8122339E-1,-8.410515E-2,-1.373578E-2,4.05969E-2,-1.1450863E-2,9.932839E-2,1.5599076E-1,3.498857E-1,8.58828E-3,1.9923666E-1],"split_indices":[42,40,42,22,14,42,22,14,14,40,42,13,5,14,7,0,0,0,0,0,0,0,0,0,0,0,0,0,0,0,0],"split_type":[0,0,0,0,0,0,0,0,0,0,0,0,0,0,0,0,0,0,0,0,0,0,0,0,0,0,0,0,0,0,0],"sum_hessian":[8.461E3,2.562E3,5.899E3,8.16E2,1.746E3,5.299E3,6E2,5.54E2,2.62E2,2.28E2,1.518E3,2.663E3,2.636E3,4.45E2,1.55E2,9.6E1,4.58E2,2.9E1,2.33E2,1.73E2,5.5E1,9.7E2,5.48E2,1.327E3,1.336E3,2.44E2,2.392E3,6.9E1,3.76E2,4E1,1.15E2],"tree_param":{"num_deleted":"0","num_feature":"50","num_nodes":"31","size_leaf_vector":"1"}},{"base_weights":[-2.5213819E-2,-4.3474574E0,1.814539E0,-6.863886E0,-3.2786617E0,1.2502701E0,5.816608E0,-5.420319E0,-9.3515415E0,-1.2509225E-1,-3.7684295E0,-9.880158E-2,1.8378843E0,4.33988E0,7.446956E0,2.6145605E-2,-2.3731187E-1,-4.026773E-1,-2.2338673E-1,2.8359674E-2,-1.0077265E-1,-2.3927669E-1,-1.2584947E-1,-3.986678E-2,2.086449E-2,-4.0524635E-2,8.370234E-2,5.8634713E-2,2.01577E-1,9.467045E-2,3.2562843E-1],"categories":[],"categories_nodes":[],"categories_segments":[],"categories_sizes":[],"default_left":[0,0,0,0,0,0,0,0,0,0,0,0,0,0,0,0,0,0,0,0,0,0,0,0,0,0,0,0,0,0,0],"id":11,"left_children":[1,3,5,7,9,11,13,15,17,19,21,23,25,27,29,-1,-1,-1,-1,-1,-1,-1,-1,-1,-1,-1,-1,-1,-1,-1,-1],"loss_changes":[6.709004E4,6.751453E3,1.3356303E4,2.6411562E3,2.7329336E3,4.1130586E3,1.7264453E3,1.4891963E3,6.8058594E2,4.792464E2,2.090162E3,8.779207E2,2.6262676E3,7.680156E2,1.199127E3,0E0,0E0,0E0,0E0,0E0,0E0,0E0,0E0,0E0,0E0,0E0,0E0,0E0,0E0,0E0,0E0],"parents":[2147483647,0,0,1,1,2,2,3,3,4,4,5,5,6,6,7,7,8,8,9,9,10,10,11,11,12,12,13,13,14,14],"right_children":[2,4,6,8,10,12,14,16,18,20,22,24,26,28,30,-1,-1,-1,-1,-1,-1,-1,-1,-1,-1,-1,-1,-1,-1,-1,-1],"split_conditions":[4.313E1,3.5933334E1,5.337E1,3.65E0,7.3E-1,4.6405E1,5.6145E1,6.333333E-1,6.111111E0,4.2265E1,3E0,6.0579906E0,5E0,1.4832397E0,4.7777777E0,2.6145605E-2,-2.3731187E-1,-4.026773E-1,-2.2338673E-1,2.8359674E-2,-1.0077265E-1,-2.3927669E-1,-1.2584947E-1,-3.986678E-2,2.086449E-2,-4.0524635E-2,8.370234E-2,5.8634713E-2,2.01577E-1,9.467045E-2,3.2562843E-1],"split_indices":[42,40,42,22,14,42,42,12,6,42,10,43,5,7,10,0,0,0,0,0,0,0,0,0,0,0,0,0,0,0,0],"split_type":[0,0,0,0,0,0,0,0,0,0,0,0,0,0,0,0,0,0,0,0,0,0,0,0,0,0,0,0,0,0,0],"sum_hessian":[8.435E3,2.518E3,5.917E3,7.49E2,1.769E3,5.187E3,7.3E2,4.76E2,2.73E2,2.38E2,1.531E3,1.574E3,3.613E3,3.85E2,3.45E2,3.7E1,4.39E2,2.28E2,4.5E1,1.77E2,6.1E1,3.34E2,1.197E3,6.43E2,9.31E2,2.96E2,3.317E3,7.6E1,3.09E2,4.2E1,3.03E2],"tree_param":{"num_deleted":"0","num_feature":"50","num_nodes":"31","size_leaf_vector":"1"}},{"base_weights":[3.1506496E-3,-4.651748E0,1.5957288E0,-3.954656E0,-8.409372E0,8.335151E-1,4.591882E0,-5.269107E-1,-4.596809E0,-2.037959E0,-9.166816E0,-4.1160586E-1,1.445312E0,3.5302918E0,6.916155E0,-4.633582E-2,1.5142204E-1,-2.4954791E-1,-1.4616038E-1,9.773865E-2,-1.7163128E-1,-3.9464772E-1,-2.6536572E-1,-1.437307E-1,-9.731676E-3,-8.5247554E-2,6.498217E-2,-8.2611874E-2,1.4950582E-1,1.8892524E-1,3.5082164E-1],"categories":[],"categories_nodes":[],"categories_segments":[],"categories_sizes":[],"default_left":[0,0,0,0,0,0,0,0,0,0,0,0,0,0,0,0,0,0,0,0,0,0,0,0,0,0,0,0,0,0,0],"id":12,"left_children":[1,3,5,7,9,11,13,15,17,19,21,23,25,27,29,-1,-1,-1,-1,-1,-1,-1,-1,-1,-1,-1,-1,-1,-1,-1,-1],"loss_changes":[6.2612348E4,5.6051016E3,1.4367011E4,3.9987305E3,1.6017285E3,3.823216E3,3.1229766E3,7.884197E2,2.3461582E3,3.8421585E2,4.642832E2,8.844891E2,2.1605786E3,1.0265986E3,1.5798438E3,0E0,0E0,0E0,0E0,0E0,0E0,0E0,0E0,0E0,0E0,0E0,0E0,0E0,0E0,0E0,0E0],"parents":[2147483647,0,0,1,1,2,2,3,3,4,4,5,5,6,6,7,7,8,8,9,9,10,10,11,11,12,12,13,13,14,14],"right_children":[2,4,6,8,10,12,14,16,18,20,22,24,26,28,30,-1,-1,-1,-1,-1,-1,-1,-1,-1,-1,-1,-1,-1,-1,-1,-1],"split_conditions":[4.2085E1,3.7E0,5.165E1,8E-1,1.27E0,4.597E1,5.5775E1,4.9516666E1,3.764E1,5.632872E0,6.5E0,7.714286E0,4.25E0,6.6E-1,3.3615473E-1,-4.633582E-2,1.5142204E-1,-2.4954791E-1,-1.4616038E-1,9.773865E-2,-1.7163128E-1,-3.9464772E-1,-2.6536572E-1,-1.437307E-1,-9.731676E-3,-8.5247554E-2,6.498217E-2,-8.2611874E-2,1.4950582E-1,1.8892524E-1,3.5082164E-1],"split_indices":[42,22,42,14,14,42,42,40,42,43,5,30,5,14,15,0,0,0,0,0,0,0,0,0,0,0,0,0,0,0,0],"split_type":[0,0,0,0,0,0,0,0,0,0,0,0,0,0,0,0,0,0,0,0,0,0,0,0,0,0,0,0,0,0,0],"sum_hessian":[8.444E3,2.152E3,6.292E3,1.817E3,3.35E2,5.017E3,1.275E3,2.87E2,1.53E3,3.6E1,2.99E2,1.653E3,3.364E3,8.77E2,3.98E2,2.51E2,3.6E1,5.56E2,9.74E2,1.2E1,2.4E1,2.32E2,6.7E1,8.2E1,1.571E3,1.6E2,3.204E3,3.1E1,8.46E2,1.84E2,2.14E2],"tree_param":{"num_deleted":"0","num_feature":"50","num_nodes":"31","size_leaf_vector":"1"}},{"base_weights":[-1.1343247E-2,-4.069234E0,1.7175199E0,-5.9989834E0,-2.6100385E0,1.1188637E0,4.9521713E0,-4.9365196E0,-8.774307E0,5.034381E-1,-3.0030243E0,-2.4699312E-1,1.6444625E0,3.8405752E0,6.9331994E0,-7.2693005E-2,-2.2436641E-1,-3.7359825E-1,-2.0245492E-1,-1.7325532E-2,1.8034555E-1,-1.9838203E-1,-1.0130318E-1,-2.0044178E-1,-5.2659423E-3,-3.3372052E-2,7.465465E-2,5.047087E-1,1.4617726E-1,1.2229259E-1,3.0888855E-1],"categories":[],"categories_nodes":[],"categories_segments":[],"categories_sizes":[],"default_left":[0,0,0,0,0,0,0,0,0,0,0,0,0,0,0,0,0,0,0,0,0,0,0,0,0,0,0,0,0,0,0],"id":13,"left_children":[1,3,5,7,9,11,13,15,17,19,21,23,25,27,29,-1,-1,-1,-1,-1,-1,-1,-1,-1,-1,-1,-1,-1,-1,-1,-1],"loss_changes":[5.9597203E4,7.1301875E3,1.1529248E4,3.1752773E3,1.7722412E3,3.6101104E3,2.02025E3,1.6507559E3,5.834531E2,6.138022E2,1.1694521E3,7.670375E2,1.9988828E3,9.292803E2,9.936699E2,0E0,0E0,0E0,0E0,0E0,0E0,0E0,0E0,0E0,0E0,0E0,0E0,0E0,0E0,0E0,0E0],"parents":[2147483647,0,0,1,1,2,2,3,3,4,4,5,5,6,6,7,7,8,8,9,9,10,10,11,11,12,12,13,13,14,14],"right_children":[2,4,6,8,10,12,14,16,18,20,22,24,26,28,30,-1,-1,-1,-1,-1,-1,-1,-1,-1,-1,-1,-1,-1,-1,-1,-1],"split_conditions":[4.313E1,3.801E1,5.27E1,3.7E0,6.4E-1,4.614E1,5.6525E1,8.5E-1,7.9E-1,4.854E1,3.1E0,1.56E1,5E0,2.1875E1,5.5E0,-7.2693005E-2,-2.2436641E-1,-3.7359825E-1,-2.0245492E-1,-1.7325532E-2,1.8034555E-1,-1.9838203E-1,-1.0130318E-1,-2.0044178E-1,-5.2659423E-3,-3.3372052E-2,7.465465E-2,5.047087E-1,1.4617726E-1,1.2229259E-1,3.0888855E-1],"split_indices":[42,41,42,22,14,42,42,13,18,41,10,34,6,34,8,0,0,0,0,0,0,0,0,0,0,0,0,0,0,0,0],"split_type":[0,0,0,0,0,0,0,0,0,0,0,0,0,0,0,0,0,0,0,0,0,0,0,0,0,0,0,0,0,0,0],"sum_hessian":[8.493E3,2.537E3,5.956E3,1.091E3,1.446E3,5.027E3,9.29E2,7.91E2,3E2,1.62E2,1.284E3,1.397E3,3.63E3,5.97E2,3.32E2,1.41E2,6.5E2,2.59E2,4.1E1,1.32E2,3E1,2.47E2,1.037E3,3.2E1,1.365E3,2.98E2,3.332E3,1.1E1,5.86E2,5.7E1,2.75E2],"tree_param":{"num_deleted":"0","num_feature":"50","num_nodes":"31","size_leaf_vector":"1"}},{"base_weights":[-6.854112E-2,-4.436939E0,1.2881873E0,-3.8953725E-1,-4.977381E0,7.487455E-1,4.8570237E0,-1.5390828E0,1.5511521E0,-8.737054E0,-4.2397494E0,-5.601998E-1,1.3592129E0,6.4844465E0,3.4162486E0,-2.2599286E-1,-2.9973757E-2,-4.0357616E-2,1.6778526E-1,-2.5002375E-1,-3.7167868E-1,-2.4045369E-1,-1.3518715E-1,1.9190197E-3,-5.5917993E-2,-3.733064E-2,6.364238E-2,1.7694516E-1,3.1289208E-1,-1.337116E-1,1.5478602E-1],"categories":[],"categories_nodes":[],"categories_segments":[],"categories_sizes":[],"default_left":[0,0,0,0,0,0,0,0,0,0,0,0,0,0,0,0,0,0,0,0,0,0,0,0,0,0,0,0,0,0,0],"id":14,"left_children":[1,3,5,7,9,11,13,15,17,19,21,23,25,27,29,-1,-1,-1,-1,-1,-1,-1,-1,-1,-1,-1,-1,-1,-1,-1,-1],"loss_changes":[5.0294324E4,4.3963555E3,1.2461339E4,5.3334283E2,4.881414E3,4.4964E3,1.9698945E3,4.8208798E2,6.0686285E2,3.4049805E2,2.2414316E3,9.1220496E2,2.0409312E3,1.0614883E3,1.4012344E3,0E0,0E0,0E0,0E0,0E0,0E0,0E0,0E0,0E0,0E0,0E0,0E0,0E0,0E0,0E0,0E0],"parents":[2147483647,0,0,1,1,2,2,3,3,4,4,5,5,6,6,7,7,8,8,9,9,10,10,11,11,12,12,13,13,14,14],"right_children":[2,4,6,8,10,12,14,16,18,20,22,24,26,28,30,-1,-1,-1,-1,-1,-1,-1,-1,-1,-1,-1,-1,-1,-1,-1,-1],"split_conditions":[4.169E1,7.9E-1,5.297E1,6.5E0,3.323E1,4.597E1,4.999949E-1,2E0,7.6666665E-1,2.9E0,2.9E0,3.182E1,5E0,5.5E0,3.8333333E0,-2.2599286E-1,-2.9973757E-2,-4.0357616E-2,1.6778526E-1,-2.5002375E-1,-3.7167868E-1,-2.4045369E-1,-1.3518715E-1,1.9190197E-3,-5.5917993E-2,-3.733064E-2,6.364238E-2,1.7694516E-1,3.1289208E-1,-1.337116E-1,1.5478602E-1],"split_indices":[42,14,42,5,42,42,48,44,12,10,10,26,5,8,10,0,0,0,0,0,0,0,0,0,0,0,0,0,0,0,0],"split_type":[0,0,0,0,0,0,0,0,0,0,0,0,0,0,0,0,0,0,0,0,0,0,0,0,0,0,0,0,0,0,0],"sum_hessian":[8.484E3,2.01E3,6.474E3,2.37E2,1.773E3,5.625E3,8.49E2,1.49E2,8.8E1,2.89E2,1.484E3,1.789E3,3.836E3,3.97E2,4.52E2,2.3E1,1.26E2,4.5E1,4.3E1,5.5E1,2.34E2,4.83E2,1.001E3,1.037E3,7.52E2,3.52E2,3.484E3,1.58E2,2.39E2,2.8E1,4.24E2],"tree_param":{"num_deleted":"0","num_feature":"50","num_nodes":"31","size_leaf_vector":"1"}},{"base_weights":[1.1998377E-1,-3.2012398E0,1.8325415E0,-5.4452486E0,-1.9214983E0,1.3575956E0,5.6649957E0,-4.5460753E0,-7.840422E0,8.4331656E-1,-2.2092721E0,1.6503929E-1,1.7211677E0,6.955036E0,4.360566E0,-7.061303E-2,-1.987662E-1,-3.3609274E-1,-1.8895823E-1,1.2621735E-2,2.4248365E-1,-1.6434507E-1,-7.247405E-2,-8.343752E-2,1.7832357E-2,5.2229345E-2,1.19145915E-1,1.5376964E-1,3.138367E-1,6.8017155E-2,2.1034513E-1],"categories":[],"categories_nodes":[],"categories_segments":[],"categories_sizes":[],"default_left":[0,0,0,0,0,0,0,0,0,0,0,0,0,0,0,0,0,0,0,0,0,0,0,0,0,0,0,0,0,0,0],"id":15,"left_children":[1,3,5,7,9,11,13,15,17,19,21,23,25,27,29,-1,-1,-1,-1,-1,-1,-1,-1,-1,-1,-1,-1,-1,-1,-1,-1],"loss_changes":[4.8499805E4,8.31975E3,1.02321E4,2.2309375E3,1.4731406E3,2.170463E3,1.01185547E3,8.940908E2,4.5981836E2,4.7945706E2,1.2563262E3,7.4084515E2,2.0001318E3,8.277881E2,7.3333154E2,0E0,0E0,0E0,0E0,0E0,0E0,0E0,0E0,0E0,0E0,0E0,0E0,0E0,0E0,0E0,0E0],"parents":[2147483647,0,0,1,1,2,2,3,3,4,4,5,5,6,6,7,7,8,8,9,9,10,10,11,11,12,12,13,13,14,14],"right_children":[2,4,6,8,10,12,14,16,18,20,22,24,26,28,30,-1,-1,-1,-1,-1,-1,-1,-1,-1,-1,-1,-1,-1,-1,-1,-1],"split_conditions":[4.418E1,3.801E1,5.4025E1,3.7E0,6.5E-1,6E0,4.9982175E-1,1.32E1,3.485E1,1.0426505E1,3.2E0,3.7E0,1.4666667E0,2.0736441E-1,1.2333333E0,-7.061303E-2,-1.987662E-1,-3.3609274E-1,-1.8895823E-1,1.2621735E-2,2.4248365E-1,-1.6434507E-1,-7.247405E-2,-8.343752E-2,1.7832357E-2,5.2229345E-2,1.19145915E-1,1.5376964E-1,3.138367E-1,6.8017155E-2,2.1034513E-1],"split_indices":[42,41,42,22,12,6,48,34,41,27,9,6,12,15,12,0,0,0,0,0,0,0,0,0,0,0,0,0,0,0,0],"split_type":[0,0,0,0,0,0,0,0,0,0,0,0,0,0,0,0,0,0,0,0,0,0,0,0,0,0,0,0,0,0,0],"sum_hessian":[8.525E3,2.9E3,5.625E3,1.052E3,1.848E3,5.006E3,6.19E2,7.67E2,2.85E2,1.74E2,1.674E3,1.17E3,3.836E3,3.09E2,3.1E2,1.02E2,6.65E2,2.4E2,4.5E1,1.59E2,1.5E1,2.88E2,1.386E3,1.29E2,1.041E3,2.885E3,9.51E2,7E1,2.39E2,7.9E1,2.31E2],"tree_param":{"num_deleted":"0","num_feature":"50","num_nodes":"31","size_leaf_vector":"1"}},{"base_weights":[-1.633991E-2,-3.4978318E0,1.5208583E0,-5.3286667E0,-2.347259E0,9.727976E-1,4.2702074E0,-1.1410257E0,-6.1646996E0,-1.7776864E0,-4.204041E0,-1.5754707E-1,1.3890624E0,3.3202975E0,6.177106E0,-1.1235854E-1,8.8537574E-2,-3.2590932E-1,-2.0472503E-1,-1.3907133E-1,-4.8420224E-2,-1.7739579E-1,4.8135597E-2,1.5100236E-1,-1.1617748E-2,-3.7502524E-2,6.516106E-2,1.9217059E-2,1.495998E-1,8.754136E-2,2.7469927E-1],"categories":[],"categories_nodes":[],"categories_segments":[],"categories_sizes":[],"default_left":[0,0,0,0,0,0,0,0,0,0,0,0,0,0,0,0,0,0,0,0,0,0,0,0,0,0,0,0,0,0,0],"id":16,"left_children":[1,3,5,7,9,11,13,15,17,19,21,23,25,27,29,-1,-1,-1,-1,-1,-1,-1,-1,-1,-1,-1,-1,-1,-1,-1,-1],"loss_changes":[4.5131418E4,5.427836E3,8.810163E3,3.4792344E3,1.6713535E3,2.296022E3,1.7392031E3,9.406486E2,1.6795488E3,1.1681396E3,4.700381E2,6.8748395E2,1.9925171E3,7.737007E2,8.7072754E2,0E0,0E0,0E0,0E0,0E0,0E0,0E0,0E0,0E0,0E0,0E0,0E0,0E0,0E0,0E0,0E0],"parents":[2147483647,0,0,1,1,2,2,3,3,4,4,5,5,6,6,7,7,8,8,9,9,10,10,11,11,12,12,13,13,14,14],"right_children":[2,4,6,8,10,12,14,16,18,20,22,24,26,28,30,-1,-1,-1,-1,-1,-1,-1,-1,-1,-1,-1,-1,-1,-1,-1,-1],"split_conditions":[4.331E1,3.764E1,5.247E1,8.5E-1,1.74E0,4.614E1,5.6525E1,2.3E1,6.666667E-1,3.2E0,2.67E1,2.2E0,5E0,7.3E0,5.25E0,-1.1235854E-1,8.8537574E-2,-3.2590932E-1,-2.0472503E-1,-1.3907133E-1,-4.8420224E-2,-1.7739579E-1,4.8135597E-2,1.5100236E-1,-1.1617748E-2,-3.7502524E-2,6.516106E-2,1.9217059E-2,1.495998E-1,8.754136E-2,2.7469927E-1],"split_indices":[42,42,42,14,14,42,42,32,17,9,2,9,4,6,9,0,0,0,0,0,0,0,0,0,0,0,0,0,0,0,0],"split_type":[0,0,0,0,0,0,0,0,0,0,0,0,0,0,0,0,0,0,0,0,0,0,0,0,0,0,0,0,0,0,0],"sum_hessian":[8.431E3,2.582E3,5.849E3,9.95E2,1.587E3,4.878E3,9.71E2,1.66E2,8.29E2,1.216E3,3.71E2,1.313E3,3.565E3,6.5E2,3.21E2,1.11E2,5.5E1,2.84E2,5.45E2,3.03E2,9.13E2,3.56E2,1.5E1,4.2E1,1.271E3,3.33E2,3.232E3,8.4E1,5.66E2,4.8E1,2.73E2],"tree_param":{"num_deleted":"0","num_feature":"50","num_nodes":"31","size_leaf_vector":"1"}},{"base_weights":[-4.6250947E-2,-3.2960246E0,1.3680035E0,-5.1098075E0,-2.0873783E0,7.1589875E-1,3.6672728E0,-9.4508216E-2,-5.488514E0,-3.4034946E0,-1.5135982E0,-2.3922662E-1,1.1152748E0,2.6236827E0,5.062587E0,8.063905E-2,-1.5074071E-1,-3.142688E-1,-1.7359443E-1,1.0191101E-2,-1.5254869E-1,-3.6493946E-2,-1.543626E-1,1.4506894E-1,-1.4994849E-2,-3.5894286E-2,5.3175554E-2,-1.2559894E-1,1.1179452E-1,5.865805E-2,2.237725E-1],"categories":[],"categories_nodes":[],"categories_segments":[],"categories_sizes":[],"default_left":[0,0,0,0,0,0,0,0,0,0,0,0,0,0,0,0,0,0,0,0,0,0,0,0,0,0,0,0,0,0,0],"id":17,"left_children":[1,3,5,7,9,11,13,15,17,19,21,23,25,27,29,-1,-1,-1,-1,-1,-1,-1,-1,-1,-1,-1,-1,-1,-1,-1,-1],"loss_changes":[3.8877723E4,5.611666E3,8.834189E3,1.9457305E3,1.1580596E3,1.7523738E3,1.8818379E3,5.7381E2,2.55708E3,7.021577E2,1.511979E3,7.115902E2,1.3970269E3,7.45749E2,1.05425E3,0E0,0E0,0E0,0E0,0E0,0E0,0E0,0E0,0E0,0E0,0E0,0E0,0E0,0E0,0E0,0E0],"parents":[2147483647,0,0,1,1,2,2,3,3,4,4,5,5,6,6,7,7,8,8,9,9,10,10,11,11,12,12,13,13,14,14],"right_children":[2,4,6,8,10,12,14,16,18,20,22,24,26,28,30,-1,-1,-1,-1,-1,-1,-1,-1,-1,-1,-1,-1,-1,-1,-1,-1],"split_conditions":[4.331E1,3.774E1,5.155E1,2.418E1,3.5E0,4.614E1,1.01E1,2.5066668E1,3.323E1,6.5E-1,1.86E0,2.2E0,5E0,6.5E-1,7.5E-1,8.063905E-2,-1.5074071E-1,-3.142688E-1,-1.7359443E-1,1.0191101E-2,-1.5254869E-1,-3.6493946E-2,-1.543626E-1,1.4506894E-1,-1.4994849E-2,-3.5894286E-2,5.3175554E-2,-1.2559894E-1,1.1179452E-1,5.865805E-2,2.237725E-1],"split_indices":[42,41,42,25,8,42,6,24,42,13,13,9,6,13,12,0,0,0,0,0,0,0,0,0,0,0,0,0,0,0,0],"split_type":[0,0,0,0,0,0,0,0,0,0,0,0,0,0,0,0,0,0,0,0,0,0,0,0,0,0,0,0,0,0,0],"sum_hessian":[8.457E3,2.564E3,5.893E3,1.024E3,1.54E3,4.592E3,1.301E3,7.2E1,9.52E2,4.66E2,1.074E3,1.354E3,3.238E3,7.46E2,5.55E2,4.6E1,2.6E1,3.09E2,6.43E2,4.7E1,4.19E2,8.56E2,2.18E2,4.5E1,1.309E3,3.11E2,2.927E3,2.1E1,7.25E2,7.2E1,4.83E2],"tree_param":{"num_deleted":"0","num_feature":"50","num_nodes":"31","size_leaf_vector":"1"}},{"base_weights":[3.627575E-2,-2.879824E0,1.5714937E0,-4.9464087E0,-1.8218765E0,1.0984801E0,4.3555226E0,-4.0439086E0,-7.1206107E0,5.716219E-1,-2.0923648E0,-6.155762E-2,1.436313E0,3.638328E0,6.0983906E0,-9.193859E-3,-1.7610572E-1,-3.2893917E-1,-1.8614943E-1,1.5450048E-3,1.9123363E-1,-1.5328482E-1,-6.890556E-2,2.9872993E-2,-3.5044078E-2,2.5295619E-2,8.6225085E-2,5.6412745E-1,1.3931946E-1,-1.6180111E-2,2.6329687E-1],"categories":[],"categories_nodes":[],"categories_segments":[],"categories_sizes":[],"default_left":[0,0,0,0,0,0,0,0,0,0,0,0,0,0,0,0,0,0,0,0,0,0,0,0,0,0,0,0,0,0,0],"id":18,"left_children":[1,3,5,7,9,11,13,15,17,19,21,23,25,27,29,-1,-1,-1,-1,-1,-1,-1,-1,-1,-1,-1,-1,-1,-1,-1,-1],"loss_changes":[3.7708414E4,6.341621E3,7.2612383E3,1.8989473E3,1.2463242E3,1.8492051E3,9.780674E2,9.5218555E2,7.412656E2,4.390594E2,1.1043486E3,7.019307E2,2.1113677E3,8.7572656E2,7.335244E2,0E0,0E0,0E0,0E0,0E0,0E0,0E0,0E0,0E0,0E0,0E0,0E0,0E0,0E0,0E0,0E0],"parents":[2147483647,0,0,1,1,2,2,3,3,4,4,5,5,6,6,7,7,8,8,9,9,10,10,11,11,12,12,13,13,14,14],"right_children":[2,4,6,8,10,12,14,16,18,20,22,24,26,28,30,-1,-1,-1,-1,-1,-1,-1,-1,-1,-1,-1,-1,-1,-1,-1,-1],"split_conditions":[4.425E1,3.774E1,5.3105E1,3.66E0,6.75E-1,5.714286E0,5.7765E1,1E-1,6.333333E-1,4.7283333E1,3.2E0,9.3E-1,1.1666666E0,2.18E1,5.2E0,-9.193859E-3,-1.7610572E-1,-3.2893917E-1,-1.8614943E-1,1.5450048E-3,1.9123363E-1,-1.5328482E-1,-6.890556E-2,2.9872993E-2,-3.5044078E-2,2.5295619E-2,8.6225085E-2,5.6412745E-1,1.3931946E-1,-1.6180111E-2,2.6329687E-1],"split_indices":[42,41,42,21,13,6,42,15,16,40,9,18,13,34,9,0,0,0,0,0,0,0,0,0,0,0,0,0,0,0,0],"split_type":[0,0,0,0,0,0,0,0,0,0,0,0,0,0,0,0,0,0,0,0,0,0,0,0,0,0,0,0,0,0,0],"sum_hessian":[8.421E3,2.904E3,5.517E3,9.82E2,1.922E3,4.717E3,8E2,6.96E2,2.86E2,1.95E2,1.727E3,1.064E3,3.653E3,5.69E2,2.31E2,6E1,6.36E2,1.96E2,9E1,1.74E2,2.1E1,3.01E2,1.426E3,5.34E2,5.3E2,1.726E3,1.927E3,7E0,5.62E2,1.6E1,2.15E2],"tree_param":{"num_deleted":"0","num_feature":"50","num_nodes":"31","size_leaf_vector":"1"}},{"base_weights":[-5.5783624E-3,-3.2647002E0,8.3961374E-1,-1.8150195E0,-4.7287273E0,-3.7126943E-2,2.2610338E0,-4.1558447E0,-8.0172455E-1,-3.5140152E0,-6.7807493E0,-1.9100775E0,8.22396E-1,1.1783675E0,3.6723647E0,-5.8171477E-2,-1.8718277E-1,-4.03726E-3,-1.1629314E-1,-1.5135254E-1,1.3985202E-1,-2.0680761E-1,-2.9500532E-1,-1.2682183E-1,-1.699388E-2,-2.034626E-2,5.0060615E-2,2.5608646E-2,1.0564331E-1,1.02541044E-1,2.1763468E-1],"categories":[],"categories_nodes":[],"categories_segments":[],"categories_sizes":[],"default_left":[0,0,0,0,0,0,0,0,0,0,0,0,0,0,0,0,0,0,0,0,0,0,0,0,0,0,0,0,0,0,0],"id":19,"left_children":[1,3,5,7,9,11,13,15,17,19,21,23,25,27,29,-1,-1,-1,-1,-1,-1,-1,-1,-1,-1,-1,-1,-1,-1,-1,-1],"loss_changes":[2.3595998E4,3.734625E3,8.477073E3,2.1024612E3,2.161168E3,6.775903E3,3.9603486E3,3.717666E2,9.1574884E2,1.059187E3,2.717334E2,2.4769355E3,1.6485667E3,1.1551095E3,2.1933184E3,0E0,0E0,0E0,0E0,0E0,0E0,0E0,0E0,0E0,0E0,0E0,0E0,0E0,0E0,0E0,0E0],"parents":[2147483647,0,0,1,1,2,2,3,3,4,4,5,5,6,6,7,7,8,8,9,9,10,10,11,11,12,12,13,13,14,14],"right_children":[2,4,6,8,10,12,14,16,18,20,22,24,26,28,30,-1,-1,-1,-1,-1,-1,-1,-1,-1,-1,-1,-1,-1,-1,-1,-1],"split_conditions":[3.2E0,1.4E0,8.25E0,3.5E0,3.56E0,4.1666665E0,1.26E0,6.5E0,8.222222E0,2.52E1,2.9E0,2.51E0,5E0,6.428571E0,6.1E0,-5.8171477E-2,-1.8718277E-1,-4.03726E-3,-1.1629314E-1,-1.5135254E-1,1.3985202E-1,-2.0680761E-1,-2.9500532E-1,-1.2682183E-1,-1.699388E-2,-2.034626E-2,5.0060615E-2,2.5608646E-2,1.0564331E-1,1.02541044E-1,2.1763468E-1],"split_indices":[38,13,5,8,22,10,13,28,10,1,10,22,4,10,10,0,0,0,0,0,0,0,0,0,0,0,0,0,0,0,0],"split_type":[0,0,0,0,0,0,0,0,0,0,0,0,0,0,0,0,0,0,0,0,0,0,0,0,0,0,0,0,0,0,0],"sum_hessian":[8.564E3,1.763E3,6.801E3,8.87E2,8.76E2,4.207E3,2.594E3,2.67E2,6.2E2,5.52E2,3.24E2,1.323E3,2.884E3,1.469E3,1.125E3,4.4E1,2.23E2,4.66E2,1.54E2,5.32E2,2E1,9E1,2.34E2,7.15E2,6.08E2,7.03E2,2.181E3,1.075E3,3.94E2,6.93E2,4.32E2],"tree_param":{"num_deleted":"0","num_feature":"50","num_nodes":"31","size_leaf_vector":"1"}},{"base_weights":[3.309917E-3,-3.030012E0,1.2669983E0,-4.5421824E0,-1.927599E0,8.6383444E-1,4.2784777E0,-3.7983284E0,-6.41629E0,-2.07692E0,5.4006696E0,1.029694E-2,1.4252951E0,5.2722697E0,2.529071E0,-4.1835237E-2,-1.6874902E-1,-2.971534E-1,-1.7301507E-1,-6.02257E-2,-1.3437013E-1,5.2083135E-1,1.1369378E-1,-2.4559978E-2,2.7323488E-2,-7.99263E-4,6.52782E-2,1.431275E-1,2.684836E-1,1.7133386E-1,3.338472E-2],"categories":[],"categories_nodes":[],"categories_segments":[],"categories_sizes":[],"default_left":[0,0,0,0,0,0,0,0,0,0,0,0,0,0,0,0,0,0,0,0,0,0,0,0,0,0,0,0,0,0,0],"id":20,"left_children":[1,3,5,7,9,11,13,15,17,19,21,23,25,27,29,-1,-1,-1,-1,-1,-1,-1,-1,-1,-1,-1,-1,-1,-1,-1,-1],"loss_changes":[3.2390146E4,4.1331836E3,7.2380137E3,1.4341895E3,1.5855322E3,2.5215383E3,1.2098223E3,8.652158E2,5.9336816E2,1.0281104E3,5.267514E2,8.778494E2,9.4820654E2,1.0677041E3,7.5985535E2,0E0,0E0,0E0,0E0,0E0,0E0,0E0,0E0,0E0,0E0,0E0,0E0,0E0,0E0,0E0,0E0],"parents":[2147483647,0,0,1,1,2,2,3,3,4,4,5,5,6,6,7,7,8,8,9,9,10,10,11,11,12,12,13,13,14,14],"right_children":[2,4,6,8,10,12,14,16,18,20,22,24,26,28,30,-1,-1,-1,-1,-1,-1,-1,-1,-1,-1,-1,-1,-1,-1,-1,-1],"split_conditions":[4.313E1,3.801E1,5.353E1,3.64E0,4.865E1,4.7185E1,2.4333334E0,8E-1,1.5275252E0,1.5333333E0,2.1E0,1.1666666E0,7E-1,3.3615473E-1,4.999949E-1,-4.1835237E-2,-1.6874902E-1,-2.971534E-1,-1.7301507E-1,-6.02257E-2,-1.3437013E-1,5.2083135E-1,1.1369378E-1,-2.4559978E-2,2.7323488E-2,-7.99263E-4,6.52782E-2,1.431275E-1,2.684836E-1,1.7133386E-1,3.338472E-2],"split_indices":[42,41,42,21,41,42,20,13,7,12,20,13,12,15,48,0,0,0,0,0,0,0,0,0,0,0,0,0,0,0,0],"split_type":[0,0,0,0,0,0,0,0,0,0,0,0,0,0,0,0,0,0,0,0,0,0,0,0,0,0,0,0,0,0,0],"sum_hessian":[8.448E3,2.484E3,5.964E3,1.046E3,1.438E3,5.261E3,7.03E2,7.51E2,2.95E2,1.41E3,2.8E1,2.088E3,3.173E3,4.47E2,2.56E2,1E2,6.51E2,1.97E2,9.8E1,9.77E2,4.33E2,6E0,2.2E1,1.083E3,1.005E3,3.97E2,2.776E3,2.07E2,2.4E2,1.25E2,1.31E2],"tree_param":{"num_deleted":"0","num_feature":"50","num_nodes":"31","size_leaf_vector":"1"}},{"base_weights":[3.3745974E-2,-3.2345214E0,1.1018343E0,-4.404275E0,-2.1334195E0,7.432547E-1,4.4437313E0,5.78315E-1,-4.7364626E0,1.333167E0,-2.3760579E0,-3.8898894E-1,1.1180801E0,5.581963E0,2.722652E0,1.0887182E-1,-1.24135755E-1,-2.6818842E-1,-1.5616831E-1,-8.9171514E-2,1.1920691E-1,-6.317436E-2,-1.3989376E-1,7.7208835E-3,-4.429761E-2,-1.0225414E-1,4.779729E-2,1.04891434E-1,2.4807024E-1,1.6525812E-1,4.0085E-2],"categories":[],"categories_nodes":[],"categories_segments":[],"categories_sizes":[],"default_left":[0,0,0,0,0,0,0,0,0,0,0,0,0,0,0,0,0,0,0,0,0,0,0,0,0,0,0,0,0,0,0],"id":21,"left_children":[1,3,5,7,9,11,13,15,17,19,21,23,25,27,29,-1,-1,-1,-1,-1,-1,-1,-1,-1,-1,-1,-1,-1,-1,-1,-1],"loss_changes":[2.9549469E4,2.6754668E3,7.641563E3,1.6748594E3,9.083247E2,2.4462888E3,1.194626E3,5.134757E2,1.5240273E3,4.2330304E2,8.9265674E2,5.999274E2,1.2256577E3,6.634131E2,5.964685E2,0E0,0E0,0E0,0E0,0E0,0E0,0E0,0E0,0E0,0E0,0E0,0E0,0E0,0E0,0E0,0E0],"parents":[2147483647,0,0,1,1,2,2,3,3,4,4,5,5,6,6,7,7,8,8,9,9,10,10,11,11,12,12,13,13,14,14],"right_children":[2,4,6,8,10,12,14,16,18,20,22,24,26,28,30,-1,-1,-1,-1,-1,-1,-1,-1,-1,-1,-1,-1,-1,-1,-1,-1],"split_conditions":[4.1795E1,3.774E1,5.4025E1,2.418E1,5.6E0,4.5335E1,2.26E0,2.4166666E1,3.253E1,4.276E1,1.42E0,3.18E1,3.7E0,1.28E0,1.4666667E0,1.0887182E-1,-1.24135755E-1,-2.6818842E-1,-1.5616831E-1,-8.9171514E-2,1.1920691E-1,-6.317436E-2,-1.3989376E-1,7.7208835E-3,-4.429761E-2,-1.0225414E-1,4.779729E-2,1.04891434E-1,2.4807024E-1,1.6525812E-1,4.0085E-2],"split_indices":[42,41,42,25,30,42,22,24,42,41,13,24,6,13,13,0,0,0,0,0,0,0,0,0,0,0,0,0,0,0,0],"split_type":[0,0,0,0,0,0,0,0,0,0,0,0,0,0,0,0,0,0,0,0,0,0,0,0,0,0,0,0,0,0,0],"sum_hessian":[8.463E3,2.084E3,6.379E3,1.009E3,1.075E3,5.762E3,6.17E2,6.3E1,9.46E2,7E1,1.005E3,1.433E3,4.329E3,3.7E2,2.47E2,4E1,2.3E1,2.79E2,6.67E2,2.2E1,4.8E1,5.89E2,4.16E2,7.92E2,6.41E2,8.8E1,4.241E3,6.5E1,3.05E2,1.35E2,1.12E2],"tree_param":{"num_deleted":"0","num_feature":"50","num_nodes":"31","size_leaf_vector":"1"}},{"base_weights":[2.205563E-2,-3.0605738E0,1.0744239E0,-4.4615836E0,-2.201758E0,4.1507757E-1,2.9088707E0,1.6219513E0,-4.726593E0,2.520901E-4,-2.52744E0,-6.4413893E-1,7.1716523E-1,1.6252494E0,3.8795416E0,8.188542E-2,-3.0305114E-2,-2.4744314E-1,-1.3925566E-1,-4.4596102E-2,1.055976E-1,-7.7394046E-2,-1.3635303E-1,2.0239435E-4,-7.726456E-2,3.45584E-2,-7.1578E-2,5.818591E-2,2.6999512E-1,3.0804923E-2,1.6779478E-1],"categories":[],"categories_nodes":[],"categories_segments":[],"categories_sizes":[],"default_left":[0,0,0,0,0,0,0,0,0,0,0,0,0,0,0,0,0,0,0,0,0,0,0,0,0,0,0,0,0,0,0],"id":22,"left_children":[1,3,5,7,9,11,13,15,17,19,21,23,25,27,29,-1,-1,-1,-1,-1,-1,-1,-1,-1,-1,-1,-1,-1,-1,-1,-1],"loss_changes":[2.7571123E4,2.5920547E3,7.662079E3,1.3315869E3,9.6339307E2,1.4921985E3,2.0801504E3,3.7091484E1,1.4077539E3,5.1529266E2,6.0396094E2,8.652837E2,1.3364054E3,6.21458E2,9.3067773E2,0E0,0E0,0E0,0E0,0E0,0E0,0E0,0E0,0E0,0E0,0E0,0E0,0E0,0E0,0E0,0E0],"parents":[2147483647,0,0,1,1,2,2,3,3,4,4,5,5,6,6,7,7,8,8,9,9,10,10,11,11,12,12,13,13,14,14],"right_children":[2,4,6,8,10,12,14,16,18,20,22,24,26,28,30,-1,-1,-1,-1,-1,-1,-1,-1,-1,-1,-1,-1,-1,-1,-1,-1],"split_conditions":[4.2085E1,3.6483334E1,5.081E1,9.666667E0,1.3E1,4.4845E1,9E0,4.719984E0,3.357E1,2.3E1,1.4666667E0,3.252E1,3.21E1,1.3740451E0,7.2E-1,8.188542E-2,-3.0305114E-2,-2.4744314E-1,-1.3925566E-1,-4.4596102E-2,1.055976E-1,-7.7394046E-2,-1.3635303E-1,2.0239435E-4,-7.726456E-2,3.45584E-2,-7.1578E-2,5.818591E-2,2.6999512E-1,3.0804923E-2,1.6779478E-1],"split_indices":[42,40,42,32,34,42,5,43,41,32,13,26,2,23,13,0,0,0,0,0,0,0,0,0,0,0,0,0,0,0,0],"split_type":[0,0,0,0,0,0,0,0,0,0,0,0,0,0,0,0,0,0,0,0,0,0,0,0,0,0,0,0,0,0,0],"sum_hessian":[8.497E3,2.162E3,6.335E3,8.2E2,1.342E3,4.661E3,1.674E3,3.4E1,7.86E2,1.73E2,1.169E3,1.034E3,3.627E3,7.22E2,9.52E2,2.9E1,5E0,3.6E2,4.26E2,1.22E2,5.1E1,7.01E2,4.68E2,6.88E2,3.46E2,3.427E3,2E2,7E2,2.2E1,8.8E1,8.64E2],"tree_param":{"num_deleted":"0","num_feature":"50","num_nodes":"31","size_leaf_vector":"1"}},{"base_weights":[-2.4470368E-3,-2.455378E0,1.0333651E0,-4.245357E0,-1.6812553E0,5.931811E-1,2.9335225E0,-3.2561412E0,-5.8753324E0,-2.3032258E0,3.520016E-2,-1.506529E-1,1.1638628E0,5.9145874E-1,3.5620685E0,-9.647878E-2,-2.2371891E-1,-2.5247955E-1,8.838578E-3,-1.311061E-1,-5.8202274E-2,-7.46468E-2,6.2028665E-2,-6.50486E-2,6.8477117E-3,6.485957E-3,7.167157E-2,6.776767E-2,-8.9870945E-2,2.8595645E-2,1.6503017E-1],"categories":[],"categories_nodes":[],"categories_segments":[],"categories_sizes":[],"default_left":[0,0,0,0,0,0,0,0,0,0,0,0,0,0,0,0,0,0,0,0,0,0,0,0,0,0,0,0,0,0,0],"id":23,"left_children":[1,3,5,7,9,11,13,15,17,19,21,23,25,27,29,-1,-1,-1,-1,-1,-1,-1,-1,-1,-1,-1,-1,-1,-1,-1,-1],"loss_changes":[2.1505264E4,3.4744434E3,4.9754355E3,1.2021523E3,1.8749863E3,2.0518484E3,1.644751E3,9.207627E2,7.606709E2,1.0600879E3,1.3514316E3,9.97246E2,1.7198357E3,7.486468E2,1.4121006E3,0E0,0E0,0E0,0E0,0E0,0E0,0E0,0E0,0E0,0E0,0E0,0E0,0E0,0E0,0E0,0E0],"parents":[2147483647,0,0,1,1,2,2,3,3,4,4,5,5,6,6,7,7,8,8,9,9,10,10,11,11,12,12,13,13,14,14],"right_children":[2,4,6,8,10,12,14,16,18,20,22,24,26,28,30,-1,-1,-1,-1,-1,-1,-1,-1,-1,-1,-1,-1,-1,-1,-1,-1],"split_conditions":[4.2333332E1,3.5933334E1,5.36E1,3.55E0,6.5574384E0,1.1666666E0,7.5E0,1.8333334E1,9E-1,4E0,1.4832397E0,6.3333335E0,6.2E0,3.07E1,4E0,-9.647878E-2,-2.2371891E-1,-2.5247955E-1,8.838578E-3,-1.311061E-1,-5.8202274E-2,-7.46468E-2,6.2028665E-2,-6.50486E-2,6.8477117E-3,6.485957E-3,7.167157E-2,6.776767E-2,-8.9870945E-2,2.8595645E-2,1.6503017E-1],"split_indices":[40,40,40,22,3,13,4,32,17,10,7,4,5,2,10,0,0,0,0,0,0,0,0,0,0,0,0,0,0,0,0],"split_type":[0,0,0,0,0,0,0,0,0,0,0,0,0,0,0,0,0,0,0,0,0,0,0,0,0,0,0,0,0,0,0],"sum_hessian":[8.462E3,2.512E3,5.95E3,7.57E2,1.755E3,4.832E3,1.118E3,4.73E2,2.84E2,1.288E3,4.67E2,2.098E3,2.734E3,2.37E2,8.81E2,3.49E2,1.24E2,2.65E2,1.9E1,5.98E2,6.9E2,2.07E2,2.6E2,3.75E2,1.723E3,1.054E3,1.68E3,1.71E2,6.6E1,1.46E2,7.35E2],"tree_param":{"num_deleted":"0","num_feature":"50","num_nodes":"31","size_leaf_vector":"1"}},{"base_weights":[-1.1834105E-2,-2.7698822E0,8.6263454E-1,2.6667354E-1,-3.1872962E0,5.041314E-1,2.8892329E0,2.329292E-2,3.4652302E-1,-5.631607E0,-2.563751E0,-2.841703E-1,9.196056E-1,1.9727069E0,4.158719E0,-1.9986693E-2,1.447604E-1,-2.5426564E-1,-1.6932218E-1,-1.6038486E-1,-6.77694E-2,-6.6910046E-3,-1.5708666E-1,-2.0321151E-3,4.978274E-2,2.9500632E-2,1.0787776E-1,1.798748E-2,1.9763348E-1],"categories":[],"categories_nodes":[],"categories_segments":[],"categories_sizes":[],"default_left":[0,0,0,0,0,0,0,0,0,0,0,0,0,0,0,0,0,0,0,0,0,0,0,0,0,0,0,0,0],"id":24,"left_children":[1,3,5,7,9,11,13,15,-1,17,19,21,23,25,27,-1,-1,-1,-1,-1,-1,-1,-1,-1,-1,-1,-1,-1,-1],"loss_changes":[2.0568225E4,2.6033223E3,4.702562E3,5.0776636E2,2.7358105E3,1.8026621E3,1.1232856E3,4.5906165E2,0E0,3.4315723E2,1.8030156E3,8.0804626E2,1.1366929E3,5.048894E2,1.1779048E3,0E0,0E0,0E0,0E0,0E0,0E0,0E0,0E0,0E0,0E0,0E0,0E0,0E0,0E0],"parents":[2147483647,0,0,1,1,2,2,3,3,4,4,5,5,6,6,7,7,9,9,10,10,11,11,12,12,13,13,14,14],"right_children":[2,4,6,8,10,12,14,16,-1,18,20,22,24,26,28,-1,-1,-1,-1,-1,-1,-1,-1,-1,-1,-1,-1,-1,-1],"split_conditions":[4.153E1,8E-1,5.35E1,1.45E1,3.357E1,4.591E1,3.4205264E-1,5.0983137E-1,3.4652302E-1,6.333333E-1,3.3333333E0,1.2E1,6.2E0,8.666667E-1,8.222222E0,-1.9986693E-2,1.447604E-1,-2.5426564E-1,-1.6932218E-1,-1.6038486E-1,-6.77694E-2,-6.6910046E-3,-1.5708666E-1,-2.0321151E-3,4.978274E-2,2.9500632E-2,1.0787776E-1,1.798748E-2,1.9763348E-1],"split_indices":[41,13,41,28,41,41,15,48,0,16,8,5,5,16,6,0,0,0,0,0,0,0,0,0,0,0,0,0,0],"split_type":[0,0,0,0,0,0,0,0,0,0,0,0,0,0,0,0,0,0,0,0,0,0,0,0,0,0,0,0,0],"sum_hessian":[8.526E3,2.052E3,6.474E3,2.48E2,1.804E3,5.502E3,9.72E2,2.42E2,6E0,3.65E2,1.439E3,1.899E3,3.603E3,5.66E2,4.06E2,2.12E2,3E1,2.38E2,1.27E2,5.39E2,9E2,1.841E3,5.8E1,9.04E2,2.699E3,2.1E2,3.56E2,7.1E1,3.35E2],"tree_param":{"num_deleted":"0","num_feature":"50","num_nodes":"29","size_leaf_vector":"1"}},{"base_weights":[1.6820148E-2,-2.2306256E0,1.2736008E0,-3.7749875E0,-1.4042289E0,9.755618E-1,4.2107105E0,-7.580102E-1,-4.481585E0,6.1443543E-1,-1.6377729E0,4.4090018E-1,1.5426178E0,-2.0351312E0,4.628101E0,-8.0798194E-2,5.8030333E-2,-2.4499421E-1,-1.4659369E-1,4.2824037E-2,-1.6815528E-1,-9.624264E-2,-4.559477E-2,5.6783985E-3,7.6453805E-2,-1.2254815E-2,8.586126E-2,-2.8182662E-1,-1.3854203E-2,2.1337771E-1,1.08156204E-1],"categories":[],"categories_nodes":[],"categories_segments":[],"categories_sizes":[],"default_left":[0,0,0,0,0,0,0,0,0,0,0,0,0,0,0,0,0,0,0,0,0,0,0,0,0,0,0,0,0,0,0],"id":25,"left_children":[1,3,5,7,9,11,13,15,17,19,21,23,25,27,29,-1,-1,-1,-1,-1,-1,-1,-1,-1,-1,-1,-1,-1,-1,-1,-1],"loss_changes":[2.391818E4,3.870168E3,4.7495254E3,2.2515117E3,9.345742E2,1.4944204E3,1.3131562E3,5.660308E2,1.1267773E3,4.569651E2,6.759033E2,1.1160442E3,2.672935E3,2.67594E2,6.22209E2,0E0,0E0,0E0,0E0,0E0,0E0,0E0,0E0,0E0,0E0,0E0,0E0,0E0,0E0,0E0,0E0],"parents":[2147483647,0,0,1,1,2,2,3,3,4,4,5,5,6,6,7,7,8,8,9,9,10,10,11,11,12,12,13,13,14,14],"right_children":[2,4,6,8,10,12,14,16,18,20,22,24,26,28,30,-1,-1,-1,-1,-1,-1,-1,-1,-1,-1,-1,-1,-1,-1,-1,-1],"split_conditions":[4.448E1,3.791E1,5.476E1,9.1E-1,6.6E-1,1.28E0,8E0,4.1416668E1,7E-1,4.5E0,4.2190046E0,5.119E1,5.25E0,6.0854745E0,1.186E2,-8.0798194E-2,5.8030333E-2,-2.4499421E-1,-1.4659369E-1,4.2824037E-2,-1.6815528E-1,-9.624264E-2,-4.559477E-2,5.6783985E-3,7.6453805E-2,-1.2254815E-2,8.586126E-2,-2.8182662E-1,-1.3854203E-2,2.1337771E-1,1.08156204E-1],"split_indices":[42,42,42,14,14,14,5,40,16,37,3,42,5,27,49,0,0,0,0,0,0,0,0,0,0,0,0,0,0,0,0],"split_type":[0,0,0,0,0,0,0,0,0,0,0,0,0,0,0,0,0,0,0,0,0,0,0,0,0,0,0,0,0,0,0],"sum_hessian":[8.466E3,3.036E3,5.43E3,1.057E3,1.979E3,4.931E3,4.99E2,2.01E2,8.56E2,2.05E2,1.774E3,2.539E3,2.392E3,3.1E1,4.68E2,1.28E2,7.3E1,2.82E2,5.74E2,1.88E2,1.7E1,6.96E2,1.078E3,2.111E3,4.28E2,5.89E2,1.803E3,7E0,2.4E1,3.41E2,1.27E2],"tree_param":{"num_deleted":"0","num_feature":"50","num_nodes":"31","size_leaf_vector":"1"}},{"base_weights":[6.042206E-2,-2.749993E0,1.0257972E0,-4.4011197E0,-2.2167044E0,6.399992E-1,3.2798147E0,-1.0517694E0,-5.1635547E0,-2.3320022E0,4.0338216E0,-1.1384662E-3,1.1657447E0,1.1282341E0,3.8988585E0,5.6449115E-2,-1.21985756E-1,-2.380174E-1,-1.5571271E-1,-1.3123642E-1,-7.374673E-2,2.4663439E-2,4.3186533E-1,-1.22341E-1,3.9095487E-3,4.9491253E-2,-2.247388E-1,2.5084037E-2,2.826027E-1,1.1597937E-1,2.003181E-1],"categories":[],"categories_nodes":[],"categories_segments":[],"categories_sizes":[],"default_left":[0,0,0,0,0,0,0,0,0,0,0,0,0,0,0,0,0,0,0,0,0,0,0,0,0,0,0,0,0,0,0],"id":26,"left_children":[1,3,5,7,9,11,13,15,17,19,21,23,25,27,29,-1,-1,-1,-1,-1,-1,-1,-1,-1,-1,-1,-1,-1,-1,-1,-1],"loss_changes":[2.2952805E4,1.8941621E3,5.4733516E3,1.3397275E3,1.188978E3,1.8129082E3,1.2204688E3,4.9162277E2,4.0481543E2,7.3856055E2,6.855054E2,7.333843E2,1.4406355E3,6.10655E2,7.7608594E2,0E0,0E0,0E0,0E0,0E0,0E0,0E0,0E0,0E0,0E0,0E0,0E0,0E0,0E0,0E0,0E0],"parents":[2147483647,0,0,1,1,2,2,3,3,4,4,5,5,6,6,7,7,8,8,9,9,10,10,11,11,12,12,13,13,14,14],"right_children":[2,4,6,8,10,12,14,16,18,20,22,24,26,28,30,-1,-1,-1,-1,-1,-1,-1,-1,-1,-1,-1,-1,-1,-1,-1,-1],"split_conditions":[4.2085E1,3.453E1,5.27E1,9.6E-1,4.854E1,4.7185E1,8.333333E0,2.5066668E1,6.25E-1,3.2E0,3E0,1.73E1,3.48E1,3.8333333E0,3.3615473E-1,5.6449115E-2,-1.21985756E-1,-2.380174E-1,-1.5571271E-1,-1.3123642E-1,-7.374673E-2,2.4663439E-2,4.3186533E-1,-1.22341E-1,3.9095487E-3,4.9491253E-2,-2.247388E-1,2.5084037E-2,2.826027E-1,1.1597937E-1,2.003181E-1],"split_indices":[42,41,42,13,41,42,4,24,17,9,44,2,2,20,15,0,0,0,0,0,0,0,0,0,0,0,0,0,0,0,0],"split_type":[0,0,0,0,0,0,0,0,0,0,0,0,0,0,0,0,0,0,0,0,0,0,0,0,0,0,0,0,0,0,0],"sum_hessian":[8.458E3,2.162E3,6.296E3,5.26E2,1.636E3,5.377E3,9.19E2,9.8E1,4.28E2,1.607E3,2.9E1,2.423E3,2.954E3,2.06E2,7.13E2,4.4E1,5.4E1,2.62E2,1.66E2,5.44E2,1.063E3,2E1,9E0,7.5E1,2.348E3,2.924E3,3E1,1.91E2,1.5E1,3.77E2,3.36E2],"tree_param":{"num_deleted":"0","num_feature":"50","num_nodes":"31","size_leaf_vector":"1"}},{"base_weights":[-4.2976644E-2,-2.1630473E0,8.3686966E-1,-2.963476E0,-1.0621126E0,4.3741757E-1,2.5655756E0,-4.0235972E0,-1.7558962E0,-2.1290064E0,-2.7851027E-1,-1.2628113E0,5.6934476E-1,2.50585E-1,3.1929736E0,-8.764854E-2,-1.977715E-1,-1.10780925E-1,1.4104118E-2,-2.8635282E-2,-1.2731422E-1,-4.287258E-2,3.2987922E-2,8.7195344E-2,-8.332097E-2,1.0768073E-1,1.5067139E-2,4.32549E-2,-8.655231E-2,6.930773E-2,1.5463106E-1],"categories":[],"categories_nodes":[],"categories_segments":[],"categories_sizes":[],"default_left":[0,0,0,0,0,0,0,0,0,0,0,0,0,0,0,0,0,0,0,0,0,0,0,0,0,0,0,0,0,0,0],"id":27,"left_children":[1,3,5,7,9,11,13,15,17,19,21,23,25,27,29,-1,-1,-1,-1,-1,-1,-1,-1,-1,-1,-1,-1,-1,-1,-1,-1],"loss_changes":[1.5823727E4,2.1889248E3,4.1383364E3,1.8358174E3,8.761516E2,1.0932463E3,1.6328281E3,1.2807393E3,1.4438496E3,6.5854517E2,5.312677E2,9.956648E2,1.8476224E3,4.8564084E2,8.622383E2,0E0,0E0,0E0,0E0,0E0,0E0,0E0,0E0,0E0,0E0,0E0,0E0,0E0,0E0,0E0,0E0],"parents":[2147483647,0,0,1,1,2,2,3,3,4,4,5,5,6,6,7,7,8,8,9,9,10,10,11,11,12,12,13,13,14,14],"right_children":[2,4,6,8,10,12,14,16,18,20,22,24,26,28,30,-1,-1,-1,-1,-1,-1,-1,-1,-1,-1,-1,-1,-1,-1,-1,-1],"split_conditions":[4.2333332E1,4E0,5.36E1,5.8333335E0,1.75E1,1.88E1,7.4444447E0,4E0,5.7619443E0,1.4666667E0,5.625E0,7E0,2.15E1,2.78E1,4.428571E0,-8.764854E-2,-1.977715E-1,-1.10780925E-1,1.4104118E-2,-2.8635282E-2,-1.2731422E-1,-4.287258E-2,3.2987922E-2,8.7195344E-2,-8.332097E-2,1.0768073E-1,1.5067139E-2,4.32549E-2,-8.655231E-2,6.930773E-2,1.5463106E-1],"split_indices":[40,10,40,6,34,34,6,6,35,13,6,46,0,34,10,0,0,0,0,0,0,0,0,0,0,0,0,0,0,0,0],"split_type":[0,0,0,0,0,0,0,0,0,0,0,0,0,0,0,0,0,0,0,0,0,0,0,0,0,0,0,0,0,0,0],"sum_hessian":[8.481E3,2.487E3,5.994E3,1.439E3,1.048E3,4.87E3,1.124E3,7.65E2,6.74E2,4.43E2,6.05E2,3.5E2,4.52E3,2.4E2,8.84E2,2.57E2,5.08E2,4.55E2,2.19E2,1.9E2,2.53E2,3.52E2,2.53E2,6.7E1,2.83E2,3.75E2,4.145E3,1.79E2,6.1E1,2.8E2,6.04E2],"tree_param":{"num_deleted":"0","num_feature":"50","num_nodes":"31","size_leaf_vector":"1"}},{"base_weights":[1.268425E-2,-1.9742178E0,1.0421991E0,-3.121765E0,-1.3513805E0,7.42542E-1,3.4237998E0,-6.1261463E-1,-3.6560473E0,8.733663E-1,-1.5718341E0,-3.0021593E-1,1.0191803E0,5.177684E0,2.627645E0,-5.7172716E-2,1.23618335E-1,-1.7191207E-1,-9.76211E-2,5.5808533E-2,-2.2274858E-1,8.249435E-3,-7.114282E-2,-1.507121E-4,-8.88861E-2,1.5097971E-2,5.797696E-2,7.142914E-2,2.876736E-1,4.6304684E-2,1.5155005E-1],"categories":[],"categories_nodes":[],"categories_segments":[],"categories_sizes":[],"default_left":[0,0,0,0,0,0,0,0,0,0,0,0,0,0,0,0,0,0,0,0,0,0,0,0,0,0,0,0,0,0,0],"id":28,"left_children":[1,3,5,7,9,11,13,15,17,19,21,23,25,27,29,-1,-1,-1,-1,-1,-1,-1,-1,-1,-1,-1,-1,-1,-1,-1,-1],"loss_changes":[1.7458646E4,2.0773574E3,4.0092583E3,1.3701025E3,9.2840015E2,1.4412698E3,8.6253076E2,5.516516E2,6.472129E2,5.822168E2,6.3278125E2,5.968717E2,1.0893159E3,1.3184854E3,7.3589624E2,0E0,0E0,0E0,0E0,0E0,0E0,0E0,0E0,0E0,0E0,0E0,0E0,0E0,0E0,0E0,0E0],"parents":[2147483647,0,0,1,1,2,2,3,3,4,4,5,5,6,6,7,7,8,8,9,9,10,10,11,11,12,12,13,13,14,14],"right_children":[2,4,6,8,10,12,14,16,18,20,22,24,26,28,30,-1,-1,-1,-1,-1,-1,-1,-1,-1,-1,-1,-1,-1,-1,-1,-1],"split_conditions":[4.418E1,3.791E1,5.4025E1,3.2222223E0,6.5E-1,5.8E0,1.6333333E0,2.28E1,6E0,4.5E0,2.823E1,3.2666667E0,2.1908902E-1,3.3615473E-1,5.6066666E1,-5.7172716E-2,1.23618335E-1,-1.7191207E-1,-9.76211E-2,5.5808533E-2,-2.2274858E-1,8.249435E-3,-7.114282E-2,-1.507121E-4,-8.88861E-2,1.5097971E-2,5.797696E-2,7.142914E-2,2.876736E-1,4.6304684E-2,1.5155005E-1],"split_indices":[42,42,42,6,12,6,20,33,4,37,26,20,15,15,40,0,0,0,0,0,0,0,0,0,0,0,0,0,0,0,0],"split_type":[0,0,0,0,0,0,0,0,0,0,0,0,0,0,0,0,0,0,0,0,0,0,0,0,0,0,0,0,0,0,0],"sum_hessian":[8.533E3,2.912E3,5.621E3,1.023E3,1.889E3,4.994E3,6.27E2,1.8E2,8.43E2,1.7E2,1.719E3,1.047E3,3.947E3,1.94E2,4.33E2,1.48E2,3.2E1,5.5E2,2.93E2,1.58E2,1.2E1,1.79E2,1.54E3,9.08E2,1.39E2,1.585E3,2.362E3,7.3E1,1.21E2,1.92E2,2.41E2],"tree_param":{"num_deleted":"0","num_feature":"50","num_nodes":"31","size_leaf_vector":"1"}},{"base_weights":[-3.4192037E-2,-2.2156315E0,8.58386E-1,-4.36423E0,-1.7682769E0,3.4388694E-1,2.4276557E0,-3.740982E-1,-5.2675915E0,3.382902E-2,-2.0940113E0,-3.157846E-1,6.7342275E-1,9.0833265E-1,2.9571838E0,-3.7118006E-2,1.6102535E-1,-2.1557328E-1,-6.982517E-2,-1.8690106E-1,1.4212312E-2,-1.3482223E-1,-6.5189205E-2,3.8023926E-3,-5.668816E-2,-1.7294938E-2,4.4912167E-2,5.0719228E-2,-1.2898763E-1,7.907067E-2,1.5962908E-1],"categories":[],"categories_nodes":[],"categories_segments":[],"categories_sizes":[],"default_left":[0,0,0,0,0,0,0,0,0,0,0,0,0,0,0,0,0,0,0,0,0,0,0,0,0,0,0,0,0,0,0],"id":29,"left_children":[1,3,5,7,9,11,13,15,17,19,21,23,25,27,29,-1,-1,-1,-1,-1,-1,-1,-1,-1,-1,-1,-1,-1,-1,-1,-1],"loss_changes":[1.6449232E4,2.349457E3,4.8391777E3,1.5185767E3,1.1930767E3,9.819609E2,1.187623E3,1.9593303E2,1.37375E2,4.7328247E2,1.01400146E3,6.812976E2,1.4972903E3,5.746837E2,1.1031084E3,0E0,0E0,0E0,0E0,0E0,0E0,0E0,0E0,0E0,0E0,0E0,0E0,0E0,0E0,0E0,0E0],"parents":[2147483647,0,0,1,1,2,2,3,3,4,4,5,5,6,6,7,7,8,8,9,9,10,10,11,11,12,12,13,13,14,14],"right_children":[2,4,6,8,10,12,14,16,18,20,22,24,26,28,30,-1,-1,-1,-1,-1,-1,-1,-1,-1,-1,-1,-1,-1,-1,-1,-1],"split_conditions":[4.293E1,3.357E1,5.119E1,4E0,8E-1,1.06E0,8E0,2.9333334E1,2.02E1,3.696E1,2.9E0,1.48E0,5.5E0,5.476E1,1.45E0,-3.7118006E-2,1.6102535E-1,-2.1557328E-1,-6.982517E-2,-1.8690106E-1,1.4212312E-2,-1.3482223E-1,-6.5189205E-2,3.8023926E-3,-5.668816E-2,-1.7294938E-2,4.4912167E-2,5.0719228E-2,-1.2898763E-1,7.907067E-2,1.5962908E-1],"split_indices":[42,41,42,5,14,14,5,0,1,41,10,17,5,42,14,0,0,0,0,0,0,0,0,0,0,0,0,0,0,0,0],"split_type":[0,0,0,0,0,0,0,0,0,0,0,0,0,0,0,0,0,0,0,0,0,0,0,0,0,0,0,0,0,0,0],"sum_hessian":[8.446E3,2.452E3,5.994E3,4.21E2,2.031E3,4.515E3,1.479E3,7.8E1,3.43E2,3.11E2,1.72E3,1.504E3,3.011E3,3.83E2,1.096E3,7E1,8E0,3.31E2,1.2E1,1.9E1,2.92E2,4.57E2,1.263E3,1.096E3,4.08E2,8.7E2,2.141E3,3.53E2,3E1,5.64E2,5.32E2],"tree_param":{"num_deleted":"0","num_feature":"50","num_nodes":"31","size_leaf_vector":"1"}},{"base_weights":[-2.764163E-2,-2.510676E0,5.882458E-1,-4.1578453E-2,-2.9024982E0,2.1226E-1,1.9110155E0,-7.545965E-1,2.7637389E0,-4.6860437E0,-2.334415E0,-4.0444827E-1,5.8695126E-1,1.0787976E0,2.7394423E0,-9.4003E-3,-1.6266261E-1,1.7950732E-1,-4.8260834E-2,-1.1850502E-1,-2.0554651E-1,-1.3163209E-1,-6.049584E-2,-6.482924E-2,1.2176532E-3,5.056399E-3,8.931576E-2,5.2138556E-2,-1.3108146E-1,4.2576663E-2,1.3159119E-1],"categories":[],"categories_nodes":[],"categories_segments":[],"categories_sizes":[],"default_left":[0,0,0,0,0,0,0,0,0,0,0,0,0,0,0,0,0,0,0,0,0,0,0,0,0,0,0,0,0,0,0],"id":30,"left_children":[1,3,5,7,9,11,13,15,17,19,21,23,25,27,29,-1,-1,-1,-1,-1,-1,-1,-1,-1,-1,-1,-1,-1,-1,-1,-1],"loss_changes":[1.2919409E4,1.6239297E3,3.365894E3,4.639404E2,1.4564893E3,1.218484E3,1.0294321E3,3.1697372E2,3.2743436E2,2.562041E2,8.601138E2,1.0544031E3,2.4858025E3,7.370524E2,6.874346E2,0E0,0E0,0E0,0E0,0E0,0E0,0E0,0E0,0E0,0E0,0E0,0E0,0E0,0E0,0E0,0E0],"parents":[2147483647,0,0,1,1,2,2,3,3,4,4,5,5,6,6,7,7,8,8,9,9,10,10,11,11,12,12,13,13,14,14],"right_children":[2,4,6,8,10,12,14,16,18,20,22,24,26,28,30,-1,-1,-1,-1,-1,-1,-1,-1,-1,-1,-1,-1,-1,-1,-1,-1],"split_conditions":[4.036E1,8.5E-1,5.23E1,2.51E0,3.357E1,6.571429E0,9.125E0,2.33E0,3.491E1,2.51E0,3.4285715E0,5.3333335E0,1.39E0,7.9E1,1.5811388E-1,-9.4003E-3,-1.6266261E-1,1.7950732E-1,-4.8260834E-2,-1.1850502E-1,-2.0554651E-1,-1.3163209E-1,-6.049584E-2,-6.482924E-2,1.2176532E-3,5.056399E-3,8.931576E-2,5.2138556E-2,-1.3108146E-1,4.2576663E-2,1.3159119E-1],"split_indices":[41,13,40,22,41,6,6,22,26,22,10,8,14,46,19,0,0,0,0,0,0,0,0,0,0,0,0,0,0,0,0],"split_type":[0,0,0,0,0,0,0,0,0,0,0,0,0,0,0,0,0,0,0,0,0,0,0,0,0,0,0,0,0,0,0],"sum_hessian":[8.446E3,1.678E3,6.768E3,2.3E2,1.448E3,5.271E3,1.497E3,1.84E2,4.6E1,3.48E2,1.1E3,1.992E3,3.279E3,7.48E2,7.49E2,1.6E2,2.4E1,3.2E1,1.4E1,7.4E1,2.74E2,5.07E2,5.93E2,5.24E2,1.468E3,2.563E3,7.16E2,7.12E2,3.6E1,1.86E2,5.63E2],"tree_param":{"num_deleted":"0","num_feature":"50","num_nodes":"31","size_leaf_vector":"1"}},{"base_weights":[-2.4241706E-2,-1.7935717E0,9.285836E-1,-2.8974173E0,-1.0789548E0,6.804321E-1,3.3130512E0,-2.3744948E-1,-3.47436E0,8.3681065E-1,-1.3038052E0,-5.3365624E-1,8.998708E-1,1.9942176E0,4.471968E0,-6.419296E-2,8.013378E-2,-1.9370961E-1,-1.1692047E-1,1.7533718E-3,1.4586256E-1,-5.4602303E-2,1.371647E-1,-9.629956E-2,-5.514346E-3,9.3553096E-2,3.082307E-2,6.177159E-2,3.9727294E-1,2.704183E-1,1.4161992E-1],"categories":[],"categories_nodes":[],"categories_segments":[],"categories_sizes":[],"default_left":[0,0,0,0,0,0,0,0,0,0,0,0,0,0,0,0,0,0,0,0,0,0,0,0,0,0,0,0,0,0,0],"id":31,"left_children":[1,3,5,7,9,11,13,15,17,19,21,23,25,27,29,-1,-1,-1,-1,-1,-1,-1,-1,-1,-1,-1,-1,-1,-1,-1,-1],"loss_changes":[1.4372044E4,2.350335E3,3.2760078E3,1.7974121E3,7.821067E2,1.3379353E3,7.8827E2,6.4661615E2,7.116074E2,4.2503207E2,4.7498657E2,5.697489E2,7.8896484E2,8.6206665E2,5.655039E2,0E0,0E0,0E0,0E0,0E0,0E0,0E0,0E0,0E0,0E0,0E0,0E0,0E0,0E0,0E0,0E0],"parents":[2147483647,0,0,1,1,2,2,3,3,4,4,5,5,6,6,7,7,8,8,9,9,10,10,11,11,12,12,13,13,14,14],"right_children":[2,4,6,8,10,12,14,16,18,20,22,24,26,28,30,-1,-1,-1,-1,-1,-1,-1,-1,-1,-1,-1,-1,-1,-1,-1,-1],"split_conditions":[4.44E1,3.8485E1,5.458E1,9.1E-1,6.5E-1,7E-1,3.3615473E-1,4.16E1,6.9E-1,2.8E1,4.9699097E0,7E0,8.2E-1,3.37E0,4.96E-1,-6.419296E-2,8.013378E-2,-1.9370961E-1,-1.1692047E-1,1.7533718E-3,1.4586256E-1,-5.4602303E-2,1.371647E-1,-9.629956E-2,-5.514346E-3,9.3553096E-2,3.082307E-2,6.177159E-2,3.9727294E-1,2.704183E-1,1.4161992E-1],"split_indices":[42,42,42,14,12,13,15,40,18,2,31,5,14,22,48,0,0,0,0,0,0,0,0,0,0,0,0,0,0,0,0],"split_type":[0,0,0,0,0,0,0,0,0,0,0,0,0,0,0,0,0,0,0,0,0,0,0,0,0,0,0,0,0,0,0],"sum_hessian":[8.523E3,2.983E3,5.54E3,1.171E3,1.812E3,5.019E3,5.21E2,2.09E2,9.62E2,1.9E2,1.622E3,7.68E2,4.251E3,2.45E2,2.76E2,1.3E2,7.9E1,2.74E2,6.88E2,1.49E2,4.1E1,1.602E3,2E1,1.33E2,6.35E2,3.49E2,3.902E3,2.33E2,1.2E1,7.8E1,1.98E2],"tree_param":{"num_deleted":"0","num_feature":"50","num_nodes":"31","size_leaf_vector":"1"}},{"base_weights":[5.8175325E-3,-1.5104499E0,1.048289E0,-2.627092E0,-7.274069E-1,7.7994734E-1,3.0312083E0,7.5051963E-1,-3.0068476E0,-5.421909E-1,-1.7934959E0,-1.033985E-1,1.0151442E0,1.9326655E0,4.469704E0,-3.9433658E-2,9.911878E-2,-1.792089E-1,-1.02877766E-1,-4.1100825E-3,-4.586672E-2,-9.055871E-2,1.5942037E-2,-1.40916845E-2,6.479608E-2,4.7924962E-2,-9.435957E-3,1.2567666E-1,-7.637203E-3,4.67878E-2,2.0055944E-1],"categories":[],"categories_nodes":[],"categories_segments":[],"categories_sizes":[],"default_left":[0,0,0,0,0,0,0,0,0,0,0,0,0,0,0,0,0,0,0,0,0,0,0,0,0,0,0,0,0,0,0],"id":32,"left_children":[1,3,5,7,9,11,13,15,17,19,21,23,25,27,29,-1,-1,-1,-1,-1,-1,-1,-1,-1,-1,-1,-1,-1,-1,-1,-1],"loss_changes":[1.3435612E4,3.0257266E3,2.6774404E3,1.8328486E3,4.010133E2,9.222356E2,9.388711E2,4.3751624E2,8.098877E2,4.6115784E2,3.1150903E2,4.010538E2,8.027285E2,8.791376E2,4.587163E2,0E0,0E0,0E0,0E0,0E0,0E0,0E0,0E0,0E0,0E0,0E0,0E0,0E0,0E0,0E0,0E0],"parents":[2147483647,0,0,1,1,2,2,3,3,4,4,5,5,6,6,7,7,8,8,9,9,10,10,11,11,12,12,13,13,14,14],"right_children":[2,4,6,8,10,12,14,16,18,20,22,24,26,28,30,-1,-1,-1,-1,-1,-1,-1,-1,-1,-1,-1,-1,-1,-1,-1,-1],"split_conditions":[4.5335E1,3.952E1,5.4165E1,6.2E0,7.6666665E0,6E0,1.0777778E1,4.0633335E1,3.323E1,6.534524E-1,4.44E1,3.508E1,3.68E0,3.154E1,5.3483334E1,-3.9433658E-2,9.911878E-2,-1.792089E-1,-1.02877766E-1,-4.1100825E-3,-4.586672E-2,-9.055871E-2,1.5942037E-2,-1.40916845E-2,6.479608E-2,4.7924962E-2,-9.435957E-3,1.2567666E-1,-7.637203E-3,4.67878E-2,2.0055944E-1],"split_indices":[42,42,42,30,9,5,6,40,42,23,42,25,21,25,40,0,0,0,0,0,0,0,0,0,0,0,0,0,0,0,0],"split_type":[0,0,0,0,0,0,0,0,0,0,0,0,0,0,0,0,0,0,0,0,0,0,0,0,0,0,0,0,0,0,0],"sum_hessian":[8.498E3,3.462E3,5.036E3,1.426E3,2.036E3,4.437E3,5.99E2,1.44E2,1.282E3,1.736E3,3E2,9.33E2,3.504E3,3.41E2,2.58E2,7.2E1,7.2E1,2.9E2,9.92E2,1.006E3,7.3E2,2.47E2,5.3E1,8.16E2,1.17E2,3.057E3,4.47E2,2.17E2,1.24E2,3.7E1,2.21E2],"tree_param":{"num_deleted":"0","num_feature":"50","num_nodes":"31","size_leaf_vector":"1"}},{"base_weights":[7.2404468E-3,-1.9918325E0,6.870032E-1,-1.2356406E0,-2.7849925E0,3.8997507E-1,2.59789E0,-1.9324247E0,1.2556565E-1,-2.908272E0,9.092226E0,4.5806475E-2,1.0404185E0,3.937174E0,1.3109012E0,-1.05027184E-1,-1.4696756E-2,-6.05273E-3,1.9167277E-1,-1.7186293E-1,-9.598613E-2,4.6167338E-1,2.0442319E-1,-1.4164639E-1,5.1543335E-3,-3.995305E-2,6.1196633E-2,-5.6478005E-2,1.6901542E-1,3.1897366E-1,4.4111166E-2],"categories":[],"categories_nodes":[],"categories_segments":[],"categories_sizes":[],"default_left":[0,0,0,0,0,0,0,0,0,0,0,0,0,0,0,0,0,0,0,0,0,0,0,0,0,0,0,0,0,0,0],"id":33,"left_children":[1,3,5,7,9,11,13,15,17,19,21,23,25,27,29,-1,-1,-1,-1,-1,-1,-1,-1,-1,-1,-1,-1,-1,-1,-1,-1],"loss_changes":[1.1508362E4,1.2850869E3,3.5858389E3,1.0456335E3,1.5603286E3,1.2245938E3,1.4594106E3,7.896633E2,4.844011E2,7.219678E2,4.663745E1,1.0663145E3,1.8911831E3,6.4758594E2,5.935602E2,0E0,0E0,0E0,0E0,0E0,0E0,0E0,0E0,0E0,0E0,0E0,0E0,0E0,0E0,0E0,0E0],"parents":[2147483647,0,0,1,1,2,2,3,3,4,4,5,5,6,6,7,7,8,8,9,9,10,10,11,11,12,12,13,13,14,14],"right_children":[2,4,6,8,10,12,14,16,18,20,22,24,26,28,30,-1,-1,-1,-1,-1,-1,-1,-1,-1,-1,-1,-1,-1,-1,-1,-1],"split_conditions":[4.2085E1,1.38E0,5.297E1,4E0,2.6E1,1.39E0,4.999949E-1,6.7E0,3.922E1,6.3E-1,4.159327E-1,7.714286E0,4.25E0,6.8E0,2.3333334E1,-1.05027184E-1,-1.4696756E-2,-6.05273E-3,1.9167277E-1,-1.7186293E-1,-9.598613E-2,4.6167338E-1,2.0442319E-1,-1.4164639E-1,5.1543335E-3,-3.995305E-2,6.1196633E-2,-5.6478005E-2,1.6901542E-1,3.1897366E-1,4.4111166E-2],"split_indices":[42,14,42,9,2,14,48,6,25,18,15,30,5,5,1,0,0,0,0,0,0,0,0,0,0,0,0,0,0,0,0],"split_type":[0,0,0,0,0,0,0,0,0,0,0,0,0,0,0,0,0,0,0,0,0,0,0,0,0,0,0,0,0,0,0],"sum_hessian":[8.467E3,2.148E3,6.319E3,1.101E3,1.047E3,5.47E3,8.49E2,7.28E2,3.73E2,1.037E3,1E1,3.578E3,1.892E3,4.15E2,4.34E2,5.04E2,2.24E2,3.53E2,2E1,2.76E2,7.61E2,5E0,5E0,8E1,3.498E3,3.66E2,1.526E3,2.1E1,3.94E2,1.2E1,4.22E2],"tree_param":{"num_deleted":"0","num_feature":"50","num_nodes":"31","size_leaf_vector":"1"}},{"base_weights":[-8.7815635E-3,-1.5713409E0,8.024174E-1,3.1732327E-1,-1.8605042E0,5.0715804E-1,2.9164672E0,-1.3077262E-1,2.5199902E0,-3.4823506E0,-1.4135808E0,-5.396543E-1,6.998597E-1,8.375387E0,2.651885E0,-6.795737E-2,3.7468947E-2,1.4753212E-1,-6.454422E-2,-1.7079979E-1,-1.0469242E-1,-1.1398167E-1,-4.7002383E-2,1.0505585E-2,-6.1388664E-2,1.1071836E-2,6.845682E-2,2.3503573E-1,4.5506164E-1,-5.318276E-2,1.1549081E-1],"categories":[],"categories_nodes":[],"categories_segments":[],"categories_sizes":[],"default_left":[0,0,0,0,0,0,0,0,0,0,0,0,0,0,0,0,0,0,0,0,0,0,0,0,0,0,0,0,0,0,0],"id":34,"left_children":[1,3,5,7,9,11,13,15,17,19,21,23,25,27,29,-1,-1,-1,-1,-1,-1,-1,-1,-1,-1,-1,-1,-1,-1,-1,-1],"loss_changes":[1.07045E4,1.5768823E3,3.4680676E3,3.7957877E2,1.8088652E3,9.845974E2,9.6027783E2,5.3734985E2,3.2006558E2,3.5606152E2,6.6893335E2,6.064646E2,1.762929E3,1.6396948E2,6.140957E2,0E0,0E0,0E0,0E0,0E0,0E0,0E0,0E0,0E0,0E0,0E0,0E0,0E0,0E0,0E0,0E0],"parents":[2147483647,0,0,1,1,2,2,3,3,4,4,5,5,6,6,7,7,8,8,9,9,10,10,11,11,12,12,13,13,14,14],"right_children":[2,4,6,8,10,12,14,16,18,20,22,24,26,28,30,-1,-1,-1,-1,-1,-1,-1,-1,-1,-1,-1,-1,-1,-1,-1,-1],"split_conditions":[4.418E1,7.5E-1,5.3675E1,4.7283333E1,3.5915E1,5.25E0,1.0666667E1,4.9563134E-1,5.04E-1,1.7320508E-1,2.6666667E0,2.4494897E-1,1.39E0,1.52E0,7.4444447E0,-6.795737E-2,3.7468947E-2,1.4753212E-1,-6.454422E-2,-1.7079979E-1,-1.0469242E-1,-1.1398167E-1,-4.7002383E-2,1.0505585E-2,-6.1388664E-2,1.1071836E-2,6.845682E-2,2.3503573E-1,4.5506164E-1,-5.318276E-2,1.1549081E-1],"split_indices":[42,14,42,40,42,5,29,48,48,19,9,19,14,13,6,0,0,0,0,0,0,0,0,0,0,0,0,0,0,0,0],"split_type":[0,0,0,0,0,0,0,0,0,0,0,0,0,0,0,0,0,0,0,0,0,0,0,0,0,0,0,0,0,0,0],"sum_hessian":[8.443E3,2.885E3,5.558E3,3.83E2,2.502E3,4.878E3,6.8E2,3.19E2,6.4E1,5.39E2,1.963E3,7.58E2,4.12E3,3E1,6.5E2,1.29E2,1.9E2,5E1,1.4E1,2.8E2,2.59E2,2.78E2,1.685E3,4.2E2,3.38E2,2.906E3,1.214E3,1.8E1,1.2E1,3.6E1,6.14E2],"tree_param":{"num_deleted":"0","num_feature":"50","num_nodes":"31","size_leaf_vector":"1"}},{"base_weights":[-3.8024638E-2,-1.7595578E0,6.9955605E-1,-2.3217967E0,-8.063251E-1,3.4535554E-1,1.9828359E0,2.225012E0,-2.446904E0,-1.5897319E0,3.949725E-1,-1.553022E-1,7.32675E-1,4.948335E-1,2.593527E0,1.17769256E-1,-1.0736854E-1,-1.4657003E-1,-8.180834E-2,-1.4149169E-2,-9.842494E-2,4.6671297E-2,-6.1784662E-2,-4.416735E-2,7.326608E-3,4.3166526E-2,-3.0416723E-2,3.4781836E-2,-1.0196212E-1,-1.0866781E-1,1.1041655E-1],"categories":[],"categories_nodes":[],"categories_segments":[],"categories_sizes":[],"default_left":[0,0,0,0,0,0,0,0,0,0,0,0,0,0,0,0,0,0,0,0,0,0,0,0,0,0,0,0,0,0,0],"id":35,"left_children":[1,3,5,7,9,11,13,15,17,19,21,23,25,27,29,-1,-1,-1,-1,-1,-1,-1,-1,-1,-1,-1,-1,-1,-1,-1,-1],"loss_changes":[1.0685179E4,1.3505391E3,2.6767683E3,9.0821387E2,8.8350366E2,8.9566876E2,1.1561035E3,1.5975381E2,7.4744434E2,6.102572E2,5.5714935E2,6.474429E2,1.3480039E3,4.2634503E2,8.0774756E2,0E0,0E0,0E0,0E0,0E0,0E0,0E0,0E0,0E0,0E0,0E0,0E0,0E0,0E0,0E0,0E0],"parents":[2147483647,0,0,1,1,2,2,3,3,4,4,5,5,6,6,7,7,8,8,9,9,10,10,11,11,12,12,13,13,14,14],"right_children":[2,4,6,8,10,12,14,16,18,20,22,24,26,28,30,-1,-1,-1,-1,-1,-1,-1,-1,-1,-1,-1,-1,-1,-1,-1,-1],"split_conditions":[4.313E1,4.2E0,5.155E1,5.3333336E-1,1.73E1,1.1666666E0,8.333333E0,1.138E2,3.357E1,1.5E1,3.457E1,7.142857E0,4.375E0,1.53E0,6.5E-1,1.17769256E-1,-1.0736854E-1,-1.4657003E-1,-8.180834E-2,-1.4149169E-2,-9.842494E-2,4.6671297E-2,-6.1784662E-2,-4.416735E-2,7.326608E-3,4.3166526E-2,-3.0416723E-2,3.4781836E-2,-1.0196212E-1,-1.0866781E-1,1.1041655E-1],"split_indices":[42,9,42,12,34,13,4,49,41,2,26,6,38,18,13,0,0,0,0,0,0,0,0,0,0,0,0,0,0,0,0],"split_type":[0,0,0,0,0,0,0,0,0,0,0,0,0,0,0,0,0,0,0,0,0,0,0,0,0,0,0,0,0,0,0],"sum_hessian":[8.413E3,2.523E3,5.89E3,1.586E3,9.37E2,4.617E3,1.273E3,4.2E1,1.544E3,5.67E2,3.7E2,2.014E3,2.603E3,3.71E2,9.02E2,3.7E1,5E0,3.81E2,1.163E3,2.35E2,3.32E2,2.65E2,1.05E2,5.29E2,1.485E3,2.113E3,4.9E2,3.31E2,4E1,2.7E1,8.75E2],"tree_param":{"num_deleted":"0","num_feature":"50","num_nodes":"31","size_leaf_vector":"1"}},{"base_weights":[-1.7602929E-3,-1.6245717E0,7.1061033E-1,-2.197047E0,-7.3678076E-1,4.6949613E-1,2.7605202E0,2.1082234E0,-2.3416214E0,7.777144E-1,-1.4776937E0,5.066079E-1,-3.8873932E0,6.300248E0,2.373292E0,1.14613794E-1,-1.6629061E-1,-1.10490985E-1,-4.190426E-2,5.5705174E-4,8.355145E-2,-8.423645E-2,-1.9638736E-2,3.4080266E-3,3.7111405E-2,-2.641299E-1,-4.9268737E-2,4.614191E-1,1.4619578E-1,4.4969056E-2,1.2809564E-1],"categories":[],"categories_nodes":[],"categories_segments":[],"categories_sizes":[],"default_left":[0,0,0,0,0,0,0,0,0,0,0,0,0,0,0,0,0,0,0,0,0,0,0,0,0,0,0,0,0,0,0],"id":36,"left_children":[1,3,5,7,9,11,13,15,17,19,21,23,25,27,29,-1,-1,-1,-1,-1,-1,-1,-1,-1,-1,-1,-1,-1,-1,-1,-1],"loss_changes":[9.883104E3,1.3235728E3,2.9347942E3,9.915137E2,1.1502588E3,8.6134766E2,8.4085645E2,2.584571E2,8.317295E2,3.3722614E2,4.251825E2,9.3570935E2,3.156424E2,8.011113E2,5.810803E2,0E0,0E0,0E0,0E0,0E0,0E0,0E0,0E0,0E0,0E0,0E0,0E0,0E0,0E0,0E0,0E0],"parents":[2147483647,0,0,1,1,2,2,3,3,4,4,5,5,6,6,7,7,8,8,9,9,10,10,11,11,12,12,13,13,14,14],"right_children":[2,4,6,8,10,12,14,16,18,20,22,24,26,28,30,-1,-1,-1,-1,-1,-1,-1,-1,-1,-1,-1,-1,-1,-1,-1,-1],"split_conditions":[4.331E1,4.2E0,5.4025E1,5.3333336E-1,9.6666664E-1,3.48E1,2.2666666E1,1.176E2,1E0,1.0333333E1,1.26E0,4.8065E1,3.9E1,2.806E1,5.6066666E1,1.14613794E-1,-1.6629061E-1,-1.10490985E-1,-4.190426E-2,5.5705174E-4,8.355145E-2,-8.423645E-2,-1.9638736E-2,3.4080266E-3,3.7111405E-2,-2.641299E-1,-4.9268737E-2,4.614191E-1,1.4619578E-1,4.4969056E-2,1.2809564E-1],"split_indices":[42,9,42,12,17,2,33,49,39,28,17,42,46,25,40,0,0,0,0,0,0,0,0,0,0,0,0,0,0,0,0],"split_type":[0,0,0,0,0,0,0,0,0,0,0,0,0,0,0,0,0,0,0,0,0,0,0,0,0,0,0,0,0,0,0],"sum_hessian":[8.547E3,2.607E3,5.94E3,1.584E3,1.023E3,5.316E3,6.24E2,5.1E1,1.533E3,3.36E2,6.87E2,5.272E3,4.4E1,6E1,5.64E2,4.6E1,5E0,1.156E3,3.77E2,2.13E2,1.23E2,4.19E2,2.68E2,2.636E3,2.636E3,2.1E1,2.3E1,1.9E1,4.1E1,2.26E2,3.38E2],"tree_param":{"num_deleted":"0","num_feature":"50","num_nodes":"31","size_leaf_vector":"1"}},{"base_weights":[3.4988776E-3,-1.7414849E0,6.070362E-1,3.7826546E-2,-2.0176904E0,3.753582E-1,2.4179957E0,7.39038E-1,-2.1331177E0,-2.86635E0,-1.3519768E0,2.4249079E-2,1.0178108E0,3.4854422E0,1.2692293E0,-1.7895749E-2,8.310298E-2,4.5487475E-2,-1.7469774E-1,-1.5049638E-1,-9.827989E-2,-3.4603048E-2,-8.6770095E-2,-1.4082895E-1,3.931631E-3,-7.932557E-3,7.35373E-2,2.1672775E-1,1.0368675E-1,3.1370473E-1,3.955035E-2],"categories":[],"categories_nodes":[],"categories_segments":[],"categories_sizes":[],"default_left":[0,0,0,0,0,0,0,0,0,0,0,0,0,0,0,0,0,0,0,0,0,0,0,0,0,0,0,0,0,0,0],"id":37,"left_children":[1,3,5,7,9,11,13,15,17,19,21,23,25,27,29,-1,-1,-1,-1,-1,-1,-1,-1,-1,-1,-1,-1,-1,-1,-1,-1],"loss_changes":[8.938083E3,1.0721392E3,2.6445544E3,4.4899057E2,1.0623545E3,1.2612639E3,8.718672E2,3.5523483E2,5.3138837E2,2.9421484E2,4.1962793E2,9.493789E2,1.972534E3,6.239497E2,6.2926245E2,0E0,0E0,0E0,0E0,0E0,0E0,0E0,0E0,0E0,0E0,0E0,0E0,0E0,0E0,0E0,0E0],"parents":[2147483647,0,0,1,1,2,2,3,3,4,4,5,5,6,6,7,7,8,8,9,9,10,10,11,11,12,12,13,13,14,14],"right_children":[2,4,6,8,10,12,14,16,18,20,22,24,26,28,30,-1,-1,-1,-1,-1,-1,-1,-1,-1,-1,-1,-1,-1,-1,-1,-1],"split_conditions":[4.2085E1,8E-1,5.353E1,1.162E2,3.764E1,1.39E0,5.0017226E-1,2.942E1,5.817323E0,6.333333E-1,1.6E0,1.69E1,5.5E0,2.77E1,2.3333334E1,-1.7895749E-2,8.310298E-2,4.5487475E-2,-1.7469774E-1,-1.5049638E-1,-9.827989E-2,-3.4603048E-2,-8.6770095E-2,-1.4082895E-1,3.931631E-3,-7.932557E-3,7.35373E-2,2.1672775E-1,1.0368675E-1,3.1370473E-1,3.955035E-2],"split_indices":[42,14,42,49,42,14,48,25,43,16,13,2,5,2,1,0,0,0,0,0,0,0,0,0,0,0,0,0,0,0,0],"split_type":[0,0,0,0,0,0,0,0,0,0,0,0,0,0,0,0,0,0,0,0,0,0,0,0,0,0,0,0,0,0,0],"sum_hessian":[8.485E3,2.18E3,6.305E3,2.93E2,1.887E3,5.591E3,7.14E2,2.22E2,7.1E1,8.28E2,1.059E3,3.616E3,1.975E3,3.69E2,3.45E2,1.18E2,1.04E2,2.9E1,4.2E1,2.57E2,5.71E2,6.65E2,3.94E2,7.3E1,3.543E3,7.96E2,1.179E3,1.15E2,2.54E2,1.3E1,3.32E2],"tree_param":{"num_deleted":"0","num_feature":"50","num_nodes":"31","size_leaf_vector":"1"}},{"base_weights":[-5.3507625E-3,-1.3401834E0,7.3484385E-1,-2.1019013E0,-7.296784E-1,4.8579618E-1,2.3178606E0,1.9092604E0,-2.304187E0,8.608906E-1,-1.0462064E0,5.2399063E-1,-4.2182493E0,-7.266555E-1,2.7142127E0,3.1583387E-2,2.9299918E-1,-1.4878832E-1,-7.599912E-2,-1.8615109E-1,4.8578355E-2,-2.4545444E-2,-7.9912454E-2,5.352233E-2,1.3436597E-2,1.5246987E-1,-2.4630637E-1,1.12527115E-2,-3.053546E-1,6.4976394E-2,1.4753829E-1],"categories":[],"categories_nodes":[],"categories_segments":[],"categories_sizes":[],"default_left":[0,0,0,0,0,0,0,0,0,0,0,0,0,0,0,0,0,0,0,0,0,0,0,0,0,0,0,0,0,0,0],"id":38,"left_children":[1,3,5,7,9,11,13,15,17,19,21,23,25,27,29,-1,-1,-1,-1,-1,-1,-1,-1,-1,-1,-1,-1,-1,-1,-1,-1],"loss_changes":[8.36477E3,1.4025815E3,2.145661E3,1.0941504E3,8.457243E2,8.4753955E2,8.951289E2,3.8755502E2,7.241714E2,5.493054E2,5.7480334E2,7.1438965E2,6.1549756E2,6.016391E2,6.8891406E2,0E0,0E0,0E0,0E0,0E0,0E0,0E0,0E0,0E0,0E0,0E0,0E0,0E0,0E0,0E0,0E0],"parents":[2147483647,0,0,1,1,2,2,3,3,4,4,5,5,6,6,7,7,8,8,9,9,10,10,11,11,12,12,13,13,14,14],"right_children":[2,4,6,8,10,12,14,16,18,20,22,24,26,28,30,-1,-1,-1,-1,-1,-1,-1,-1,-1,-1,-1,-1,-1,-1,-1,-1],"split_conditions":[4.44E1,3.914E1,5.337E1,6.75E-1,2.842E1,3.48E1,6.25E-1,4.62E1,3.253E1,8.944272E-2,3.2863355E-1,2.05E1,4.831E1,5.0199604E-1,1.3416408E0,3.1583387E-2,2.9299918E-1,-1.4878832E-1,-7.599912E-2,-1.8615109E-1,4.8578355E-2,-2.4545444E-2,-7.9912454E-2,5.352233E-2,1.3436597E-2,1.5246987E-1,-2.4630637E-1,1.12527115E-2,-3.053546E-1,6.4976394E-2,1.4753829E-1],"split_indices":[42,41,42,13,26,2,17,40,42,15,15,32,41,15,11,0,0,0,0,0,0,0,0,0,0,0,0,0,0,0,0],"split_type":[0,0,0,0,0,0,0,0,0,0,0,0,0,0,0,0,0,0,0,0,0,0,0,0,0,0,0,0,0,0,0],"sum_hessian":[8.464E3,3.019E3,5.445E3,1.342E3,1.677E3,4.706E3,7.39E2,6.4E1,1.278E3,2.78E2,1.399E3,4.669E3,3.7E1,8.5E1,6.54E2,5.4E1,1E1,2.82E2,9.96E2,1.6E1,2.62E2,9.63E2,4.36E2,8.75E2,3.794E3,7E0,3E1,7.5E1,1E1,3.1E2,3.44E2],"tree_param":{"num_deleted":"0","num_feature":"50","num_nodes":"31","size_leaf_vector":"1"}},{"base_weights":[-1.2756088E-2,-1.8228936E0,4.93949E-1,-2.443955E-1,-2.2458942E0,3.701011E-2,1.2402583E0,-4.9927112E-1,4.2895575E0,-3.5233927E0,-1.8540564E0,-7.8000593E-1,4.1288888E-1,4.554881E-1,2.395647E0,-1.2660458E-2,-3.1378424E-1,3.2463583E-1,8.84518E-2,-1.0949458E-1,-1.6638961E-1,-1.0674241E-1,-5.182022E-2,-1.2283577E-1,-2.2247411E-2,2.6134627E-2,-4.4807307E-2,3.596739E-2,-3.582782E-2,1.4806852E-1,7.487782E-2],"categories":[],"categories_nodes":[],"categories_segments":[],"categories_sizes":[],"default_left":[0,0,0,0,0,0,0,0,0,0,0,0,0,0,0,0,0,0,0,0,0,0,0,0,0,0,0,0,0,0,0],"id":39,"left_children":[1,3,5,7,9,11,13,15,17,19,21,23,25,27,29,-1,-1,-1,-1,-1,-1,-1,-1,-1,-1,-1,-1,-1,-1,-1,-1],"loss_changes":[7.775271E3,1.2371279E3,2.258387E3,4.5591107E2,7.247666E2,1.2621549E3,2.2790115E3,4.9742773E2,1.480155E2,1.589878E2,5.06136E2,6.619381E2,1.0384858E3,8.9948E2,6.881289E2,0E0,0E0,0E0,0E0,0E0,0E0,0E0,0E0,0E0,0E0,0E0,0E0,0E0,0E0,0E0,0E0],"parents":[2147483647,0,0,1,1,2,2,3,3,4,4,5,5,6,6,7,7,8,8,9,9,10,10,11,11,12,12,13,13,14,14],"right_children":[2,4,6,8,10,12,14,16,18,20,22,24,26,28,30,-1,-1,-1,-1,-1,-1,-1,-1,-1,-1,-1,-1,-1,-1,-1,-1],"split_conditions":[4.0995E1,9.3E-1,1.39E0,5.122E1,3.357E1,7.3333335E0,7.4444447E0,5.3333335E0,1.9666667E0,1.4666667E1,8.164966E-1,3.3333333E0,3.42E0,1.33E1,2.01E0,-1.2660458E-2,-3.1378424E-1,3.2463583E-1,8.84518E-2,-1.0949458E-1,-1.6638961E-1,-1.0674241E-1,-5.182022E-2,-1.2283577E-1,-2.2247411E-2,2.6134627E-2,-4.4807307E-2,3.596739E-2,-3.582782E-2,1.4806852E-1,7.487782E-2],"split_indices":[42,14,14,41,41,6,6,36,20,32,11,10,22,30,22,0,0,0,0,0,0,0,0,0,0,0,0,0,0,0,0],"split_type":[0,0,0,0,0,0,0,0,0,0,0,0,0,0,0,0,0,0,0,0,0,0,0,0,0,0,0,0,0,0,0],"sum_hessian":[8.475E3,1.853E3,6.622E3,3.92E2,1.461E3,4.108E3,2.514E3,3.72E2,2E1,3.41E2,1.12E3,1.294E3,2.814E3,1.498E3,1.016E3,3.64E2,8E0,6E0,1.4E1,1.55E2,1.86E2,4.54E2,6.66E2,1.14E2,1.18E3,2.433E3,3.81E2,1.128E3,3.7E2,2.89E2,7.27E2],"tree_param":{"num_deleted":"0","num_feature":"50","num_nodes":"31","size_leaf_vector":"1"}},{"base_weights":[-1.3153925E-2,-1.1061819E0,6.5616727E-1,-1.7804234E0,-5.758531E-1,3.286361E-1,1.3881131E0,-1.9144053E0,2.4993386E0,-6.350604E-1,3.7932458E0,5.8406496E-1,-6.403253E-1,3.7864954E0,1.2078015E0,8.298582E-2,-8.048364E-2,1.4248848E-1,-1.8528333E-1,-1.9546464E-2,-9.259964E-2,2.3646577E-1,2.972682E-2,-2.0187867E-3,3.9291043E-2,5.2405722E-2,-4.0539563E-2,8.242178E-2,2.8906605E-1,4.3252848E-2,1.556625E-1],"categories":[],"categories_nodes":[],"categories_segments":[],"categories_sizes":[],"default_left":[0,0,0,0,0,0,0,0,0,0,0,0,0,0,0,0,0,0,0,0,0,0,0,0,0,0,0,0,0,0,0],"id":40,"left_children":[1,3,5,7,9,11,13,15,17,19,21,23,25,27,29,-1,-1,-1,-1,-1,-1,-1,-1,-1,-1,-1,-1,-1,-1,-1,-1],"loss_changes":[6.1409785E3,1.1386709E3,1.2474329E3,8.092212E2,4.641004E2,8.9087573E2,6.9074976E2,5.345137E2,3.4232492E2,4.3218042E2,1.5001178E2,7.197719E2,5.479091E2,6.4918494E2,5.0378027E2,0E0,0E0,0E0,0E0,0E0,0E0,0E0,0E0,0E0,0E0,0E0,0E0,0E0,0E0,0E0,0E0],"parents":[2147483647,0,0,1,1,2,2,3,3,4,4,5,5,6,6,7,7,8,8,9,9,10,10,11,11,12,12,13,13,14,14],"right_children":[2,4,6,8,10,12,14,16,18,20,22,24,26,28,30,-1,-1,-1,-1,-1,-1,-1,-1,-1,-1,-1,-1,-1,-1,-1,-1],"split_conditions":[4.4845E1,3.952E1,5.089E1,4.8116665E1,4E0,2.96E1,2.3666666E1,2.3333333E0,1.02E1,3.687E1,3.3333333E0,1.1666666E0,2.3333333E0,1.0666667E0,6.101E1,8.298582E-2,-8.048364E-2,1.4248848E-1,-1.8528333E-1,-1.9546464E-2,-9.259964E-2,2.3646577E-1,2.972682E-2,-2.0187867E-3,3.9291043E-2,5.2405722E-2,-4.0539563E-2,8.242178E-2,2.8906605E-1,4.3252848E-2,1.556625E-1],"split_indices":[42,42,42,40,22,2,1,4,5,26,36,13,8,16,42,0,0,0,0,0,0,0,0,0,0,0,0,0,0,0,0],"split_type":[0,0,0,0,0,0,0,0,0,0,0,0,0,0,0,0,0,0,0,0,0,0,0,0,0,0,0,0,0,0,0],"sum_hessian":[8.392E3,3.187E3,5.205E3,1.402E3,1.785E3,3.597E3,1.608E3,1.36E3,4.2E1,1.762E3,2.3E1,2.847E3,7.5E2,1.11E2,1.497E3,3.2E1,1.328E3,3.7E1,5E0,1.622E3,1.4E2,1.3E1,1E1,1.098E3,1.749E3,1.2E2,6.3E2,7.5E1,3.6E1,1.431E3,6.6E1],"tree_param":{"num_deleted":"0","num_feature":"50","num_nodes":"31","size_leaf_vector":"1"}},{"base_weights":[-9.463201E-3,-1.4508337E0,4.5678252E-1,-1.9767278E0,-4.4608995E-1,-4.679047E-2,9.854445E-1,-8.149747E-2,-2.4056735E0,-1.1707416E0,9.089436E-1,-5.956656E0,-7.0214993E-3,-6.051473E-1,1.3595738E0,7.859836E-2,-3.5647452E-2,-1.4702053E-1,-8.103184E-2,-5.802832E-2,1.24171786E-1,-1.2639776E-1,6.345932E-2,2.9002533E-3,-3.0960345E-1,3.6779843E-2,-1.0452722E-2,-2.9320354E-3,-1.3965069E-1,-1.0397986E-1,5.9510395E-2],"categories":[],"categories_nodes":[],"categories_segments":[],"categories_sizes":[],"default_left":[0,0,0,0,0,0,0,0,0,0,0,0,0,0,0,0,0,0,0,0,0,0,0,0,0,0,0,0,0,0,0],"id":41,"left_children":[1,3,5,7,9,11,13,15,17,19,21,23,25,27,29,-1,-1,-1,-1,-1,-1,-1,-1,-1,-1,-1,-1,-1,-1,-1,-1],"loss_changes":[5.719089E3,1.0979253E3,1.7119338E3,1.1092329E3,7.041502E2,7.735482E2,1.8676865E3,4.20863E2,5.2887695E2,5.63275E2,6.9406396E2,2.3788495E2,7.713267E2,9.173012E2,1.2928013E3,0E0,0E0,0E0,0E0,0E0,0E0,0E0,0E0,0E0,0E0,0E0,0E0,0E0,0E0,0E0,0E0],"parents":[2147483647,0,0,1,1,2,2,3,3,4,4,5,5,6,6,7,7,8,8,9,9,10,10,11,11,12,12,13,13,14,14],"right_children":[2,4,6,8,10,12,14,16,18,20,22,24,26,28,30,-1,-1,-1,-1,-1,-1,-1,-1,-1,-1,-1,-1,-1,-1,-1,-1],"split_conditions":[4.153E1,4E0,1.28E0,8.5E-1,8.666667E0,1.5165751E0,5E0,2.8635643E0,6E-1,1E1,1.75E0,2.7466667E1,1.09E2,1.58E0,9.125E0,7.859836E-2,-3.5647452E-2,-1.4702053E-1,-8.103184E-2,-5.802832E-2,1.24171786E-1,-1.2639776E-1,6.345932E-2,2.9002533E-3,-3.0960345E-1,3.6779843E-2,-1.0452722E-2,-2.9320354E-3,-1.3965069E-1,-1.0397986E-1,5.9510395E-2],"split_indices":[41,10,14,13,29,3,4,35,16,6,20,24,49,18,30,0,0,0,0,0,0,0,0,0,0,0,0,0,0,0,0],"split_type":[0,0,0,0,0,0,0,0,0,0,0,0,0,0,0,0,0,0,0,0,0,0,0,0,0,0,0,0,0,0,0],"sum_hessian":[8.508E3,2.079E3,6.429E3,1.364E3,7.15E2,3.293E3,3.136E3,2.52E2,1.112E3,4.66E2,2.49E2,2.1E1,3.272E3,5.97E2,2.539E3,7.1E1,1.81E2,2.54E2,8.58E2,4.38E2,2.8E1,3.5E1,2.14E2,5E0,1.6E1,7.04E2,2.568E3,5.05E2,9.2E1,7.9E1,2.46E3],"tree_param":{"num_deleted":"0","num_feature":"50","num_nodes":"31","size_leaf_vector":"1"}},{"base_weights":[1.5752412E-2,-1.0605364E0,6.8968326E-1,9.425787E-1,-1.3035704E0,1.31753115E-2,1.2032818E0,1.1318327E0,-5.0697145E0,-2.2705789E0,-9.0043867E-1,-5.339126E-2,4.247388E0,5.189673E-1,1.8452595E0,1.3403165E-1,2.0106984E-2,-9.335295E-2,-2.777594E-1,-2.1096257E-2,-9.976946E-2,-3.238055E-2,-1.6578004E-1,-6.753489E-2,3.931405E-3,-2.3159279E-2,3.7590408E-1,4.5460947E-2,-1.4839241E-2,1.192488E-1,5.4234102E-2],"categories":[],"categories_nodes":[],"categories_segments":[],"categories_sizes":[],"default_left":[0,0,0,0,0,0,0,0,0,0,0,0,0,0,0,0,0,0,0,0,0,0,0,0,0,0,0,0,0,0,0],"id":42,"left_children":[1,3,5,7,9,11,13,15,17,19,21,23,25,27,29,-1,-1,-1,-1,-1,-1,-1,-1,-1,-1,-1,-1,-1,-1,-1,-1],"loss_changes":[6.1711978E3,1.5961033E3,1.8177388E3,4.092813E2,1.1367275E3,6.3736115E2,1.3053281E3,4.7957642E2,3.9271973E1,3.332837E2,6.049591E2,5.520983E2,8.7631226E2,7.924621E2,8.483462E2,0E0,0E0,0E0,0E0,0E0,0E0,0E0,0E0,0E0,0E0,0E0,0E0,0E0,0E0,0E0,0E0],"parents":[2147483647,0,0,1,1,2,2,3,3,4,4,5,5,6,6,7,7,8,8,9,9,10,10,11,11,12,12,13,13,14,14],"right_children":[2,4,6,8,10,12,14,16,18,20,22,24,26,28,30,-1,-1,-1,-1,-1,-1,-1,-1,-1,-1,-1,-1,-1,-1,-1,-1],"split_conditions":[4.4845E1,6.4E-1,1.6431676E0,3.03E1,3.764E1,5.888E1,1.24E0,5E-1,3.28E0,4E0,6.2849027E-1,4.2E0,7.070926E0,9E-1,2.33E0,1.3403165E-1,2.0106984E-2,-9.335295E-2,-2.777594E-1,-2.1096257E-2,-9.976946E-2,-3.238055E-2,-1.6578004E-1,-6.753489E-2,3.931405E-3,-2.3159279E-2,3.7590408E-1,4.5460947E-2,-1.4839241E-2,1.192488E-1,5.4234102E-2],"split_indices":[42,14,7,2,42,42,14,12,21,5,19,5,27,14,22,0,0,0,0,0,0,0,0,0,0,0,0,0,0,0,0],"split_type":[0,0,0,0,0,0,0,0,0,0,0,0,0,0,0,0,0,0,0,0,0,0,0,0,0,0,0,0,0,0,0],"sum_hessian":[8.506E3,3.275E3,5.231E3,3.54E2,2.921E3,2.258E3,2.973E3,3.44E2,1E1,8.58E2,2.063E3,2.224E3,3.4E1,1.44E3,1.533E3,7.5E1,2.69E2,5E0,5E0,9.8E1,7.6E2,2.008E3,5.5E1,1.88E2,2.036E3,1.8E1,1.6E1,8.5E2,5.9E2,4.6E2,1.073E3],"tree_param":{"num_deleted":"0","num_feature":"50","num_nodes":"31","size_leaf_vector":"1"}},{"base_weights":[5.2162264E-2,-7.2329295E-1,7.346768E-1,-1.4022707E0,-2.3111896E-1,4.7212717E-1,1.5853227E0,6.7173064E-1,-1.7417176E0,-1.3361439E-1,-4.900144E0,-6.34515E-1,6.5637904E-1,9.6559584E-2,2.1987803E0,-7.239379E-3,1.1256303E-1,-1.1358817E-1,-5.5299304E-2,7.759E-2,-1.0708453E-2,-3.4892252E-1,-1.1329721E-1,-9.8647274E-2,9.1705687E-4,7.61847E-2,1.9662818E-2,1.4139875E-2,-3.065041E-1,1.0445741E-1,-2.8660852E-2],"categories":[],"categories_nodes":[],"categories_segments":[],"categories_sizes":[],"default_left":[0,0,0,0,0,0,0,0,0,0,0,0,0,0,0,0,0,0,0,0,0,0,0,0,0,0,0,0,0,0,0],"id":43,"left_children":[1,3,5,7,9,11,13,15,17,19,21,23,25,27,29,-1,-1,-1,-1,-1,-1,-1,-1,-1,-1,-1,-1,-1,-1,-1,-1],"loss_changes":[4.48283E3,1.3245171E3,1.00517773E3,1.1741633E3,1.0459199E3,7.0265344E2,9.6947534E2,4.30073E2,5.604829E2,6.270358E2,3.4565796E2,5.92774E2,6.063165E2,6.219931E2,9.067268E2,0E0,0E0,0E0,0E0,0E0,0E0,0E0,0E0,0E0,0E0,0E0,0E0,0E0,0E0,0E0,0E0],"parents":[2147483647,0,0,1,1,2,2,3,3,4,4,5,5,6,6,7,7,8,8,9,9,10,10,11,11,12,12,13,13,14,14],"right_children":[2,4,6,8,10,12,14,16,18,20,22,24,26,28,30,-1,-1,-1,-1,-1,-1,-1,-1,-1,-1,-1,-1,-1,-1,-1,-1],"split_conditions":[4.595E1,4.024E1,5.3833332E1,8.5E-1,1.4E1,7E-1,8.333333E0,2.6333334E0,3.357E1,1.034E2,1.104E2,2.979E1,8.6E-1,8E1,1.62E1,-7.239379E-3,1.1256303E-1,-1.1358817E-1,-5.5299304E-2,7.759E-2,-1.0708453E-2,-3.4892252E-1,-1.1329721E-1,-9.8647274E-2,9.1705687E-4,7.61847E-2,1.9662818E-2,1.4139875E-2,-3.065041E-1,1.0445741E-1,-2.8660852E-2],"split_indices":[41,41,40,13,29,13,4,20,41,49,49,26,14,46,29,0,0,0,0,0,0,0,0,0,0,0,0,0,0,0,0],"split_type":[0,0,0,0,0,0,0,0,0,0,0,0,0,0,0,0,0,0,0,0,0,0,0,0,0,0,0,0,0,0,0],"sum_hessian":[8.468E3,3.964E3,4.504E3,1.665E3,2.299E3,3.443E3,1.061E3,2.34E2,1.431E3,2.253E3,4.6E1,4.91E2,2.952E3,3.1E2,7.51E2,1.68E2,6.6E1,3.51E2,1.08E3,1.36E2,2.117E3,1.5E1,3.1E1,1.29E2,3.62E2,3.43E2,2.609E3,3.01E2,9E0,6.58E2,9.3E1],"tree_param":{"num_deleted":"0","num_feature":"50","num_nodes":"31","size_leaf_vector":"1"}},{"base_weights":[-2.5400983E-2,-1.1701038E0,4.7095338E-1,-1.6636451E0,-5.67448E-1,7.69314E-2,1.0712442E0,-5.985405E-1,-2.2973332E0,-2.4471225E-1,-2.1272266E0,-3.796125E-2,1.4821113E0,2.9195147E-3,1.5207981E0,-6.1933186E-2,-2.3263914E-3,-1.08152844E-1,-6.4039096E-2,-1.8311806E-2,8.666475E-2,-7.4488275E-2,-2.5816718E-1,7.273187E-2,-5.1999018E-3,4.838181E-2,3.1123018E-1,9.098174E-3,-1.6939232E-1,2.0775771E-1,5.524678E-2],"categories":[],"categories_nodes":[],"categories_segments":[],"categories_sizes":[],"default_left":[0,0,0,0,0,0,0,0,0,0,0,0,0,0,0,0,0,0,0,0,0,0,0,0,0,0,0,0,0,0,0],"id":44,"left_children":[1,3,5,7,9,11,13,15,17,19,21,23,25,27,29,-1,-1,-1,-1,-1,-1,-1,-1,-1,-1,-1,-1,-1,-1,-1,-1],"loss_changes":[4.8164995E3,7.614573E2,1.3983916E3,9.493318E2,5.8116846E2,5.767202E2,1.1251147E3,2.7023083E2,2.451836E2,4.93568E2,2.1420148E2,5.641916E2,4.532249E2,6.618671E2,8.379011E2,0E0,0E0,0E0,0E0,0E0,0E0,0E0,0E0,0E0,0E0,0E0,0E0,0E0,0E0,0E0,0E0],"parents":[2147483647,0,0,1,1,2,2,3,3,4,4,5,5,6,6,7,7,8,8,9,9,10,10,11,11,12,12,13,13,14,14],"right_children":[2,4,6,8,10,12,14,16,18,20,22,24,26,28,30,-1,-1,-1,-1,-1,-1,-1,-1,-1,-1,-1,-1,-1,-1,-1,-1],"split_conditions":[4.331E1,1E0,1.39E0,1.01E0,3.5333333E0,9.246621E0,5.5E0,6E0,6E0,4E0,8.136338E0,6E0,2.22E0,1.264E2,9.333333E0,-6.1933186E-2,-2.3263914E-3,-1.08152844E-1,-6.4039096E-2,-1.8311806E-2,8.666475E-2,-7.4488275E-2,-2.5816718E-1,7.273187E-2,-5.1999018E-3,4.838181E-2,3.1123018E-1,9.098174E-3,-1.6939232E-1,2.0775771E-1,5.524678E-2],"split_indices":[42,11,14,14,20,35,5,4,4,37,35,46,17,49,28,0,0,0,0,0,0,0,0,0,0,0,0,0,0,0,0],"split_type":[0,0,0,0,0,0,0,0,0,0,0,0,0,0,0,0,0,0,0,0,0,0,0,0,0,0,0,0,0,0,0],"sum_hessian":[8.475E3,2.563E3,5.912E3,1.408E3,1.155E3,3.57E3,2.342E3,5.26E2,8.82E2,9.58E2,1.97E2,3.301E3,2.69E2,6.94E2,1.648E3,1.9E2,3.36E2,5.55E2,3.27E2,8.81E2,7.7E1,1.87E2,1E1,1.55E2,3.146E3,2.59E2,1E1,6.6E2,3.4E1,5.9E1,1.589E3],"tree_param":{"num_deleted":"0","num_feature":"50","num_nodes":"31","size_leaf_vector":"1"}},{"base_weights":[-9.852465E-3,-1.3183465E0,3.7327296E-1,-1.735452E0,-2.1652502E-1,1.2731308E-1,1.3671391E0,-1.8418978E0,4.6775395E-1,1.0058603E0,-1.6166E0,-3.0484802E-1,5.5262226E-1,1.13330744E-1,1.7704324E0,-7.8017764E-2,1.9460235E-2,1.1767313E-1,-5.0179854E-2,2.479273E-2,2.2212018E-1,-7.2131544E-2,2.0109893E-1,2.3020573E-2,-2.1367487E-2,-1.8513512E-2,3.5405014E-2,2.393262E-2,-2.8551432E-1,-1.4072236E-1,7.5127825E-2],"categories":[],"categories_nodes":[],"categories_segments":[],"categories_sizes":[],"default_left":[0,0,0,0,0,0,0,0,0,0,0,0,0,0,0,0,0,0,0,0,0,0,0,0,0,0,0,0,0,0,0],"id":45,"left_children":[1,3,5,7,9,11,13,15,17,19,21,23,25,27,29,-1,-1,-1,-1,-1,-1,-1,-1,-1,-1,-1,-1,-1,-1,-1,-1],"loss_changes":[4.254264E3,8.8273413E2,1.6042544E3,3.2792236E2,9.070343E2,9.675435E2,6.579702E2,3.3723877E2,2.8082266E2,4.927161E2,3.1511536E2,5.274684E2,8.9622046E2,1.1219326E3,5.678008E2,0E0,0E0,0E0,0E0,0E0,0E0,0E0,0E0,0E0,0E0,0E0,0E0,0E0,0E0,0E0,0E0],"parents":[2147483647,0,0,1,1,2,2,3,3,4,4,5,5,6,6,7,7,8,8,9,9,10,10,11,11,12,12,13,13,14,14],"right_children":[2,4,6,8,10,12,14,16,18,20,22,24,26,28,30,-1,-1,-1,-1,-1,-1,-1,-1,-1,-1,-1,-1,-1,-1,-1,-1],"split_conditions":[4.134E1,7.2E0,5.155E1,7.1E0,1.35E0,1.23E0,6.9E-1,2.7666666E1,3.886E1,2.65E1,9.5E0,1.09E2,5E0,1.4857142E1,2.1E0,-7.8017764E-2,1.9460235E-2,1.1767313E-1,-5.0179854E-2,2.479273E-2,2.2212018E-1,-7.2131544E-2,2.0109893E-1,2.3020573E-2,-2.1367487E-2,-1.8513512E-2,3.5405014E-2,2.393262E-2,-2.8551432E-1,-1.4072236E-1,7.5127825E-2],"split_indices":[42,5,42,10,12,14,18,1,41,1,8,49,4,30,10,0,0,0,0,0,0,0,0,0,0,0,0,0,0,0,0],"split_type":[0,0,0,0,0,0,0,0,0,0,0,0,0,0,0,0,0,0,0,0,0,0,0,0,0,0,0,0,0,0,0],"sum_hessian":[8.484E3,1.921E3,6.563E3,1.393E3,5.28E2,5.262E3,1.301E3,1.329E3,6.4E1,2.82E2,2.46E2,2.61E3,2.652E3,3.17E2,9.84E2,1.27E3,5.9E1,2.6E1,3.8E1,2.61E2,2.1E1,2.4E2,6E0,5.39E2,2.071E3,6.54E2,1.998E3,2.98E2,1.9E1,1.9E1,9.65E2],"tree_param":{"num_deleted":"0","num_feature":"50","num_nodes":"31","size_leaf_vector":"1"}},{"base_weights":[3.47104E-2,-1.2903272E0,4.8389673E-1,1.6473264E-1,-1.5035762E0,1.1233095E-1,1.0874094E0,-1.7788966E-1,3.5883663E0,-2.7085652E0,-1.2319348E0,-3.2170243E0,1.8464819E-1,5.4438686E-1,2.2552736E0,1.064557E-2,-1.2857114E-1,2.5056747E-1,-1.5104184E-2,-1.2648329E-1,-5.367185E-2,-7.5425416E-2,-3.3244796E-2,-2.3527212E-2,-1.7888854E-1,1.4774384E-3,5.458534E-2,4.062183E-2,-2.8959049E-2,2.1867155E-1,8.0877095E-2],"categories":[],"categories_nodes":[],"categories_segments":[],"categories_sizes":[],"default_left":[0,0,0,0,0,0,0,0,0,0,0,0,0,0,0,0,0,0,0,0,0,0,0,0,0,0,0,0,0,0,0],"id":46,"left_children":[1,3,5,7,9,11,13,15,17,19,21,23,25,27,29,-1,-1,-1,-1,-1,-1,-1,-1,-1,-1,-1,-1,-1,-1,-1,-1],"loss_changes":[5.0239375E3,6.6347144E2,1.4133964E3,3.22385E2,6.0640283E2,9.4001514E2,1.5217847E3,3.382114E2,2.682597E2,2.0729614E2,3.9720654E2,2.7073846E2,6.658031E2,9.8142694E2,5.592366E2,0E0,0E0,0E0,0E0,0E0,0E0,0E0,0E0,0E0,0E0,0E0,0E0,0E0,0E0,0E0,0E0],"parents":[2147483647,0,0,1,1,2,2,3,3,4,4,5,5,6,6,7,7,8,8,9,9,10,10,11,11,12,12,13,13,14,14],"right_children":[2,4,6,8,10,12,14,16,18,20,22,24,26,28,30,-1,-1,-1,-1,-1,-1,-1,-1,-1,-1,-1,-1,-1,-1,-1,-1],"split_conditions":[4.2085E1,7.9E-1,1.39E0,3.766E1,3.357E1,1.61E1,8.5E0,3.5433334E1,6.1073726E-1,1.83E0,3.3333333E0,4.2505E1,5.3966667E1,2.91E1,4.811E1,1.064557E-2,-1.2857114E-1,2.5056747E-1,-1.5104184E-2,-1.2648329E-1,-5.367185E-2,-7.5425416E-2,-3.3244796E-2,-2.3527212E-2,-1.7888854E-1,1.4774384E-3,5.458534E-2,4.062183E-2,-2.8959049E-2,2.1867155E-1,8.0877095E-2],"split_indices":[42,14,14,25,41,34,5,24,23,14,8,42,40,2,42,0,0,0,0,0,0,0,0,0,0,0,0,0,0,0,0],"split_type":[0,0,0,0,0,0,0,0,0,0,0,0,0,0,0,0,0,0,0,0,0,0,0,0,0,0,0,0,0,0,0],"sum_hessian":[8.439E3,2.136E3,6.303E3,2.73E2,1.863E3,3.902E3,2.401E3,2.49E2,2.4E1,3.41E2,1.522E3,8.2E1,3.82E3,1.64E3,7.61E2,2.18E2,3.1E1,1.4E1,1E1,2.55E2,8.6E1,5.77E2,9.45E2,2.7E1,5.5E1,3.396E3,4.24E2,1.196E3,4.44E2,5E1,7.11E2],"tree_param":{"num_deleted":"0","num_feature":"50","num_nodes":"31","size_leaf_vector":"1"}},{"base_weights":[-5.4350074E-2,-7.665221E-1,5.3247845E-1,-1.2689143E0,-2.9505762E-1,-1.1243082E0,7.05838E-1,7.0384455E-1,-1.5143476E0,6.3478875E-1,-5.58266E-1,-4.8526917E0,-8.582561E-1,-1.5412661E0,7.9192257E-1,5.4699287E-2,-7.9264805E-2,-9.025329E-2,-4.5181803E-2,3.2206934E-2,-2.172014E-1,1.266738E-1,-2.5993861E-2,-3.7512317E-1,-1.07095905E-1,-2.431743E-1,-2.6887665E-2,-1.8509496E-2,-1.9862756E-1,1.622024E-2,5.2931555E-2],"categories":[],"categories_nodes":[],"categories_segments":[],"categories_sizes":[],"default_left":[0,0,0,0,0,0,0,0,0,0,0,0,0,0,0,0,0,0,0,0,0,0,0,0,0,0,0,0,0,0,0],"id":47,"left_children":[1,3,5,7,9,11,13,15,17,19,21,23,25,27,29,-1,-1,-1,-1,-1,-1,-1,-1,-1,-1,-1,-1,-1,-1,-1,-1],"loss_changes":[3.5302078E3,9.0332715E2,1.3308671E3,8.954282E2,4.824912E2,4.3072772E2,8.122429E2,3.6799435E2,4.6621826E2,4.5341815E2,5.258093E2,2.5916302E2,3.945091E2,5.6962683E2,8.286135E2,0E0,0E0,0E0,0E0,0E0,0E0,0E0,0E0,0E0,0E0,0E0,0E0,0E0,0E0,0E0,0E0],"parents":[2147483647,0,0,1,1,2,2,3,3,4,4,5,5,6,6,7,7,8,8,9,9,10,10,11,11,12,12,13,13,14,14],"right_children":[2,4,6,8,10,12,14,16,18,20,22,24,26,28,30,-1,-1,-1,-1,-1,-1,-1,-1,-1,-1,-1,-1,-1,-1,-1,-1],"split_conditions":[4.597E1,4.0995E1,6.6E-1,7.9E-1,2.76E1,2.54E1,4.25E0,1.172E2,3.5915E1,1.3714286E1,5E-1,4.9789464E-1,4.7E-1,3.2666667E0,1.43E0,5.4699287E-2,-7.9264805E-2,-9.025329E-2,-4.5181803E-2,3.2206934E-2,-2.172014E-1,1.266738E-1,-2.5993861E-2,-3.7512317E-1,-1.07095905E-1,-2.431743E-1,-2.6887665E-2,-1.8509496E-2,-1.9862756E-1,1.622024E-2,5.2931555E-2],"split_indices":[42,42,14,14,24,25,5,49,42,30,14,48,14,20,14,0,0,0,0,0,0,0,0,0,0,0,0,0,0,0,0],"split_type":[0,0,0,0,0,0,0,0,0,0,0,0,0,0,0,0,0,0,0,0,0,0,0,0,0,0,0,0,0,0,0],"sum_hessian":[8.445E3,3.815E3,4.63E3,1.846E3,1.969E3,4.38E2,4.192E3,2.04E2,1.642E3,4.34E2,1.535E3,2.8E1,4.1E2,1.54E2,4.038E3,1.64E2,4E1,5.59E2,1.083E3,4.23E2,1.1E1,3.6E1,1.499E3,8E0,2E1,1.3E1,3.97E2,1.18E2,3.6E1,2.339E3,1.699E3],"tree_param":{"num_deleted":"0","num_feature":"50","num_nodes":"31","size_leaf_vector":"1"}},{"base_weights":[-3.2086022E-2,-1.3655549E0,3.0660626E-1,1.4186177E0,-1.5210633E0,1.9081764E-2,8.9250296E-1,-4.6773676E-2,4.451986E0,-1.803056E0,-6.1612725E-1,-5.161805E-1,4.263329E-1,4.123046E0,7.460187E-1,-4.0734343E-2,2.0777847E-1,2.5341725E-1,2.4548875E-2,-9.72516E-2,-4.7897648E-2,-6.921581E-2,2.4326267E-2,2.6752793E-3,-4.2712517E-2,-5.3075586E-2,2.379723E-2,3.9179572E-1,8.4911294E-2,-2.2895152E-2,3.961072E-2],"categories":[],"categories_nodes":[],"categories_segments":[],"categories_sizes":[],"default_left":[0,0,0,0,0,0,0,0,0,0,0,0,0,0,0,0,0,0,0,0,0,0,0,0,0,0,0,0,0,0,0],"id":48,"left_children":[1,3,5,7,9,11,13,15,17,19,21,23,25,27,29,-1,-1,-1,-1,-1,-1,-1,-1,-1,-1,-1,-1,-1,-1,-1,-1],"loss_changes":[3.8574927E3,7.511931E2,1.1472705E3,4.0959534E2,4.16896E2,9.964079E2,1.0574044E3,3.2568747E2,2.1229169E2,4.7193066E2,5.3455914E2,6.3540295E2,7.680669E2,1.078499E3,6.9165857E2,0E0,0E0,0E0,0E0,0E0,0E0,0E0,0E0,0E0,0E0,0E0,0E0,0E0,0E0,0E0,0E0],