{"learner":{"attributes":{"scikit_learn":"{\"_estimator_type\": \"classifier\"}"},"feature_names":[],"feature_types":[],"gradient_booster":{"model":{"gbtree_model_param":{"num_parallel_tree":"1","num_trees":"600"},"iteration_indptr":[0,1,2,3,4,5,6,7,8,9,10,11,12,13,14,15,16,17,18,19,20,21,22,23,24,25,26,27,28,29,30,31,32,33,34,35,36,37,38,39,40,41,42,43,44,45,46,47,48,49,50,51,52,53,54,55,56,57,58,59,60,61,62,63,64,65,66,67,68,69,70,71,72,73,74,75,76,77,78,79,80,81,82,83,84,85,86,87,88,89,90,91,92,93,94,95,96,97,98,99,100,101,102,103,104,105,106,107,108,109,110,111,112,113,114,115,116,117,118,119,120,121,122,123,124,125,126,127,128,129,130,131,132,133,134,135,136,137,138,139,140,141,142,143,144,145,146,147,148,149,150,151,152,153,154,155,156,157,158,159,160,161,162,163,164,165,166,167,168,169,170,171,172,173,174,175,176,177,178,179,180,181,182,183,184,185,186,187,188,189,190,191,192,193,194,195,196,197,198,199,200,201,202,203,204,205,206,207,208,209,210,211,212,213,214,215,216,217,218,219,220,221,222,223,224,225,226,227,228,229,230,231,232,233,234,235,236,237,238,239,240,241,242,243,244,245,246,247,248,249,250,251,252,253,254,255,256,257,258,259,260,261,262,263,264,265,266,267,268,269,270,271,272,273,274,275,276,277,278,279,280,281,282,283,284,285,286,287,288,289,290,291,292,293,294,295,296,297,298,299,300,301,302,303,304,305,306,307,308,309,310,311,312,313,314,315,316,317,318,319,320,321,322,323,324,325,326,327,328,329,330,331,332,333,334,335,336,337,338,339,340,341,342,343,344,345,346,347,348,349,350,351,352,353,354,355,356,357,358,359,360,361,362,363,364,365,366,367,368,369,370,371,372,373,374,375,376,377,378,379,380,381,382,383,384,385,386,387,388,389,390,391,392,393,394,395,396,397,398,399,400,401,402,403,404,405,406,407,408,409,410,411,412,413,414,415,416,417,418,419,420,421,422,423,424,425,426,427,428,429,430,431,432,433,434,435,436,437,438,439,440,441,442,443,444,445,446,447,448,449,450,451,452,453,454,455,456,457,458,459,460,461,462,463,464,465,466,467,468,469,470,471,472,473,474,475,476,477,478,479,480,481,482,483,484,485,486,487,488,489,490,491,492,493,494,495,496,497,498,499,500,501,502,503,504,505,506,507,508,509,510,511,512,513,514,515,516,517,518,519,520,521,522,523,524,525,526,527,528,529,530,531,532,533,534,535,536,537,538,539,540,541,542,543,544,545,546,547,548,549,550,551,552,553,554,555,556,557,558,559,560,561,562,563,564,565,566,567,568,569,570,571,572,573,574,575,576,577,578,579,580,581,582,583,584,585,586,587,588,589,590,591,592,593,594,595,596,597,598,599,600],"tree_info":[0,0,0,0,0,0,0,0,0,0,0,0,0,0,0,0,0,0,0,0,0,0,0,0,0,0,0,0,0,0,0,0,0,0,0,0,0,0,0,0,0,0,0,0,0,0,0,0,0,0,0,0,0,0,0,0,0,0,0,0,0,0,0,0,0,0,0,0,0,0,0,0,0,0,0,0,0,0,0,0,0,0,0,0,0,0,0,0,0,0,0,0,0,0,0,0,0,0,0,0,0,0,0,0,0,0,0,0,0,0,0,0,0,0,0,0,0,0,0,0,0,0,0,0,0,0,0,0,0,0,0,0,0,0,0,0,0,0,0,0,0,0,0,0,0,0,0,0,0,0,0,0,0,0,0,0,0,0,0,0,0,0,0,0,0,0,0,0,0,0,0,0,0,0,0,0,0,0,0,0,0,0,0,0,0,0,0,0,0,0,0,0,0,0,0,0,0,0,0,0,0,0,0,0,0,0,0,0,0,0,0,0,0,0,0,0,0,0,0,0,0,0,0,0,0,0,0,0,0,0,0,0,0,0,0,0,0,0,0,0,0,0,0,0,0,0,0,0,0,0,0,0,0,0,0,0,0,0,0,0,0,0,0,0,0,0,0,0,0,0,0,0,0,0,0,0,0,0,0,0,0,0,0,0,0,0,0,0,0,0,0,0,0,0,0,0,0,0,0,0,0,0,0,0,0,0,0,0,0,0,0,0,0,0,0,0,0,0,0,0,0,0,0,0,0,0,0,0,0,0,0,0,0,0,0,0,0,0,0,0,0,0,0,0,0,0,0,0,0,0,0,0,0,0,0,0,0,0,0,0,0,0,0,0,0,0,0,0,0,0,0,0,0,0,0,0,0,0,0,0,0,0,0,0,0,0,0,0,0,0,0,0,0,0,0,0,0,0,0,0,0,0,0,0,0,0,0,0,0,0,0,0,0,0,0,0,0,0,0,0,0,0,0,0,0,0,0,0,0,0,0,0,0,0,0,0,0,0,0,0,0,0,0,0,0,0,0,0,0,0,0,0,0,0,0,0,0,0,0,0,0,0,0,0,0,0,0,0,0,0,0,0,0,0,0,0,0,0,0,0,0,0,0,0,0,0,0,0,0,0,0,0,0,0,0,0,0,0,0,0,0,0,0,0,0,0,0,0,0,0,0,0,0,0,0,0,0,0,0,0,0,0,0,0,0,0,0,0,0,0,0,0,0,0,0,0,0,0,0,0,0,0,0,0,0,0,0,0,0,0,0,0,0,0,0,0,0,0,0,0,0,0,0,0,0,0,0,0,0,0,0,0,0,0,0,0,0,0,0,0,0,0,0,0,0,0,0,0,0,0,0,0,0,0,0,0,0,0,0,0],"trees":[{"base_weights":[5.6186207E-3,-6.481461E-1,4.238687E-1,-8.8056606E-1,-1.947265E-1,1.823078E-1,8.040157E-1,1.1436381E-2,-9.4018203E-1,-9.5230854E-1,-6.847904E-2,-2.6939136E-1,2.978935E-1,-0E0,8.7229E-1,6.797274E-3,-9.8680186E-1,-8.729686E-3,-4.111797E-2,4.5815095E-1,-2.934512E-1,-4.2154927E-2,-1.188934E-1,2.0966901E-1,7.876013E-1,-2.260723E-2,1.4997463E-2,-6.9539268E-3,9.147903E-1,-3.6804583E-2,-2.2507483E-2,4.799763E-5,2.6392348E-2,-2.131266E-2,-4.910175E-4,-9.415463E-3,1.1632173E-2,-2.1389626E-2,7.729191E-3,3.7419133E-2,1.4904504E-2,2.9152162E-2,1.0203622E-2],"categories":[],"categories_nodes":[],"categories_segments":[],"categories_sizes":[],"default_left":[0,0,0,0,0,0,0,0,0,0,0,0,0,0,0,0,0,0,0,0,0,0,0,0,0,0,0,0,0,0,0,0,0,0,0,0,0,0,0,0,0,0,0],"id":0,"left_children":[1,3,5,7,9,11,13,-1,15,17,19,21,23,25,27,-1,29,-1,-1,31,33,-1,35,37,39,-1,-1,-1,41,-1,-1,-1,-1,-1,-1,-1,-1,-1,-1,-1,-1,-1,-1],"loss_changes":[2.3888588E2,3.5549805E1,4.861866E1,1.7498566E1,1.1044112E1,1.724583E1,1.1416031E1,0E0,1.2111816E1,3.8174324E0,1.2328991E1,1.1123487E1,1.0973082E1,7.2010584E0,9.3211975E0,0E0,1.0185928E1,0E0,0E0,5.902205E0,8.328531E0,0E0,6.2258277E0,1.0155028E1,4.1470776E0,0E0,0E0,0E0,5.386322E0,0E0,0E0,0E0,0E0,0E0,0E0,0E0,0E0,0E0,0E0,0E0,0E0,0E0,0E0],"parents":[2147483647,0,0,1,1,2,2,3,3,4,4,5,5,6,6,8,8,9,9,10,10,11,11,12,12,13,13,14,14,16,16,19,19,20,20,22,22,23,23,24,24,28,28],"right_children":[2,4,6,8,10,12,14,-1,16,18,20,22,24,26,28,-1,30,-1,-1,32,34,-1,36,38,40,-1,-1,-1,42,-1,-1,-1,-1,-1,-1,-1,-1,-1,-1,-1,-1,-1,-1],"split_conditions":[-2.8E0,-2.2E0,6.9E0,1.054E2,4E0,-1.5873016E-1,3E-1,1.1436381E-2,-5.3E0,-1.1E0,6.9E0,-3.25E-1,3.1428573E-1,9.5E0,-8.3E0,6.797274E-3,4E-1,-8.729686E-3,-4.111797E-2,-1.6E0,4.2857143E-1,-4.2154927E-2,3.9E0,-1.28E1,1.098E2,-2.260723E-2,1.4997463E-2,-6.9539268E-3,1.184E2,-3.6804583E-2,-2.2507483E-2,4.799763E-5,2.6392348E-2,-2.131266E-2,-4.910175E-4,-9.415463E-3,1.1632173E-2,-2.1389626E-2,7.729191E-3,3.7419133E-2,1.4904504E-2,2.9152162E-2,1.0203622E-2],"split_indices":[131,46,131,47,93,133,43,0,84,37,93,135,133,131,134,0,39,0,0,94,43,0,37,83,48,0,0,0,48,0,0,0,0,0,0,0,0,0,0,0,0,0,0],"split_type":[0,0,0,0,0,0,0,0,0,0,0,0,0,0,0,0,0,0,0,0,0,0,0,0,0,0,0,0,0,0,0,0,0,0,0,0,0,0,0,0,0,0,0],"sum_hessian":[8.707159E2,3.392977E2,5.314182E2,2.2323517E2,1.1606253E2,3.2645673E2,2.0496149E2,9.63072E0,2.1360445E2,1.5063435E1,1.0099909E2,6.5933395E1,2.6052335E2,1.60512E1,1.889103E2,7.9021297E0,2.0570232E2,6.9143634E0,8.149071E0,2.9632986E1,7.136611E1,6.1735387E0,5.9759857E1,2.2274127E2,3.778206E1,6.1735387E0,9.877662E0,6.667422E0,1.8224286E2,9.877662E1,1.0692569E2,1.5063435E1,1.4569551E1,2.7410513E1,4.3955597E1,4.3708656E1,1.60512E1,9.877662E0,2.1286362E2,1.2594019E1,2.5188038E1,1.6471002E2,1.753285E1],"tree_param":{"num_deleted":"0","num_feature":"141","num_nodes":"43","size_leaf_vector":"1"}},{"base_weights":[-1.4533085E-2,-6.263748E-1,3.9201066E-1,-8.349013E-1,-1.5995564E-1,1.3890545E-1,7.7682E-1,2.607296E-2,-9.0964186E-1,-5.54448E-1,4.5522913E-2,-7.421214E-2,2.8407115E-1,9.676607E-1,4.7032207E-1,1.765445E-2,-2.4187544E-1,-9.623556E-1,-1.4210992E-1,-3.893263E-2,-2.6390693E-1,-4.3443325E-1,2.7225134E-1,4.602128E-1,-1.7436503E-1,6.915736E-2,5.409535E-1,2.4943519E-1,1.0480372E0,-2.8429103E-1,5.85456E-1,-2.0595139E-2,4.743765E-3,-4.3313075E-2,-2.5741853E-2,1.8299768E-2,-2.7087994E-2,9.1797775E-3,-1.7213477E-2,8.902865E-3,-2.0737696E-2,1.4156885E-2,-1.0018101E-2,2.9278694E-2,-1.0282395E-2,-9.039842E-3,1.1052278E-2,2.8997783E-2,-8.9931366E-4,1.9870436E-2,-7.1445554E-3,-8.952529E-3,2.8581306E-2,2.547271E-2,3.7057422E-2,8.101894E-4,-1.6405294E-2,2.0481156E-2,6.2425935E-4],"categories":[],"categories_nodes":[],"categories_segments":[],"categories_sizes":[],"default_left":[0,0,0,0,0,0,0,0,0,0,0,0,0,0,0,0,0,0,0,0,0,0,0,0,0,0,0,0,0,0,0,0,0,0,0,0,0,0,0,0,0,0,0,0,0,0,0,0,0,0,0,0,0,0,0,0,0,0,0],"id":1,"left_children":[1,3,5,7,9,11,13,15,17,19,21,23,25,27,29,-1,31,33,35,-1,37,39,41,43,45,47,49,51,53,55,57,-1,-1,-1,-1,-1,-1,-1,-1,-1,-1,-1,-1,-1,-1,-1,-1,-1,-1,-1,-1,-1,-1,-1,-1,-1,-1,-1,-1],"loss_changes":[2.1720134E2,3.360858E1,5.083103E1,1.5594818E1,8.98223E0,9.902299E0,1.1317749E1,3.345719E0,8.640686E0,7.5054846E0,8.144132E0,7.0449157E0,1.0370591E1,6.7710876E0,7.4725857E0,0E0,2.8593783E0,8.29245E0,1.0072691E1,0E0,5.446245E0,4.848913E0,6.4086084E0,9.161066E0,7.784894E0,9.511165E0,8.422585E0,6.197516E0,2.4278564E0,1.042983E0,3.8858318E0,0E0,0E0,0E0,0E0,0E0,0E0,0E0,0E0,0E0,0E0,0E0,0E0,0E0,0E0,0E0,0E0,0E0,0E0,0E0,0E0,0E0,0E0,0E0,0E0,0E0,0E0,0E0,0E0],"parents":[2147483647,0,0,1,1,2,2,3,3,4,4,5,5,6,6,7,7,8,8,9,9,10,10,11,11,12,12,13,13,14,14,16,16,17,17,18,18,20,20,21,21,22,22,23,23,24,24,25,25,26,26,27,27,28,28,29,29,30,30],"right_children":[2,4,6,8,10,12,14,16,18,20,22,24,26,28,30,-1,32,34,36,-1,38,40,42,44,46,48,50,52,54,56,58,-1,-1,-1,-1,-1,-1,-1,-1,-1,-1,-1,-1,-1,-1,-1,-1,-1,-1,-1,-1,-1,-1,-1,-1,-1,-1,-1,-1],"split_conditions":[-2.8E0,-1.6E0,6.6E0,-5.5E0,4.2857143E-1,6E-1,-4.6E0,-1.4E0,4E0,-8.6E0,-1E0,-5.8E0,2.2E0,7.9E0,-9.7222224E-2,1.765445E-2,-8.888889E0,-1.76E1,-3.2E0,-3.893263E-2,-4E0,-6E0,-4.2E0,-4E-1,5.555556E-1,1.052E2,1.236E2,5.555556E-1,4.8E0,9.9E0,1.52E1,-2.0595139E-2,4.743765E-3,-4.3313075E-2,-2.5741853E-2,1.8299768E-2,-2.7087994E-2,9.1797775E-3,-1.7213477E-2,8.902865E-3,-2.0737696E-2,1.4156885E-2,-1.0018101E-2,2.9278694E-2,-1.0282395E-2,-9.039842E-3,1.1052278E-2,2.8997783E-2,-8.9931366E-4,1.9870436E-2,-7.1445554E-3,-8.952529E-3,2.8581306E-2,2.547271E-2,3.7057422E-2,8.101894E-4,-1.6405294E-2,2.0481156E-2,6.2425935E-4],"split_indices":[140,37,140,91,43,39,84,83,85,94,91,95,131,131,133,0,91,131,95,0,94,136,140,37,92,0,40,39,36,37,36,0,0,0,0,0,0,0,0,0,0,0,0,0,0,0,0,0,0,0,0,0,0,0,0,0,0,0,0],"split_type":[0,0,0,0,0,0,0,0,0,0,0,0,0,0,0,0,0,0,0,0,0,0,0,0,0,0,0,0,0,0,0,0,0,0,0,0,0,0,0,0,0,0,0,0,0,0,0,0,0,0,0,0,0,0,0,0,0,0,0],"sum_hessian":[8.701299E2,3.4713388E2,5.22996E2,2.3891876E2,1.08215126E2,3.168752E2,2.0612076E2,1.9054884E1,2.1986389E2,3.635582E1,7.185931E1,1.2840634E2,1.8846889E2,1.2483213E2,8.1288635E1,5.6902328E0,1.3364652E1,2.0525597E2,1.4607922E1,8.658957E0,2.7696861E1,2.2472528E1,4.938678E1,1.9257175E1,1.0914916E2,1.0386561E2,8.460328E1,1.3308614E1,1.1152351E2,1.0353985E1,7.093465E1,5.9388328E0,7.4258184E0,3.2947697E1,1.7230826E2,7.4295087E0,7.178413E0,9.648382E0,1.804848E1,5.6796103E0,1.6792917E1,3.7525288E1,1.1861491E1,1.160476E1,7.652415E0,8.914768E1,2.0001482E1,9.126781E0,9.473882E1,7.350365E1,1.1099636E1,7.8864055E0,5.4222083E0,5.8351368E1,5.317215E1,5.1786737E0,5.175311E0,6.009395E1,1.0840701E1],"tree_param":{"num_deleted":"0","num_feature":"141","num_nodes":"59","size_leaf_vector":"1"}},{"base_weights":[-7.583154E-3,-6.0316825E-1,3.8463774E-1,-8.330219E-1,-1.712997E-1,1.2858897E-1,8.213491E-1,1.0024371E-2,-8.8932544E-1,-2.9618675E-1,5.5803746E-1,-8.55319E-2,2.6594093E-1,-1.11397505E-2,8.736565E-1,-1.21052E0,-6.701049E-1,-1.856077E-1,-8.661256E-1,2.3349577E-1,2.9925514E-2,9.9514775E-2,-3.687342E-1,1.2176118E-1,5.8305955E-1,1.1843691E0,6.484694E-1,-4.023156E-2,-1.261353E-2,-2.367758E-2,-7.492522E-5,-1.7175399E-2,2.833358E-3,-3.525013E-2,-1.1727256E-2,1.7359627E-2,-4.8030904E-3,-1.8109665E-3,2.1786634E-2,-1.502205E-2,1.8928898E-2,5.5006603E-3,-2.0337816E-2,2.2575313E-2,-1.970401E-3,3.8147703E-2,1.3009207E-2,1.1893212E-2,2.6647639E-2],"categories":[],"categories_nodes":[],"categories_segments":[],"categories_sizes":[],"default_left":[0,0,0,0,0,0,0,0,0,0,0,0,0,0,0,0,0,0,0,0,0,0,0,0,0,0,0,0,0,0,0,0,0,0,0,0,0,0,0,0,0,0,0,0,0,0,0,0,0],"id":2,"left_children":[1,3,5,7,9,11,13,-1,15,17,19,21,23,-1,25,27,29,31,33,35,-1,37,39,41,43,45,47,-1,-1,-1,-1,-1,-1,-1,-1,-1,-1,-1,-1,-1,-1,-1,-1,-1,-1,-1,-1,-1,-1],"loss_changes":[2.0380743E2,3.40792E1,5.8552246E1,1.5325867E1,1.1369682E1,9.858776E0,1.2636749E1,0E0,1.3782928E1,6.308591E0,2.1371455E0,6.955364E0,9.140647E0,0E0,1.1702026E1,7.790779E0,1.0397316E1,9.934104E0,1.5913792E0,1.8944569E0,0E0,8.177572E0,7.370941E0,7.1415367E0,7.0773582E0,3.9981384E0,6.083767E0,0E0,0E0,0E0,0E0,0E0,0E0,0E0,0E0,0E0,0E0,0E0,0E0,0E0,0E0,0E0,0E0,0E0,0E0,0E0,0E0,0E0,0E0],"parents":[2147483647,0,0,1,1,2,2,3,3,4,4,5,5,6,6,8,8,9,9,10,10,11,11,12,12,14,14,15,15,16,16,17,17,18,18,19,19,21,21,22,22,23,23,24,24,25,25,26,26],"right_children":[2,4,6,8,10,12,14,-1,16,18,20,22,24,-1,26,28,30,32,34,36,-1,38,40,42,44,46,48,-1,-1,-1,-1,-1,-1,-1,-1,-1,-1,-1,-1,-1,-1,-1,-1,-1,-1,-1,-1,-1,-1],"split_conditions":[-2.8E0,-2.3E0,7.3E0,1.054E2,5E0,6E-1,3.75E-1,1.0024371E-2,-3.5714287E-1,-3.5E0,1.14285715E-1,-1E-1,1.14285715E-1,-1.11397505E-2,3.3333334E-1,-5.1E0,7.1428575E-2,-7.6E0,6E-1,7.9E0,2.9925514E-2,2.1428572E-1,1.2275E2,9.4E0,4.1E0,4.4444445E-1,3.8E0,-4.023156E-2,-1.261353E-2,-2.367758E-2,-7.492522E-5,-1.7175399E-2,2.833358E-3,-3.525013E-2,-1.1727256E-2,1.7359627E-2,-4.8030904E-3,-1.8109665E-3,2.1786634E-2,-1.502205E-2,1.8928898E-2,5.5006603E-3,-2.0337816E-2,2.2575313E-2,-1.970401E-3,3.8147703E-2,1.3009207E-2,1.1893212E-2,2.6647639E-2],"split_indices":[140,37,140,47,136,39,39,0,133,140,135,37,135,0,86,37,135,140,37,93,0,135,47,136,84,88,136,0,0,0,0,0,0,0,0,0,0,0,0,0,0,0,0,0,0,0,0,0,0],"split_type":[0,0,0,0,0,0,0,0,0,0,0,0,0,0,0,0,0,0,0,0,0,0,0,0,0,0,0,0,0,0,0,0,0,0,0,0,0,0,0,0,0,0,0,0,0,0,0,0,0],"sum_hessian":[8.693766E2,3.4497794E2,5.243987E2,2.2408707E2,1.20890854E2,3.3194577E2,1.9245291E2,9.89E0,2.1419707E2,1.0409435E2,1.6796501E1,1.2965764E2,2.0228815E2,7.621155E0,1.8483176E2,8.395296E1,1.3024411E2,8.899213E1,1.5102225E1,1.1113804E1,5.6826963E0,7.8793274E1,5.0864357E1,1.4070645E2,6.15817E1,7.479563E1,1.10036125E2,7.1042885E1,1.29100685E1,1.1016065E2,2.008346E1,3.685959E1,5.2132538E1,7.686757E0,7.415468E0,5.6808867E0,5.4329176E0,6.373075E1,1.5062528E1,4.5681267E1,5.183088E0,1.318334E2,8.873041E0,4.8759834E1,1.2821867E1,6.5958534E1,8.8371E0,5.5792156E1,5.4243965E1],"tree_param":{"num_deleted":"0","num_feature":"141","num_nodes":"49","size_leaf_vector":"1"}},{"base_weights":[1.7496547E-2,-3.6900344E-1,6.0684085E-1,-9.2336214E-1,-1.9317675E-1,4.1333318E-1,1.0557164E0,-1.2055986E0,-7.055738E-1,-8.0189216E-1,-1.15488686E-1,2.2403713E-2,5.984489E-1,6.233164E-3,1.1350971E0,-1.2917281E0,-9.291895E-3,-7.846817E-1,5.825537E-3,-1.365214E-3,-9.0657467E-1,-4.2126095E-1,1.26118725E-2,-1.3512394E-1,5.530771E-1,7.56478E-1,2.8581485E-1,3.6734282E-3,1.1901641E0,-1.953499E-2,-4.264863E-2,-2.5864087E-2,-1.8672462E-4,-7.1201604E-3,-3.1414825E-2,-1.7623222E-2,1.0831329E-3,-2.0051317E-2,1.4051268E-3,-9.015566E-3,1.3227745E-2,-1.450075E-2,3.0876849E-2,1.8736662E-3,2.3977837E-2,1.5367312E-2,-9.970288E-3,3.8242303E-2,1.9105475E-2],"categories":[],"categories_nodes":[],"categories_segments":[],"categories_sizes":[],"default_left":[0,0,0,0,0,0,0,0,0,0,0,0,0,0,0,0,0,0,0,0,0,0,0,0,0,0,0,0,0,0,0,0,0,0,0,0,0,0,0,0,0,0,0,0,0,0,0,0,0],"id":3,"left_children":[1,3,5,7,9,11,13,15,17,19,21,23,25,-1,27,29,-1,31,-1,-1,33,35,37,39,41,43,45,-1,47,-1,-1,-1,-1,-1,-1,-1,-1,-1,-1,-1,-1,-1,-1,-1,-1,-1,-1,-1,-1],"loss_changes":[1.9992963E2,5.1276917E1,2.9398544E1,6.3442535E0,1.8892618E1,1.7688976E1,6.486191E0,3.3318481E0,5.6648445E0,3.4353695E0,1.4169985E1,6.895661E0,7.793598E0,0E0,4.9086227E0,2.3819351E0,0E0,4.116169E0,0E0,0E0,3.230114E0,8.197826E0,5.935112E0,6.2106533E0,1.0127866E1,3.087944E0,8.461676E0,0E0,2.7641907E0,0E0,0E0,0E0,0E0,0E0,0E0,0E0,0E0,0E0,0E0,0E0,0E0,0E0,0E0,0E0,0E0,0E0,0E0,0E0,0E0],"parents":[2147483647,0,0,1,1,2,2,3,3,4,4,5,5,6,6,7,7,8,8,9,9,10,10,11,11,12,12,14,14,15,15,17,17,20,20,21,21,22,22,23,23,24,24,25,25,26,26,28,28],"right_children":[2,4,6,8,10,12,14,16,18,20,22,24,26,-1,28,30,-1,32,-1,-1,34,36,38,40,42,44,46,-1,48,-1,-1,-1,-1,-1,-1,-1,-1,-1,-1,-1,-1,-1,-1,-1,-1,-1,-1,-1,-1],"split_conditions":[2.1E0,-1.04E1,1.16E1,-1.56E1,-3.5714287E-1,6E-1,2.3809524E-2,1.161E2,7.1428573E-1,-9.4E0,4.2857143E-1,8.1E0,1.149E2,6.233164E-3,4.2857143E-1,4.2E0,-9.291895E-3,6.25E-1,5.825537E-3,-1.365214E-3,-8.9E0,1.182E2,-4.2857143E-1,7E-1,2.5E-2,-2.4E0,3.2E0,3.6734282E-3,4.4444445E-1,-1.953499E-2,-4.264863E-2,-2.5864087E-2,-1.8672462E-4,-7.1201604E-3,-3.1414825E-2,-1.7623222E-2,1.0831329E-3,-2.0051317E-2,1.4051268E-3,-9.015566E-3,1.3227745E-2,-1.450075E-2,3.0876849E-2,1.8736662E-3,2.3977837E-2,1.5367312E-2,-9.970288E-3,3.8242303E-2,1.9105475E-2],"split_indices":[131,131,131,131,135,39,133,42,43,95,43,131,89,0,39,83,0,39,0,0,131,0,133,43,135,46,95,0,88,0,0,0,0,0,0,0,0,0,0,0,0,0,0,0,0,0,0,0,0],"split_type":[0,0,0,0,0,0,0,0,0,0,0,0,0,0,0,0,0,0,0,0,0,0,0,0,0,0,0,0,0,0,0,0,0,0,0,0,0,0,0,0,0,0,0,0,0,0,0,0,0],"sum_hessian":[8.746463E2,5.2846375E2,3.4618256E2,1.2558007E2,4.0288367E2,2.4406956E2,1.0211298E2,5.1533752E1,7.404632E1,4.3870613E1,3.5901303E2,7.914724E1,1.6492233E2,9.313392E0,9.279959E1,4.6307304E1,5.226449E0,6.8340706E1,5.7056117E0,5.7112494E0,3.8159363E1,1.0521524E2,2.537978E2,6.1747448E1,1.7399792E1,1.0792126E2,5.7001072E1,5.129135E0,8.7670456E1,9.457501E0,3.68498E1,6.1892822E1,6.4478817E0,7.448012E0,3.0711351E1,7.7021996E1,2.819324E1,1.0675363E1,2.4312245E2,4.8665646E1,1.3081801E1,5.404069E0,1.1995723E1,6.616499E0,1.0130476E2,4.2025913E1,1.4975158E1,7.419292E1,1.3477542E1],"tree_param":{"num_deleted":"0","num_feature":"141","num_nodes":"49","size_leaf_vector":"1"}},{"base_weights":[-9.5752785E-3,-3.617166E-1,5.1524466E-1,-8.8610727E-1,-1.9386008E-1,7.641632E-1,2.555333E-1,-1.0709659E0,-4.4205168E-1,-2.8523237E-1,2.0359507E-1,-8.3821975E-3,8.280023E-1,-2.869383E-2,3.295137E-1,-1.1755182E0,-4.3217814E-1,-9.6227086E-1,9.9511415E-2,-5.674208E-1,-1.2080767E-1,4.6426305E-1,-2.4384442E-1,9.080023E-1,2.2823808E-1,5.7496125E-1,1.3996271E-2,-2.52281E-2,-4.4399466E-2,-2.7751608E-2,2.015281E-3,-1.860657E-2,-4.2843483E-2,2.201311E-2,-5.711625E-3,-2.0359656E-2,9.306732E-3,-3.4072448E-4,-1.495516E-2,-4.086529E-3,2.4701854E-2,-1.955668E-2,1.4312494E-2,1.4347729E-2,3.0802583E-2,-1.2789133E-3,2.453552E-2,-2.3120912E-3,2.0020211E-2,1.2654202E-2,-4.8013683E-3],"categories":[],"categories_nodes":[],"categories_segments":[],"categories_sizes":[],"default_left":[0,0,0,0,0,0,0,0,0,0,0,0,0,0,0,0,0,0,0,0,0,0,0,0,0,0,0,0,0,0,0,0,0,0,0,0,0,0,0,0,0,0,0,0,0,0,0,0,0,0,0],"id":4,"left_children":[1,3,5,7,9,11,13,15,17,19,21,-1,23,-1,25,27,29,31,33,35,37,39,41,43,45,47,49,-1,-1,-1,-1,-1,-1,-1,-1,-1,-1,-1,-1,-1,-1,-1,-1,-1,-1,-1,-1,-1,-1,-1,-1],"loss_changes":[1.6244934E2,4.5950127E1,2.2418541E1,9.565674E0,1.464571E1,1.2342941E1,1.611487E1,4.9860916E0,1.1513254E1,1.498197E1,9.004905E0,0E0,7.7023773E0,0E0,1.2805422E1,5.5435715E0,3.8586628E0,1.7589455E0,4.1045284E0,1.2029434E1,8.559141E0,1.067538E1,8.9143715E0,6.7061157E0,3.6568403E0,5.7562065E0,5.412747E0,0E0,0E0,0E0,0E0,0E0,0E0,0E0,0E0,0E0,0E0,0E0,0E0,0E0,0E0,0E0,0E0,0E0,0E0,0E0,0E0,0E0,0E0,0E0,0E0],"parents":[2147483647,0,0,1,1,2,2,3,3,4,4,5,5,6,6,7,7,8,8,9,9,10,10,12,12,14,14,15,15,16,16,17,17,18,18,19,19,20,20,21,21,22,22,23,23,24,24,25,25,26,26],"right_children":[2,4,6,8,10,12,14,16,18,20,22,-1,24,-1,26,28,30,32,34,36,38,40,42,44,46,48,50,-1,-1,-1,-1,-1,-1,-1,-1,-1,-1,-1,-1,-1,-1,-1,-1,-1,-1,-1,-1,-1,-1,-1,-1],"split_conditions":[2E0,-1.04E1,4.2857143E-1,3.75E-1,1.14285715E-1,-5.5E0,-1.1E0,1.16E2,-2E0,4.2857143E-1,8E-1,-8.3821975E-3,0E0,-2.869383E-2,1.14111115E2,6.8E0,8.1E0,-8.3333336E-2,5.2E0,6E0,3.5E0,-3.7E0,7.1428573E-1,6.7E0,4.8E0,3.3333334E-1,1.15E2,-2.52281E-2,-4.4399466E-2,-2.7751608E-2,2.015281E-3,-1.860657E-2,-4.2843483E-2,2.201311E-2,-5.711625E-3,-2.0359656E-2,9.306732E-3,-3.4072448E-4,-1.495516E-2,-4.086529E-3,2.4701854E-2,-1.955668E-2,1.4312494E-2,1.4347729E-2,3.0802583E-2,-1.2789133E-3,2.453552E-2,-2.3120912E-3,2.0020211E-2,1.2654202E-2,-4.8013683E-3],"split_indices":[140,131,86,41,135,37,37,0,138,39,37,0,83,0,89,83,84,135,83,95,91,37,86,140,83,43,48,0,0,0,0,0,0,0,0,0,0,0,0,0,0,0,0,0,0,0,0,0,0,0,0],"split_type":[0,0,0,0,0,0,0,0,0,0,0,0,0,0,0,0,0,0,0,0,0,0,0,0,0,0,0,0,0,0,0,0,0,0,0,0,0,0,0,0,0,0,0,0,0,0,0,0,0,0,0],"sum_hessian":[8.7607404E2,5.24682E2,3.5139206E2,1.2552439E2,3.991576E2,1.777399E2,1.7365215E2,8.697441E1,3.8549984E1,3.2509543E2,7.406214E1,9.863932E0,1.6787596E2,8.882863E0,1.6476929E2,7.352369E1,1.3450722E1,1.9162296E1,1.9387688E1,1.1810944E2,2.0698601E2,4.6904026E1,2.7158117E1,1.4729172E2,2.058425E1,9.180327E1,7.296602E1,3.7874336E1,3.5649353E1,6.226507E0,7.2242146E0,1.3189502E1,5.972794E0,5.4694796E0,1.3918207E1,1.0522684E2,1.28826065E1,1.6188455E2,4.5101444E1,1.779792E1,2.9106106E1,1.7522652E1,9.635466E0,3.3703987E1,1.1358773E2,1.4941881E1,5.642369E0,1.1289032E1,8.051424E1,2.1358505E1,5.1607517E1],"tree_param":{"num_deleted":"0","num_feature":"141","num_nodes":"51","size_leaf_vector":"1"}},{"base_weights":[1.40062105E-2,-3.9723745E-1,4.726166E-1,-8.5399187E-1,-2.1973488E-1,2.6868638E-1,8.5852265E-1,-9.871538E-1,-2.2605914E-1,-7.652163E-1,-1.390087E-1,1.508922E-1,5.8274484E-1,-9.00487E-2,9.337294E-1,-1.1107117E0,-5.270604E-1,1.12705715E-2,-6.6211194E-1,-1.2076962E0,-4.3168014E-1,-4.733054E-1,1.5320002E-2,2.0201609E-1,-2.5084997E-2,7.1169627E-1,-1.0857695E-2,-8.630276E-3,3.4055458E-3,1.0063301E0,2.2791825E-1,-4.625756E-2,-2.797581E-2,-2.3565052E-2,6.1585093E-3,-3.477616E-2,-3.7415659E-3,-1.387895E-2,-4.385077E-2,-2.151386E-2,-1.7497742E-3,-2.4523968E-2,-4.956882E-3,-1.1788077E-2,3.7982378E-3,2.8967978E-3,2.3761198E-2,2.4624897E-2,6.4248415E-3,1.2721681E-2,3.186273E-2,-9.512085E-3,1.7664192E-2],"categories":[],"categories_nodes":[],"categories_segments":[],"categories_sizes":[],"default_left":[0,0,0,0,0,0,0,0,0,0,0,0,0,0,0,0,0,0,0,0,0,0,0,0,0,0,0,0,0,0,0,0,0,0,0,0,0,0,0,0,0,0,0,0,0,0,0,0,0,0,0,0,0],"id":5,"left_children":[1,3,5,7,9,11,13,15,17,19,21,23,25,27,29,31,33,-1,35,37,39,41,43,45,-1,47,-1,-1,-1,49,51,-1,-1,-1,-1,-1,-1,-1,-1,-1,-1,-1,-1,-1,-1,-1,-1,-1,-1,-1,-1,-1,-1],"loss_changes":[1.6568195E2,3.7152977E1,3.2232155E1,1.03231125E1,1.4529745E1,9.935987E0,1.0395332E1,4.971504E0,6.864859E0,5.366989E0,1.524334E1,1.03638115E1,9.437876E0,5.394303E-1,6.322586E0,3.88546E0,5.1109624E0,0E0,3.6407552E0,2.0902023E0,2.7215948E0,9.5834465E0,9.254687E0,1.1804527E1,0E0,3.2015915E0,0E0,0E0,0E0,3.058426E0,3.1446013E0,0E0,0E0,0E0,0E0,0E0,0E0,0E0,0E0,0E0,0E0,0E0,0E0,0E0,0E0,0E0,0E0,0E0,0E0,0E0,0E0,0E0,0E0],"parents":[2147483647,0,0,1,1,2,2,3,3,4,4,5,5,6,6,7,7,8,8,9,9,10,10,11,11,12,12,13,13,14,14,15,15,16,16,18,18,19,19,20,20,21,21,22,22,23,23,25,25,29,29,30,30],"right_children":[2,4,6,8,10,12,14,16,18,20,22,24,26,28,30,32,34,-1,36,38,40,42,44,46,-1,48,-1,-1,-1,50,52,-1,-1,-1,-1,-1,-1,-1,-1,-1,-1,-1,-1,-1,-1,-1,-1,-1,-1,-1,-1,-1,-1],"split_conditions":[2E-1,-1.04E1,9.6E0,5.555556E-1,-3.5714287E-1,7.777778E-1,-4.8E0,-1.8055555E-1,-4.7E0,1.151E2,-4.7E0,8.888889E-1,8.3E0,-7E-1,6.25E-1,-1.1666667E1,5.555556E-1,1.12705715E-2,7E-1,-7.7E0,-6.5E0,4.2857143E-1,0E0,3.1428573E-1,-2.5084997E-2,1.231E2,-1.0857695E-2,-8.630276E-3,3.4055458E-3,1.031E2,-3.5E0,-4.625756E-2,-2.797581E-2,-2.3565052E-2,6.1585093E-3,-3.477616E-2,-3.7415659E-3,-1.387895E-2,-4.385077E-2,-2.151386E-2,-1.7497742E-3,-2.4523968E-2,-4.956882E-3,-1.1788077E-2,3.7982378E-3,2.8967978E-3,2.3761198E-2,2.4624897E-2,6.4248415E-3,1.2721681E-2,3.186273E-2,-9.512085E-3,1.7664192E-2],"split_indices":[140,140,140,39,135,39,134,135,46,89,134,86,140,136,86,134,43,0,39,140,140,39,132,135,0,40,0,0,0,48,84,0,0,0,0,0,0,0,0,0,0,0,0,0,0,0,0,0,0,0,0,0,0],"split_type":[0,0,0,0,0,0,0,0,0,0,0,0,0,0,0,0,0,0,0,0,0,0,0,0,0,0,0,0,0,0,0,0,0,0,0,0,0,0,0,0,0,0,0,0,0,0,0,0,0,0,0,0,0],"sum_hessian":[8.7544727E2,4.6155017E2,4.138971E2,1.2741145E2,3.341387E2,2.7263034E2,1.4126674E2,1.04280045E2,2.3131407E1,4.127546E1,2.9286325E2,2.0011293E2,7.2517426E1,1.0258036E1,1.310087E2,8.036072E1,2.3919323E1,9.710049E0,1.3421358E1,1.5921857E1,2.5353603E1,9.172414E1,2.0113911E2,1.9148921E2,8.623711E0,6.422607E1,8.291364E0,5.1397395E0,5.1182957E0,1.1808225E2,1.2926452E1,1.9976385E1,6.0384335E1,1.770054E1,6.218784E0,5.9738116E0,7.447547E0,5.2239385E0,1.0697918E1,1.3433785E1,1.1919818E1,4.2E1,4.9724136E1,4.2079E1,1.5906012E2,1.6407816E2,2.7411057E1,5.170825E1,1.2517817E1,1.1604536E1,1.06477715E2,5.111882E0,7.814569E0],"tree_param":{"num_deleted":"0","num_feature":"141","num_nodes":"53","size_leaf_vector":"1"}},{"base_weights":[-2.0349389E-2,-4.3248034E-1,4.062531E-1,-6.5474415E-1,-1.7633098E-1,2.2854277E-1,7.936139E-1,3.8944197E-1,-7.282951E-1,-6.8461233E-1,1.7124048E-2,-3.234263E-2,3.8209847E-1,1.3822432E-1,9.041373E-1,-1.0752042E-2,2.3593038E-2,-1.1643254E0,-5.640534E-1,-9.561083E-1,-1.351528E-1,-1.1532097E-1,5.0738966E-1,1.03944704E-1,-4.747734E-1,1.3118942E-2,4.8203078E-1,6.6940415E-1,-1.8415866E-2,9.649976E-1,3.8069367E-1,-1.8372307E-2,-3.8439687E-2,4.6518124E-3,-1.9634208E-2,-3.4697946E-2,-7.871631E-3,1.417815E-2,-1.6887732E-2,1.5058371E-3,-1.5284144E-2,-1.453548E-2,2.2972522E-2,-2.1739848E-2,5.6381235E-3,-2.2651924E-2,1.30181275E-2,6.800967E-3,-2.2666864E-2,3.405267E-2,1.2720144E-2,2.90092E-2,5.5483975E-3,1.6768657E-2,3.1835407E-2,-2.926079E-3,2.7712278E-2],"categories":[],"categories_nodes":[],"categories_segments":[],"categories_sizes":[],"default_left":[0,0,0,0,0,0,0,0,0,0,0,0,0,0,0,0,0,0,0,0,0,0,0,0,0,0,0,0,0,0,0,0,0,0,0,0,0,0,0,0,0,0,0,0,0,0,0,0,0,0,0,0,0,0,0,0,0],"id":6,"left_children":[1,3,5,7,9,11,13,15,17,19,21,23,25,27,29,-1,-1,31,33,35,37,39,41,43,45,47,49,51,-1,53,55,-1,-1,-1,-1,-1,-1,-1,-1,-1,-1,-1,-1,-1,-1,-1,-1,-1,-1,-1,-1,-1,-1,-1,-1,-1,-1],"loss_changes":[1.5465121E2,2.5219635E1,2.937281E1,1.8801064E1,2.0748468E1,1.2012082E1,9.495705E0,5.3948913E0,1.4863525E1,8.366238E0,1.009669E1,6.849052E0,6.883028E0,9.1707735E0,2.9848938E0,0E0,0E0,2.4844513E0,1.0968754E1,4.7612915E0,5.890434E0,8.039635E0,9.06578E0,6.1698217E0,7.3389173E0,7.0793853E0,4.726372E0,1.5391989E0,0E0,2.9345016E0,4.022272E0,0E0,0E0,0E0,0E0,0E0,0E0,0E0,0E0,0E0,0E0,0E0,0E0,0E0,0E0,0E0,0E0,0E0,0E0,0E0,0E0,0E0,0E0,0E0,0E0,0E0,0E0],"parents":[2147483647,0,0,1,1,2,2,3,3,4,4,5,5,6,6,7,7,8,8,9,9,10,10,11,11,12,12,13,13,14,14,17,17,18,18,19,19,20,20,21,21,22,22,23,23,24,24,25,25,26,26,27,27,29,29,30,30],"right_children":[2,4,6,8,10,12,14,16,18,20,22,24,26,28,30,-1,-1,32,34,36,38,40,42,44,46,48,50,52,-1,54,56,-1,-1,-1,-1,-1,-1,-1,-1,-1,-1,-1,-1,-1,-1,-1,-1,-1,-1,-1,-1,-1,-1,-1,-1,-1,-1],"split_conditions":[0E0,-3E0,9.7E0,1.054E2,-6E0,6E-1,6E-1,-5E0,3.3333334E-1,1.176E2,2.5E0,6.25E-1,2E0,4.2857143E-1,6.25E-1,-1.0752042E-2,2.3593038E-2,-3E0,4E-1,1E0,1.202E2,3.1111112E0,2E0,1.1111111E-1,2.6E0,4.8E0,1.058E2,-2.2E0,-1.8415866E-2,1.14E2,5.555556E-1,-1.8372307E-2,-3.8439687E-2,4.6518124E-3,-1.9634208E-2,-3.4697946E-2,-7.871631E-3,1.417815E-2,-1.6887732E-2,1.5058371E-3,-1.5284144E-2,-1.453548E-2,2.2972522E-2,-2.1739848E-2,5.6381235E-3,-2.2651924E-2,1.30181275E-2,6.800967E-3,-2.2666864E-2,3.405267E-2,1.2720144E-2,2.90092E-2,5.5483975E-3,1.6768657E-2,3.1835407E-2,-2.926079E-3,2.7712278E-2],"split_indices":[131,37,131,47,138,39,95,84,43,0,95,86,38,86,86,0,0,83,92,132,0,138,38,92,84,83,0,136,0,0,43,0,0,0,0,0,0,0,0,0,0,0,0,0,0,0,0,0,0,0,0,0,0,0,0,0,0],"split_type":[0,0,0,0,0,0,0,0,0,0,0,0,0,0,0,0,0,0,0,0,0,0,0,0,0,0,0,0,0,0,0,0,0,0,0,0,0,0,0,0,0,0,0,0,0,0,0,0,0,0,0,0,0,0,0,0,0],"sum_hessian":[8.7660535E2,4.4597388E2,4.3063147E2,2.3732211E2,2.0865175E2,2.9701324E2,1.3361821E2,1.51032095E1,2.222189E2,5.6613846E1,1.520379E2,1.10244606E2,1.8676865E2,1.9899206E1,1.1371901E2,5.2005267E0,9.902682E0,5.8136105E1,1.640828E2,3.702642E1,1.9587423E1,1.2044338E2,3.1594524E1,8.498669E1,2.5257917E1,4.037817E1,1.4639047E2,1.1836942E1,8.062265E0,1.0056952E2,1.3149493E1,1.1953579E1,4.6182526E1,1.8083776E1,1.4599902E2,2.7836483E1,9.189938E0,7.9299464E0,1.1657476E1,8.556666E1,3.487672E1,6.177532E0,2.5416992E1,6.659291E0,7.83274E1,1.9581652E1,5.6762657E0,3.252792E1,7.8502502E0,9.533124E0,1.3685736E2,6.279481E0,5.557461E0,2.1416193E1,7.915333E1,7.5484667E0,5.6010265E0],"tree_param":{"num_deleted":"0","num_feature":"141","num_nodes":"57","size_leaf_vector":"1"}},{"base_weights":[1.3687124E-2,-4.7414136E-1,3.850828E-1,-7.30341E-1,-2.2108604E-1,1.3691202E-1,6.376472E-1,-9.8784447E-1,-3.0197588E-1,-3.1228983E-1,2.0040822E-1,-8.7074056E-2,3.3642632E-1,2.524384E-1,7.6154E-1,-1.2254033E-3,-1.044579E0,-4.398736E-1,4.0933025E-1,-5.315605E-1,-1.20587714E-1,6.032153E-1,-2.6718295E-1,1.9334732E-1,-4.2422935E-1,4.1377887E-1,-2.9998687E-1,4.403508E-1,-1.3634714E-1,1.0553228E0,5.393292E-1,-3.6790024E-2,-2.4893815E-2,-3.0202467E-2,-5.3531975E-3,2.2781447E-2,-1.3030772E-3,-2.4234006E-2,-8.810366E-3,-1.4062747E-3,-2.425442E-2,4.898809E-4,2.4767678E-2,-1.7004946E-2,3.2930104E-3,-1.6977409E-2,8.308771E-3,-4.1683856E-3,-3.2061797E-2,1.4277197E-2,-1.0957617E-2,-2.4915013E-2,9.238795E-3,-5.8373976E-3,2.1131035E-2,-1.5358945E-2,5.0651305E-3,5.7486244E-3,3.5156157E-2,-1.2700818E-3,1.8840699E-2],"categories":[],"categories_nodes":[],"categories_segments":[],"categories_sizes":[],"default_left":[0,0,0,0,0,0,0,0,0,0,0,0,0,0,0,0,0,0,0,0,0,0,0,0,0,0,0,0,0,0,0,0,0,0,0,0,0,0,0,0,0,0,0,0,0,0,0,0,0,0,0,0,0,0,0,0,0,0,0,0,0],"id":7,"left_children":[1,3,5,7,9,11,13,15,17,19,21,23,25,27,29,-1,31,33,35,37,39,41,43,45,47,49,51,53,55,57,59,-1,-1,-1,-1,-1,-1,-1,-1,-1,-1,-1,-1,-1,-1,-1,-1,-1,-1,-1,-1,-1,-1,-1,-1,-1,-1,-1,-1,-1,-1],"loss_changes":[1.5826125E2,2.413678E1,3.088395E1,2.0021515E1,7.4959536E0,1.13444E1,1.1314316E1,6.0502243E0,7.376083E0,6.5154753E0,6.8524985E0,1.1474818E1,6.7937317E0,4.658891E0,1.1039139E1,0E0,2.5276031E0,8.725771E0,2.089251E0,4.3579216E0,4.26557E0,2.4189458E0,2.0688396E0,4.414093E0,9.776203E0,6.0914173E0,5.354536E0,7.365451E0,2.5957534E0,7.3528824E0,5.689602E0,0E0,0E0,0E0,0E0,0E0,0E0,0E0,0E0,0E0,0E0,0E0,0E0,0E0,0E0,0E0,0E0,0E0,0E0,0E0,0E0,0E0,0E0,0E0,0E0,0E0,0E0,0E0,0E0,0E0,0E0],"parents":[2147483647,0,0,1,1,2,2,3,3,4,4,5,5,6,6,7,7,8,8,9,9,10,10,11,11,12,12,13,13,14,14,16,16,17,17,18,18,19,19,20,20,21,21,22,22,23,23,24,24,25,25,26,26,27,27,28,28,29,29,30,30],"right_children":[2,4,6,8,10,12,14,16,18,20,22,24,26,28,30,-1,32,34,36,38,40,42,44,46,48,50,52,54,56,58,60,-1,-1,-1,-1,-1,-1,-1,-1,-1,-1,-1,-1,-1,-1,-1,-1,-1,-1,-1,-1,-1,-1,-1,-1,-1,-1,-1,-1,-1,-1],"split_conditions":[-1.9E0,4.4444445E-1,5.4E0,-1.8055555E-1,7.5E-1,5E-1,9.52381E-2,1.08E2,3.75E0,-7E0,2.1E0,6E-1,8E-1,1.19E2,3.75E-1,-1.2254033E-3,-1.16E1,-1.36E1,-5.266667E0,-1.8333334E0,5.4E0,4.4444445E-1,1.16E1,-1.3E1,1E0,1.12E1,7E-1,6E-1,7.1428573E-1,1.107E2,-2.9E0,-3.6790024E-2,-2.4893815E-2,-3.0202467E-2,-5.3531975E-3,2.2781447E-2,-1.3030772E-3,-2.4234006E-2,-8.810366E-3,-1.4062747E-3,-2.425442E-2,4.898809E-4,2.4767678E-2,-1.7004946E-2,3.2930104E-3,-1.6977409E-2,8.308771E-3,-4.1683856E-3,-3.2061797E-2,1.4277197E-2,-1.0957617E-2,-2.4915013E-2,9.238795E-3,-5.8373976E-3,2.1131035E-2,-1.5358945E-2,5.0651305E-3,5.7486244E-3,3.5156157E-2,-1.2700818E-3,1.8840699E-2],"split_indices":[140,39,140,135,39,41,135,48,44,140,37,86,41,40,86,0,130,130,140,44,130,45,83,83,132,130,39,39,39,40,44,0,0,0,0,0,0,0,0,0,0,0,0,0,0,0,0,0,0,0,0,0,0,0,0,0,0,0,0,0,0],"split_type":[0,0,0,0,0,0,0,0,0,0,0,0,0,0,0,0,0,0,0,0,0,0,0,0,0,0,0,0,0,0,0,0,0,0,0,0,0,0,0,0,0,0,0,0,0,0,0,0,0,0,0,0,0,0,0,0,0,0,0,0,0],"sum_hessian":[8.7055286E2,3.759967E2,4.9455615E2,1.8523537E2,1.9076134E2,2.508142E2,2.4374194E2,1.1432096E2,7.0914406E1,1.5734137E2,3.3419968E1,1.1832263E2,1.3249156E2,6.0621227E1,1.8312071E2,6.7072916E0,1.0761367E2,5.9996193E1,1.0918213E1,7.19096E1,8.543178E1,1.7834877E1,1.5585091E1,6.4783554E1,5.3539074E1,1.18741104E2,1.3750463E1,4.0907566E1,1.9713663E1,7.624464E1,1.0687608E2,5.4210125E1,5.3403545E1,1.7465769E1,4.2530426E1,5.709235E0,5.208977E0,3.1414948E1,4.049465E1,7.8741714E1,6.6900625E0,5.4668074E0,1.2368069E1,8.409679E0,7.1754107E0,5.4494724E0,5.9334084E1,3.8483227E1,1.5055846E1,1.1063038E2,8.110727E0,7.1374626E0,6.613E0,1.2018998E1,2.8888569E1,8.528377E0,1.1185286E1,9.638861E0,6.6605774E1,1.4095153E1,9.278093E1],"tree_param":{"num_deleted":"0","num_feature":"141","num_nodes":"61","size_leaf_vector":"1"}},{"base_weights":[1.7650746E-2,-3.7942204E-1,4.6915612E-1,-8.084128E-1,-2.1972208E-1,3.1830212E-1,8.624783E-1,-1.2945145E0,-6.534788E-1,-1.0362531E0,-1.6585389E-1,-3.7717974E-1,3.632769E-1,9.8287904E-1,4.289249E-1,-6.810628E-3,-4.535497E-2,-1.0197814E0,-3.8500133E-1,-1.2471334E0,-8.937731E-3,-3.9810398E-1,-1.349389E-2,1.352982E-2,-7.434513E-1,3.9301515E-1,-1.5669708E-1,6.2733633E-3,1.0774642E0,1.4247772E-1,3.8820002E-2,-3.5255633E-2,-7.77601E-3,-1.6782243E-2,2.1711863E-3,-4.425411E-2,-1.796834E-2,-1.5030293E-2,8.0836914E-4,-1.6193308E-2,4.0514627E-3,-8.774432E-3,-3.2518327E-2,1.559353E-2,7.6541686E-3,-1.8276138E-2,1.606809E-2,1.435322E-2,3.387741E-2,-8.466925E-3,1.463821E-2],"categories":[],"categories_nodes":[],"categories_segments":[],"categories_sizes":[],"default_left":[0,0,0,0,0,0,0,0,0,0,0,0,0,0,0,0,0,0,0,0,0,0,0,0,0,0,0,0,0,0,0,0,0,0,0,0,0,0,0,0,0,0,0,0,0,0,0,0,0,0,0],"id":8,"left_children":[1,3,5,7,9,11,13,15,17,19,21,23,25,27,29,-1,-1,31,33,35,-1,37,39,-1,41,43,45,-1,47,49,-1,-1,-1,-1,-1,-1,-1,-1,-1,-1,-1,-1,-1,-1,-1,-1,-1,-1,-1,-1,-1],"loss_changes":[1.584653E2,3.184333E1,2.4014755E1,8.087807E0,1.4790943E1,9.636473E0,5.157097E0,6.031254E0,9.041668E0,2.5489273E0,1.1466095E1,6.270397E0,4.509636E0,5.942955E0,6.4030952E0,0E0,0E0,4.240486E0,4.8876944E0,7.8964424E-1,0E0,5.6926765E0,1.5653763E1,0E0,1.5006475E0,4.431843E0,5.591111E0,0E0,1.4347153E0,3.522265E0,0E0,0E0,0E0,0E0,0E0,0E0,0E0,0E0,0E0,0E0,0E0,0E0,0E0,0E0,0E0,0E0,0E0,0E0,0E0,0E0,0E0],"parents":[2147483647,0,0,1,1,2,2,3,3,4,4,5,5,6,6,7,7,8,8,9,9,10,10,11,11,12,12,13,13,14,14,17,17,18,18,19,19,21,21,22,22,24,24,25,25,26,26,28,28,29,29],"right_children":[2,4,6,8,10,12,14,16,18,20,22,24,26,28,30,-1,-1,32,34,36,-1,38,40,-1,42,44,46,-1,48,50,-1,-1,-1,-1,-1,-1,-1,-1,-1,-1,-1,-1,-1,-1,-1,-1,-1,-1,-1,-1,-1],"split_conditions":[3E-1,-1.04E1,1.11E1,-1.1666667E1,1.25E-1,-9.1E0,-4.5E0,4.2857143E-1,1.162E2,-2E0,-3E0,1.094E2,8.888889E-1,1.031E2,5.555556E-1,-6.810628E-3,-4.535497E-2,3E0,-1.18E1,-1.6666667E-1,-8.937731E-3,3.5E0,2E0,1.352982E-2,5.555556E-1,1.16E2,8.1E0,6.2733633E-3,1.18E1,-3.4E0,3.8820002E-2,-3.5255633E-2,-7.77601E-3,-1.6782243E-2,2.1711863E-3,-4.425411E-2,-1.796834E-2,-1.5030293E-2,8.0836914E-4,-1.6193308E-2,4.0514627E-3,-8.774432E-3,-3.2518327E-2,1.559353E-2,7.6541686E-3,-1.8276138E-2,1.606809E-2,1.435322E-2,3.387741E-2,-8.466925E-3,1.463821E-2],"split_indices":[140,131,140,134,43,136,84,88,48,130,37,1,86,48,92,0,0,85,130,139,0,44,38,0,86,1,37,0,131,83,0,0,0,0,0,0,0,0,0,0,0,0,0,0,0,0,0,0,0,0,0],"split_type":[0,0,0,0,0,0,0,0,0,0,0,0,0,0,0,0,0,0,0,0,0,0,0,0,0,0,0,0,0,0,0,0,0,0,0,0,0,0,0,0,0,0,0,0,0,0,0,0,0,0,0],"sum_hessian":[8.808565E2,4.686894E2,4.1216714E2,1.2532321E2,3.4336618E2,3.0005338E2,1.1211374E2,2.746719E1,9.7856026E1,1.9442728E1,3.2392346E2,1.7416992E1,2.8263638E2,8.607808E1,2.6035662E1,5.2424946E0,2.2224695E1,3.9454903E1,5.8401123E1,1.4213854E1,5.228874E0,1.2710109E2,1.9682237E2,5.1507297E0,1.2266262E1,2.6787473E2,1.4761684E1,1.0015822E1,7.6062256E1,2.095846E1,5.077202E0,3.1972858E1,7.482043E0,4.2195187E1,1.6205935E1,8.985284E0,5.2285705E0,1.0230094E2,2.4800152E1,4.26031E1,1.5421927E2,6.6030083E0,5.6632543E0,1.3701611E2,1.308586E2,9.123069E0,5.6386156E0,7.4277887E0,6.863447E1,9.394291E0,1.1564169E1],"tree_param":{"num_deleted":"0","num_feature":"141","num_nodes":"51","size_leaf_vector":"1"}},{"base_weights":[-5.05111E-3,-3.6008546E-1,4.0186572E-1,-7.5232214E-1,-2.0080575E-1,2.4196908E-1,8.319333E-1,-1.0630505E0,-4.4343922E-1,-4.1880587E-1,-1.5742615E-2,-3.3303595E-1,2.8652972E-1,-9.79876E-3,9.1697836E-1,-1.36115E0,-7.5503254E-1,-1.4338253E-2,-6.1371905E-1,-5.2943844E-1,3.6145183E-1,2.833223E-1,-1.3770308E-1,-6.261121E-1,1.0078895E-2,4.2091763E-1,5.6569174E-2,9.8531324E-1,-6.1774245E-3,-2.2132976E-2,-4.447204E-2,-2.9610178E-2,-7.5296983E-3,-1.215709E-2,2.1741131E-2,1.733706E-3,-2.4368364E-2,-2.3598894E-2,-9.6226465E-3,1.9110767E-2,-9.149632E-3,1.2019903E-2,-8.936077E-3,-1.6591059E-2,2.3755974E-3,8.265784E-4,-2.8537197E-2,3.2176378E-3,1.709619E-2,-1.107871E-2,8.127283E-3,-0E0,3.1307813E-2],"categories":[],"categories_nodes":[],"categories_segments":[],"categories_sizes":[],"default_left":[0,0,0,0,0,0,0,0,0,0,0,0,0,0,0,0,0,0,0,0,0,0,0,0,0,0,0,0,0,0,0,0,0,0,0,0,0,0,0,0,0,0,0,0,0,0,0,0,0,0,0,0,0],"id":9,"left_children":[1,3,5,7,9,11,13,15,17,19,21,23,25,-1,27,29,31,33,35,37,39,41,43,45,-1,47,49,51,-1,-1,-1,-1,-1,-1,-1,-1,-1,-1,-1,-1,-1,-1,-1,-1,-1,-1,-1,-1,-1,-1,-1,-1,-1],"loss_changes":[1.2672993E2,2.895435E1,2.7690681E1,1.2061691E1,1.3481917E1,7.829487E0,1.134314E1,4.2948456E0,5.0561647E0,1.3574499E1,6.728334E0,4.6817293E0,8.555542E0,0E0,8.279587E0,5.138855E-1,3.7055511E0,6.665102E0,6.823513E0,6.776005E0,3.9738643E0,3.8269572E0,1.1951885E1,3.534194E0,0E0,8.060295E0,9.735062E0,5.5368576E0,0E0,0E0,0E0,0E0,0E0,0E0,0E0,0E0,0E0,0E0,0E0,0E0,0E0,0E0,0E0,0E0,0E0,0E0,0E0,0E0,0E0,0E0,0E0,0E0,0E0],"parents":[2147483647,0,0,1,1,2,2,3,3,4,4,5,5,6,6,7,7,8,8,9,9,10,10,11,11,12,12,14,14,15,15,16,16,17,17,18,18,19,19,20,20,21,21,22,22,23,23,25,25,26,26,27,27],"right_children":[2,4,6,8,10,12,14,16,18,20,22,24,26,-1,28,30,32,34,36,38,40,42,44,46,-1,48,50,52,-1,-1,-1,-1,-1,-1,-1,-1,-1,-1,-1,-1,-1,-1,-1,-1,-1,-1,-1,-1,-1,-1,-1,-1,-1],"split_conditions":[2E-1,-1.24E1,1.11E1,1.13E2,-1.9444445E-1,-8.9E0,-9.7222224E-2,-1.53E1,1.14111115E2,6.4E0,-5.4E0,7.1428573E-1,5.6E0,-9.79876E-3,1.187E2,5.8E0,4.2E0,4.2857143E-1,1.146E2,3.75E-1,1.116E2,5.8E0,3.3333334E-1,1.4E0,1.0078895E-2,6E-1,3.4E0,4.2857143E-1,-6.1774245E-3,-2.2132976E-2,-4.447204E-2,-2.9610178E-2,-7.5296983E-3,-1.215709E-2,2.1741131E-2,1.733706E-3,-2.4368364E-2,-2.3598894E-2,-9.6226465E-3,1.9110767E-2,-9.149632E-3,1.2019903E-2,-8.936077E-3,-1.6591059E-2,2.3755974E-3,8.265784E-4,-2.8537197E-2,3.2176378E-3,1.709619E-2,-1.107871E-2,8.127283E-3,-0E0,3.1307813E-2],"split_indices":[140,130,140,40,133,136,133,131,89,94,95,39,94,0,48,83,93,41,40,39,47,36,41,130,0,39,140,39,0,0,0,0,0,0,0,0,0,0,0,0,0,0,0,0,0,0,0,0,0,0,0,0,0],"split_type":[0,0,0,0,0,0,0,0,0,0,0,0,0,0,0,0,0,0,0,0,0,0,0,0,0,0,0,0,0,0,0,0,0,0,0,0,0,0,0,0,0,0,0,0,0,0,0,0,0,0,0,0,0],"sum_hessian":[8.742356E2,4.6710532E2,4.071303E2,1.3310727E2,3.3399805E2,2.986649E2,1.08465416E2,6.436826E1,6.8739E1,1.5223444E2,1.817636E2,2.0620876E1,2.7804404E2,7.0457096E0,1.0141971E2,2.9939552E1,3.442871E1,2.0157124E1,4.858188E1,1.3386421E2,1.837023E1,5.1839935E1,1.2992366E2,1.4509965E1,6.1109114E0,1.744284E2,1.0361562E2,9.585894E1,5.5607643E0,6.739857E0,2.3199694E1,2.245752E1,1.1971193E1,1.3715484E1,6.4416404E0,1.1214697E1,3.736718E1,5.788751E1,7.59767E1,1.314925E1,5.2209797E0,4.366256E1,8.177378E0,4.393217E1,8.599149E1,5.1736774E0,9.3362875E0,5.7209904E1,1.172185E2,3.4171486E1,6.944414E1,5.486638E0,9.037231E1],"tree_param":{"num_deleted":"0","num_feature":"141","num_nodes":"53","size_leaf_vector":"1"}},{"base_weights":[1.0983204E-2,-2.7791482E-1,4.605784E-1,-5.3597814E-1,-6.803954E-2,2.6905957E-1,7.857562E-1,-8.2560974E-1,-1.946524E-1,7.506347E-2,-3.991548E-1,-7.262611E-3,4.036167E-1,-7.0186625E-3,8.5436624E-1,-8.8050175E-1,-2.196514E-3,-4.6168253E-1,9.265808E-2,-2.9925108E-1,1.8716744E-1,4.667964E-1,-5.266766E-1,-1.2529774E-1,1.9469656E-2,5.713789E-1,7.286823E-2,2.6751715E-3,9.016816E-1,-2.8884057E-2,-1.22591E-2,-2.0737095E-2,5.0354046E-3,1.1243363E-2,-1.1021449E-2,-1.8740582E-4,-2.7928911E-2,-4.6208673E-3,1.0893598E-2,-4.2354554E-4,2.5379376E-2,-2.0216316E-2,-2.4916409E-3,1.383689E-3,-2.079069E-2,2.4554366E-2,8.029644E-3,2.8461857E-2,-4.1338024E-3,2.8458295E-2,7.0620747E-3],"categories":[],"categories_nodes":[],"categories_segments":[],"categories_sizes":[],"default_left":[0,0,0,0,0,0,0,0,0,0,0,0,0,0,0,0,0,0,0,0,0,0,0,0,0,0,0,0,0,0,0,0,0,0,0,0,0,0,0,0,0,0,0,0,0,0,0,0,0,0,0],"id":10,"left_children":[1,3,5,7,9,11,13,15,17,19,21,23,25,-1,27,29,-1,31,33,35,37,39,41,43,-1,45,47,-1,49,-1,-1,-1,-1,-1,-1,-1,-1,-1,-1,-1,-1,-1,-1,-1,-1,-1,-1,-1,-1,-1,-1],"loss_changes":[1.13318565E2,2.8642052E1,2.0836739E1,2.3156357E1,1.404359E1,8.123804E0,9.146042E0,5.093132E0,8.635253E0,8.752888E0,1.0246264E1,5.6774154E0,7.9971523E0,0E0,4.054512E0,3.8943481E0,0E0,8.62022E0,7.3004656E0,8.790436E0,9.728909E0,2.3201823E0,4.981165E0,6.2190413E0,0E0,6.8217335E0,9.722585E0,0E0,3.013939E0,0E0,0E0,0E0,0E0,0E0,0E0,0E0,0E0,0E0,0E0,0E0,0E0,0E0,0E0,0E0,0E0,0E0,0E0,0E0,0E0,0E0,0E0],"parents":[2147483647,0,0,1,1,2,2,3,3,4,4,5,5,6,6,7,7,8,8,9,9,10,10,11,11,12,12,14,14,15,15,17,17,18,18,19,19,20,20,21,21,22,22,23,23,25,25,26,26,28,28],"right_children":[2,4,6,8,10,12,14,16,18,20,22,24,26,-1,28,30,-1,32,34,36,38,40,42,44,-1,46,48,-1,50,-1,-1,-1,-1,-1,-1,-1,-1,-1,-1,-1,-1,-1,-1,-1,-1,-1,-1,-1,-1,-1,-1],"split_conditions":[2.1E0,-1.8055555E-1,1.02E1,4.4444445E-1,1.3333334E0,6E-1,-4.8E0,6E0,1.169E2,2E0,-6.4E0,8.1E0,4.7E0,-7.0186625E-3,3E-1,5.555556E-1,-2.196514E-3,1.7E0,8.9E0,1E0,-3E0,-8.6E0,-1.3E0,7.8E0,1.9469656E-2,1.149E2,1.071E2,2.6751715E-3,1.173E2,-2.8884057E-2,-1.22591E-2,-2.0737095E-2,5.0354046E-3,1.1243363E-2,-1.1021449E-2,-1.8740582E-4,-2.7928911E-2,-4.6208673E-3,1.0893598E-2,-4.2354554E-4,2.5379376E-2,-2.0216316E-2,-2.4916409E-3,1.383689E-3,-2.079069E-2,2.4554366E-2,8.029644E-3,2.8461857E-2,-4.1338024E-3,2.8458295E-2,7.0620747E-3],"split_indices":[131,135,131,39,91,39,134,134,89,38,83,131,95,0,43,43,0,136,93,95,37,37,131,95,0,89,48,0,48,0,0,0,0,0,0,0,0,0,0,0,0,0,0,0,0,0,0,0,0,0,0],"split_type":[0,0,0,0,0,0,0,0,0,0,0,0,0,0,0,0,0,0,0,0,0,0,0,0,0,0,0,0,0,0,0,0,0,0,0,0,0,0,0,0,0,0,0,0,0,0,0,0,0,0,0],"sum_hessian":[8.6931964E2,5.294557E2,3.3986392E2,2.3620729E2,2.932484E2,2.1580853E2,1.24055374E2,1.26470055E2,1.09737236E2,2.0535503E2,8.789339E1,7.0895546E1,1.4491298E2,7.5009394E0,1.16554436E2,1.17508705E2,8.961351E0,5.6584522E1,5.315271E1,4.654509E1,1.5880994E2,1.0669045E1,7.722434E1,6.1245712E1,9.649836E0,9.522124E1,4.9691746E1,7.16244E0,1.09392E2,9.854795E1,1.8960758E1,4.1473347E1,1.5111178E1,3.3254604E1,1.9898108E1,3.2939877E1,1.3605211E1,5.390303E1,1.049069E2,5.223962E0,5.445084E0,5.7230427E1,1.999392E1,4.7965008E1,1.3280705E1,5.0921608E1,4.429963E1,8.707643E0,4.0984104E1,1.0146012E2,7.931875E0],"tree_param":{"num_deleted":"0","num_feature":"141","num_nodes":"51","size_leaf_vector":"1"}},{"base_weights":[-1.9406917E-2,-4.0783328E-1,3.4645712E-1,-1.9250973E-1,-6.548094E-1,1.9442995E-1,7.104307E-1,-3.620614E-1,1.09260306E-1,8.215073E-2,-7.3693216E-1,-8.449136E-3,3.4147847E-1,-4.2517725E-3,7.725123E-1,-6.011758E-1,-1.17095016E-1,5.225444E-1,-2.2097878E-1,-4.1739628E-1,2.2504715E-2,-9.499886E-1,-4.412915E-1,-1.489946E-1,6.3775045E-1,6.8592656E-1,2.2786339E-1,-1.3015827E-3,8.2455933E-1,-2.8203266E-2,-6.463208E-3,6.8012793E-3,-1.0424673E-2,-8.8373595E-4,2.0332493E-2,3.6730908E-4,-2.2934427E-2,5.0028665E-3,-2.7237691E-2,-3.563914E-2,-2.0502102E-2,-2.8864438E-2,-5.5249278E-3,-1.0198764E-2,3.6075665E-3,2.691141E-2,3.3264258E-3,-0E0,2.3680473E-2,-5.8520683E-3,9.447614E-3,2.6470868E-2,4.2593945E-3],"categories":[],"categories_nodes":[],"categories_segments":[],"categories_sizes":[],"default_left":[0,0,0,0,0,0,0,0,0,0,0,0,0,0,0,0,0,0,0,0,0,0,0,0,0,0,0,0,0,0,0,0,0,0,0,0,0,0,0,0,0,0,0,0,0,0,0,0,0,0,0,0,0],"id":11,"left_children":[1,3,5,7,9,11,13,15,17,19,21,23,25,-1,27,29,31,33,35,37,-1,39,41,43,45,47,49,-1,51,-1,-1,-1,-1,-1,-1,-1,-1,-1,-1,-1,-1,-1,-1,-1,-1,-1,-1,-1,-1,-1,-1,-1,-1],"loss_changes":[1.22423805E2,2.1951355E1,2.4243141E1,1.1628135E1,1.1886185E1,9.4379E0,7.099922E0,8.316555E0,1.1408661E1,7.3970923E0,1.0233231E1,1.2226286E1,6.8360386E0,0E0,5.2882767E0,9.100004E0,5.9679027E0,3.2686148E0,5.990423E0,3.9398882E0,0E0,4.9397736E0,9.817826E0,5.7940025E0,3.0317278E0,3.15028E0,5.2617407E0,0E0,4.2208786E0,0E0,0E0,0E0,0E0,0E0,0E0,0E0,0E0,0E0,0E0,0E0,0E0,0E0,0E0,0E0,0E0,0E0,0E0,0E0,0E0,0E0,0E0,0E0,0E0],"parents":[2147483647,0,0,1,1,2,2,3,3,4,4,5,5,6,6,7,7,8,8,9,9,10,10,11,11,12,12,14,14,15,15,16,16,17,17,18,18,19,19,21,21,22,22,23,23,24,24,25,25,26,26,28,28],"right_children":[2,4,6,8,10,12,14,16,18,20,22,24,26,-1,28,30,32,34,36,38,-1,40,42,44,46,48,50,-1,52,-1,-1,-1,-1,-1,-1,-1,-1,-1,-1,-1,-1,-1,-1,-1,-1,-1,-1,-1,-1,-1,-1,-1,-1],"split_conditions":[-9E-1,3E-1,9.7E0,5E-1,1.078E2,4.2857143E-1,-9.7222224E-2,4.4444445E-1,1.16E2,1.127E2,-3.6E0,3.0357143E-1,-5.8E0,-4.2517725E-3,1.019E2,-9E0,1.121E2,-3.9E0,9.333333E0,1.044E2,2.2504715E-2,3E-1,1.126E2,8E-1,1.149E2,1.038E2,1.103E2,-1.3015827E-3,1.20333336E2,-2.8203266E-2,-6.463208E-3,6.8012793E-3,-1.0424673E-2,-8.8373595E-4,2.0332493E-2,3.6730908E-4,-2.2934427E-2,5.0028665E-3,-2.7237691E-2,-3.563914E-2,-2.0502102E-2,-2.8864438E-2,-5.5249278E-3,-1.0198764E-2,3.6075665E-3,2.691141E-2,3.3264258E-3,-0E0,2.3680473E-2,-5.8520683E-3,9.447614E-3,2.6470868E-2,4.2593945E-3],"split_indices":[140,91,140,41,47,41,133,39,47,87,37,133,83,0,48,130,1,95,138,47,0,43,40,37,87,47,87,0,87,0,0,0,0,0,0,0,0,0,0,0,0,0,0,0,0,0,0,0,0,0,0,0,0],"split_type":[0,0,0,0,0,0,0,0,0,0,0,0,0,0,0,0,0,0,0,0,0,0,0,0,0,0,0,0,0,0,0,0,0,0,0,0,0,0,0,0,0,0,0,0,0,0,0,0,0,0,0,0,0],"sum_hessian":[8.5843005E2,4.1642545E2,4.4200458E2,2.2411082E2,1.9231462E2,3.1359564E2,1.2840894E2,1.4351024E2,8.060059E1,1.9159678E1,1.7315494E2,1.3208925E2,1.8150641E2,8.479597E0,1.1992933E2,7.131222E1,7.219802E1,3.5545643E1,4.5054947E1,1.1198377E1,7.961301E0,9.850679E1,7.464815E1,1.0956767E2,2.2521574E1,4.2927258E1,1.3857915E2,7.0914054E0,1.1283793E2,3.6673447E1,3.463877E1,2.8804544E1,4.3393475E1,7.92624E0,2.7619402E1,3.2423782E1,1.2631165E1,5.4702063E0,5.7281704E0,4.910809E1,4.9398697E1,2.3183702E1,5.1464447E1,6.408947E1,4.5478203E1,1.425992E1,8.261654E0,5.8232284E0,3.710403E1,2.3142199E1,1.1543695E2,1.0348865E2,9.349278E0],"tree_param":{"num_deleted":"0","num_feature":"141","num_nodes":"53","size_leaf_vector":"1"}},{"base_weights":[1.1730222E-2,-2.7934802E-1,4.0099835E-1,-6.017727E-1,-9.1716796E-2,4.6600568E-1,-4.1801795E-1,-8.359616E-1,-3.4031928E-1,-5.9395057E-1,-1.0950615E-2,2.9713082E-1,6.889417E-1,-8.6102563E-1,-5.776302E-3,-1.0115709E0,-9.307039E-3,-8.595563E-1,-1.5679137E-1,-7.785022E-1,1.4503201E-2,-7.768694E-2,5.930894E-1,1.1771567E-1,4.9943036E-1,-2.4305466E-3,7.4518466E-1,-5.743378E-3,-3.7245948E-2,-1.5570536E-2,1.086475E-2,-5.142671E-4,-3.2437336E-2,1.6029846E-2,-1.1031303E-2,-3.5023727E-2,-1.3736285E-2,-3.35969E-2,-3.4824482E-4,3.266685E-3,-2.8068699E-2,9.90287E-3,-4.728019E-3,2.6294779E-2,-1.5961805E-3,9.0304855E-3,-5.705789E-3,2.0225013E-2,2.3877632E-3,-0E0,2.369235E-2],"categories":[],"categories_nodes":[],"categories_segments":[],"categories_sizes":[],"default_left":[0,0,0,0,0,0,0,0,0,0,0,0,0,0,0,0,0,0,0,0,0,0,0,0,0,0,0,0,0,0,0,0,0,0,0,0,0,0,0,0,0,0,0,0,0,0,0,0,0,0,0],"id":12,"left_children":[1,3,5,7,9,11,13,15,17,19,21,23,25,27,29,31,33,35,37,39,-1,41,43,45,47,-1,49,-1,-1,-1,-1,-1,-1,-1,-1,-1,-1,-1,-1,-1,-1,-1,-1,-1,-1,-1,-1,-1,-1,-1,-1],"loss_changes":[9.808774E1,2.9802002E1,2.0020657E1,1.057959E1,1.27055645E1,1.25466E1,5.0046177E0,1.36171875E1,8.136731E0,9.230051E0,1.10236E1,7.0600014E0,6.5180054E0,2.8964577E0,3.335828E0,5.260681E0,3.8220901E0,1.8374386E0,9.294334E0,5.4968376E0,0E0,8.120853E0,5.1321373E0,6.1642966E0,6.6405277E0,0E0,4.5883255E0,0E0,0E0,0E0,0E0,0E0,0E0,0E0,0E0,0E0,0E0,0E0,0E0,0E0,0E0,0E0,0E0,0E0,0E0,0E0,0E0,0E0,0E0,0E0,0E0],"parents":[2147483647,0,0,1,1,2,2,3,3,4,4,5,5,6,6,7,7,8,8,9,9,10,10,11,11,12,12,13,13,14,14,15,15,16,16,17,17,18,18,19,19,21,21,22,22,23,23,24,24,26,26],"right_children":[2,4,6,8,10,12,14,16,18,20,22,24,26,28,30,32,34,36,38,40,-1,42,44,46,48,-1,50,-1,-1,-1,-1,-1,-1,-1,-1,-1,-1,-1,-1,-1,-1,-1,-1,-1,-1,-1,-1,-1,-1,-1,-1],"split_conditions":[2.3809524E-2,-8E0,9.4E0,1.132E2,-9.8E0,9E0,6.25E-1,-1.9444445E-1,0E0,2.8E0,1.06E1,1.3E0,-3E0,-7E-1,1.138E2,1.111E2,-6.7E0,2E0,1.125E2,1.107E2,1.4503201E-2,3.3333334E-1,1.204E2,1.14666664E2,6E0,-2.4305466E-3,3E-1,-5.743378E-3,-3.7245948E-2,-1.5570536E-2,1.086475E-2,-5.142671E-4,-3.2437336E-2,1.6029846E-2,-1.1031303E-2,-3.5023727E-2,-1.3736285E-2,-3.35969E-2,-3.4824482E-4,3.266685E-3,-2.8068699E-2,9.90287E-3,-4.728019E-3,2.6294779E-2,-1.5961805E-3,9.0304855E-3,-5.705789E-3,2.0225013E-2,2.3877632E-3,-0E0,2.369235E-2],"split_indices":[133,130,83,40,134,130,92,133,132,44,36,136,46,136,42,87,134,38,87,89,0,92,40,1,94,0,43,0,0,0,0,0,0,0,0,0,0,0,0,0,0,0,0,0,0,0,0,0,0,0,0],"split_type":[0,0,0,0,0,0,0,0,0,0,0,0,0,0,0,0,0,0,0,0,0,0,0,0,0,0,0,0,0,0,0,0,0,0,0,0,0,0,0,0,0,0,0,0,0,0,0,0,0,0,0],"sum_hessian":[8.625872E2,4.9363474E2,3.6895248E2,1.8017645E2,3.1345825E2,3.425334E2,2.6419088E1,9.310341E1,8.7073044E1,4.193319E1,2.715251E2,1.9714392E2,1.4538947E2,1.1830319E1,1.4588769E1,7.6414E1,1.6689415E1,2.1154001E1,6.5919044E1,3.623522E1,5.697968E0,2.4583685E2,2.5688229E1,1.06001015E2,9.11429E1,9.731237E0,1.3565823E2,5.199038E0,6.6312814E0,5.9478326E0,8.640937E0,5.2196765E0,7.119432E1,6.227728E0,1.0461686E1,1.0215144E1,1.0938856E1,7.225798E0,5.869325E1,5.424219E0,3.0811005E1,3.930818E1,2.0652866E2,1.7593754E1,8.094476E0,6.667011E1,3.9330906E1,6.3547546E1,2.7595352E1,7.684643E0,1.27973595E2],"tree_param":{"num_deleted":"0","num_feature":"141","num_nodes":"51","size_leaf_vector":"1"}},{"base_weights":[-1.0246991E-4,-2.7878684E-1,4.3945903E-1,-6.6768616E-1,-1.2223295E-1,2.48776E-1,7.3798263E-1,-8.877697E-1,-3.5708752E-1,-4.8359635E-1,-1.820179E-2,-5.372418E-2,4.0560788E-1,7.900711E-1,-4.2765755E-3,-9.440876E-1,-4.6973722E-4,2.2615525E-1,-6.003719E-1,-9.291306E-1,-2.5520438E-1,-3.075265E-1,1.6594651E-1,2.3115635E-1,-4.0622184E-1,4.673173E-1,-1.3868339E-2,8.576833E-1,1.7879815E-1,-5.0329417E-3,-3.0163808E-2,-2.7307323E-3,2.2552272E-2,-2.3774559E-2,-2.2917164E-3,-9.234091E-3,-3.6047213E-2,2.161761E-2,-1.1803533E-2,-1.2348125E-2,1.772532E-2,1.3326548E-2,1.374269E-3,-1.815645E-2,1.3584017E-2,5.9783543E-3,-1.833228E-2,1.6018156E-2,-1.5347029E-2,1.6471252E-2,2.8764557E-2,-1.5285712E-2,2.391176E-2],"categories":[],"categories_nodes":[],"categories_segments":[],"categories_sizes":[],"default_left":[0,0,0,0,0,0,0,0,0,0,0,0,0,0,0,0,0,0,0,0,0,0,0,0,0,0,0,0,0,0,0,0,0,0,0,0,0,0,0,0,0,0,0,0,0,0,0,0,0,0,0,0,0],"id":13,"left_children":[1,3,5,7,9,11,13,15,17,19,21,23,25,27,-1,29,-1,31,33,35,37,39,41,43,45,47,-1,49,51,-1,-1,-1,-1,-1,-1,-1,-1,-1,-1,-1,-1,-1,-1,-1,-1,-1,-1,-1,-1,-1,-1,-1,-1],"loss_changes":[1.06644905E2,3.2250034E1,1.884909E1,9.821953E0,1.4298853E1,9.961353E0,6.226631E0,4.205757E0,9.595665E0,8.188032E0,1.5990057E1,7.419666E0,7.7009373E0,4.778824E0,0E0,3.5633392E0,0E0,3.5651317E0,4.5588226E0,4.056486E0,8.283337E0,1.12678175E1,6.042253E0,7.957238E0,4.3196354E0,8.853371E0,0E0,2.5193558E0,6.7499127E0,0E0,0E0,0E0,0E0,0E0,0E0,0E0,0E0,0E0,0E0,0E0,0E0,0E0,0E0,0E0,0E0,0E0,0E0,0E0,0E0,0E0,0E0,0E0,0E0],"parents":[2147483647,0,0,1,1,2,2,3,3,4,4,5,5,6,6,7,7,8,8,9,9,10,10,11,11,12,12,13,13,15,15,17,17,18,18,19,19,20,20,21,21,22,22,23,23,24,24,25,25,27,27,28,28],"right_children":[2,4,6,8,10,12,14,16,18,20,22,24,26,28,-1,30,-1,32,34,36,38,40,42,44,46,48,-1,50,52,-1,-1,-1,-1,-1,-1,-1,-1,-1,-1,-1,-1,-1,-1,-1,-1,-1,-1,-1,-1,-1,-1,-1,-1],"split_conditions":[2.1E0,-1.14E1,9.7E0,4.2857143E-1,2E0,6E-1,1.189E2,1.187E2,1.138E2,-2.2E0,-1.8055555E-1,4.2857143E-1,1.254E2,1.52E1,-4.2765755E-3,-2.02E1,-4.6973722E-4,3E0,1E0,1.122E2,-3E-1,1.18E2,1.10333336E2,1.063E2,1.098E2,9.2E0,-1.3868339E-2,1.13333336E2,1.1111111E-1,-5.0329417E-3,-3.0163808E-2,-2.7307323E-3,2.2552272E-2,-2.3774559E-2,-2.2917164E-3,-9.234091E-3,-3.6047213E-2,2.161761E-2,-1.1803533E-2,-1.2348125E-2,1.772532E-2,1.3326548E-2,1.374269E-3,-1.815645E-2,1.3584017E-2,5.9783543E-3,-1.833228E-2,1.6018156E-2,-1.5347029E-2,1.6471252E-2,2.8764557E-2,-1.5285712E-2,2.391176E-2],"split_indices":[131,130,140,39,38,39,89,42,89,44,135,86,0,36,0,36,0,38,132,47,44,42,0,89,47,131,0,0,137,0,0,0,0,0,0,0,0,0,0,0,0,0,0,0,0,0,0,0,0,0,0,0,0],"split_type":[0,0,0,0,0,0,0,0,0,0,0,0,0,0,0,0,0,0,0,0,0,0,0,0,0,0,0,0,0,0,0,0,0,0,0,0,0,0,0,0,0,0,0,0,0,0,0,0,0,0,0,0,0],"sum_hessian":[8.677094E2,5.3150714E2,3.3620227E2,1.5096217E2,3.8054495E2,2.0703986E2,1.2916241E2,8.653558E1,6.442659E1,8.362622E1,2.9691873E2,7.080958E1,1.3623027E2,1.2220121E2,6.9611964E0,8.10624E1,5.4731827E0,1.8873762E1,4.5552826E1,2.6632662E1,5.6993557E1,1.15301216E2,1.8161752E2,3.928943E1,3.1520155E1,1.2794081E2,8.289458E0,1.0933909E2,1.2862126E1,6.4686017E0,7.45938E1,1.2425325E1,6.4484377E0,3.2629868E1,1.2922959E1,9.203989E0,1.7428673E1,6.1987653E0,5.0794792E1,1.0415836E2,1.1142854E1,5.3294346E1,1.2832318E2,7.592438E0,3.169699E1,7.855078E0,2.3665077E1,1.2052225E2,7.4185605E0,2.960955E1,7.972954E1,6.1345153E0,6.727611E0],"tree_param":{"num_deleted":"0","num_feature":"141","num_nodes":"53","size_leaf_vector":"1"}},{"base_weights":[-9.712156E-3,-3.774365E-1,3.084417E-1,-7.74663E-1,-2.5302133E-1,2.1838509E-1,8.710539E-1,-8.6453015E-1,-1.1083572E-1,-7.5891726E-2,-5.712186E-1,4.233202E-1,8.250826E-2,5.149984E-4,9.773048E-1,-9.315499E-1,-7.6181144E-3,1.46736475E-2,-1.931235E-2,-4.1831696E-1,6.0614195E-2,-1.220271E0,-3.7136522E-1,4.8267508E-1,-3.6126253E-1,-3.281875E-2,5.0780356E-1,3.917594E-2,5.1203185E-1,-4.266322E-3,-2.9677952E-2,1.5700605E-2,-1.5864337E-2,5.4481677E-3,-9.837369E-3,-1.9133938E-2,-4.5988042E-2,1.1946443E-2,-1.3919167E-2,3.1087913E-3,1.7426413E-2,-3.2944415E-2,1.20229665E-2,-1.6531503E-2,2.0479655E-3,3.193917E-2,1.0534952E-2,2.4464907E-2,2.3989163E-3],"categories":[],"categories_nodes":[],"categories_segments":[],"categories_sizes":[],"default_left":[0,0,0,0,0,0,0,0,0,0,0,0,0,0,0,0,0,0,0,0,0,0,0,0,0,0,0,0,0,0,0,0,0,0,0,0,0,0,0,0,0,0,0,0,0,0,0,0,0],"id":14,"left_children":[1,3,5,7,9,11,13,15,17,19,21,23,25,-1,27,29,-1,-1,-1,31,33,35,37,39,41,43,45,-1,47,-1,-1,-1,-1,-1,-1,-1,-1,-1,-1,-1,-1,-1,-1,-1,-1,-1,-1,-1,-1],"loss_changes":[1.01545715E2,1.950594E1,2.317575E1,5.433937E0,1.729102E1,1.1123442E1,5.6395454E0,2.9409409E0,4.7069416E0,9.445236E0,1.3442471E1,7.7283516E0,1.2068838E1,0E0,7.4328003E0,3.0686035E0,0E0,0E0,0E0,6.402893E0,6.8648643E0,2.8958817E0,6.445033E0,5.4093323E0,7.467002E0,1.024814E1,3.8725195E0,0E0,3.2118912E0,0E0,0E0,0E0,0E0,0E0,0E0,0E0,0E0,0E0,0E0,0E0,0E0,0E0,0E0,0E0,0E0,0E0,0E0,0E0,0E0],"parents":[2147483647,0,0,1,1,2,2,3,3,4,4,5,5,6,6,7,7,8,8,9,9,10,10,11,11,12,12,14,14,15,15,19,19,20,20,21,21,22,22,23,23,24,24,25,25,26,26,28,28],"right_children":[2,4,6,8,10,12,14,16,18,20,22,24,26,-1,28,30,-1,-1,-1,32,34,36,38,40,42,44,46,-1,48,-1,-1,-1,-1,-1,-1,-1,-1,-1,-1,-1,-1,-1,-1,-1,-1,-1,-1,-1,-1],"split_conditions":[-1.4107143E0,-1.52E1,1.42E1,-7E-1,2E0,4.2857143E-1,1.031E2,1.167E2,1.143E2,-5.7E0,-9.4E0,1.3E1,1.187E2,5.149984E-4,1.114E2,-1.71E1,-7.6181144E-3,1.46736475E-2,-1.931235E-2,1.05E2,3.8E0,2E0,1.055E2,1.09E2,1.091E2,4.2857143E-1,-2.6E0,3.917594E-2,3.2E0,-4.266322E-3,-2.9677952E-2,1.5700605E-2,-1.5864337E-2,5.4481677E-3,-9.837369E-3,-1.9133938E-2,-4.5988042E-2,1.1946443E-2,-1.3919167E-2,3.1087913E-3,1.7426413E-2,-3.2944415E-2,1.20229665E-2,-1.6531503E-2,2.0479655E-3,3.193917E-2,1.0534952E-2,2.4464907E-2,2.3989163E-3],"split_indices":[131,130,131,46,91,86,48,42,42,46,134,136,42,0,89,46,0,0,0,47,36,93,42,42,87,39,93,0,136,0,0,0,0,0,0,0,0,0,0,0,0,0,0,0,0,0,0,0,0],"split_type":[0,0,0,0,0,0,0,0,0,0,0,0,0,0,0,0,0,0,0,0,0,0,0,0,0,0,0,0,0,0,0,0,0,0,0,0,0,0,0,0,0,0,0,0,0,0,0,0,0],"sum_hessian":[8.649131E2,4.0121777E2,4.636953E2,9.3631714E1,3.0758606E2,4.016618E2,6.2033512E1,8.193536E1,1.1696351E1,1.9898814E2,1.0859791E2,1.5857826E2,2.4308356E2,7.1617236E0,5.4871788E1,7.297343E1,8.961939E0,5.471761E0,6.22459E0,5.6042175E1,1.4294597E2,2.3645773E1,8.495213E1,1.4808041E2,1.04978485E1,1.9213231E2,5.0951252E1,3.0446552E1,2.4425238E1,5.444236E0,6.752919E1,5.201703E0,5.0840473E1,1.098071E2,3.3138874E1,9.963696E0,1.3682076E1,8.476995E0,7.6475136E1,3.1314629E1,1.16765785E2,5.0673237E0,5.4305243E0,3.043134E1,1.6170096E2,9.136879E0,4.1814373E1,1.3430015E1,1.0995223E1],"tree_param":{"num_deleted":"0","num_feature":"141","num_nodes":"49","size_leaf_vector":"1"}},{"base_weights":[-6.032205E-4,-2.5854155E-1,4.0083775E-1,-6.472644E-1,-1.367107E-1,-1.1450445E-1,4.9542895E-1,-8.9020246E-1,-3.4522536E-1,-4.571148E-1,-5.0962064E-2,1.7787587E-2,-2.7069342E-1,3.5391453E-1,7.866285E-1,-5.9940005E-3,-9.4987816E-1,-4.922693E-1,1.3023241E-2,-2.0017755E-1,-7.718732E-1,-1.681815E-1,2.391802E-1,-5.386158E-1,1.2546824E-1,-3.6422452E-1,4.0490887E-1,-8.80516E-3,8.6035514E-1,-3.6651254E-2,-2.2179782E-2,-3.313868E-2,-9.04485E-3,-1.1604489E-2,1.8948514E-2,-1.4727014E-2,-3.2743953E-2,-1.1693412E-2,4.7125216E-3,1.46635445E-2,2.2120338E-3,-8.086857E-3,-3.4935072E-2,1.6012242E-2,-1.4853081E-2,-2.0129994E-2,3.023918E-3,2.6768776E-2,9.749971E-3,7.8021875E-3,2.7462222E-2],"categories":[],"categories_nodes":[],"categories_segments":[],"categories_sizes":[],"default_left":[0,0,0,0,0,0,0,0,0,0,0,0,0,0,0,0,0,0,0,0,0,0,0,0,0,0,0,0,0,0,0,0,0,0,0,0,0,0,0,0,0,0,0,0,0,0,0,0,0,0,0],"id":15,"left_children":[1,3,5,7,9,11,13,15,17,19,21,-1,23,25,27,-1,29,31,-1,33,35,37,39,41,43,45,47,-1,49,-1,-1,-1,-1,-1,-1,-1,-1,-1,-1,-1,-1,-1,-1,-1,-1,-1,-1,-1,-1,-1,-1],"loss_changes":[8.972063E1,2.4782555E1,1.6641174E1,8.612385E0,1.101157E1,6.1314683E0,1.1284912E1,2.4156456E0,7.030993E0,6.5324936E0,1.0956104E1,0E0,4.924961E0,7.4003563E0,7.787304E0,0E0,2.018303E0,5.2044764E0,0E0,7.935313E0,2.3991985E0,1.6653893E1,3.7145338E0,3.9850574E0,5.2758875E0,2.1057243E0,6.6008263E0,0E0,2.396759E0,0E0,0E0,0E0,0E0,0E0,0E0,0E0,0E0,0E0,0E0,0E0,0E0,0E0,0E0,0E0,0E0,0E0,0E0,0E0,0E0,0E0,0E0],"parents":[2147483647,0,0,1,1,2,2,3,3,4,4,5,5,6,6,7,7,8,8,9,9,10,10,12,12,13,13,14,14,16,16,17,17,19,19,20,20,21,21,22,22,23,23,24,24,25,25,26,26,28,28],"right_children":[2,4,6,8,10,12,14,16,18,20,22,-1,24,26,28,-1,30,32,-1,34,36,38,40,42,44,46,48,-1,50,-1,-1,-1,-1,-1,-1,-1,-1,-1,-1,-1,-1,-1,-1,-1,-1,-1,-1,-1,-1,-1,-1],"split_conditions":[2.1E0,-1.04E1,-8.3333336E-2,1.126E2,0E0,1.084E2,1.16E1,1.085E2,6.25E-1,0E0,2.3809524E-2,1.7787587E-2,6E-1,-8.9E0,-3.8E0,-5.9940005E-3,1.07333336E2,0E0,1.3023241E-2,4E0,1.12666664E2,5E-1,1.128E2,1.177E2,3E0,-8E-1,-4.5E0,-8.80516E-3,1.116E2,-3.6651254E-2,-2.2179782E-2,-3.313868E-2,-9.04485E-3,-1.1604489E-2,1.8948514E-2,-1.4727014E-2,-3.2743953E-2,-1.1693412E-2,4.7125216E-3,1.46635445E-2,2.2120338E-3,-8.086857E-3,-3.4935072E-2,1.6012242E-2,-1.4853081E-2,-2.0129994E-2,3.023918E-3,2.6768776E-2,9.749971E-3,7.8021875E-3,2.7462222E-2],"split_indices":[140,131,133,40,132,47,140,47,39,95,133,0,39,136,134,0,40,132,0,85,89,41,1,40,95,84,134,0,1,0,0,0,0,0,0,0,0,0,0,0,0,0,0,0,0,0,0,0,0,0,0],"split_type":[0,0,0,0,0,0,0,0,0,0,0,0,0,0,0,0,0,0,0,0,0,0,0,0,0,0,0,0,0,0,0,0,0,0,0,0,0,0,0,0,0,0,0,0,0,0,0,0,0,0,0],"sum_hessian":[8.636085E2,5.262558E2,3.373527E2,1.2383817E2,4.0241763E2,5.210524E1,2.8524747E2,6.683166E1,5.700652E1,8.334233E1,3.190753E2,8.549163E0,4.3556076E1,1.9442775E2,9.081971E1,5.9692984E0,6.0862354E1,4.8530636E1,8.475885E0,4.741177E1,3.593056E1,2.279551E2,9.112021E1,2.5812346E1,1.774373E1,1.2149864E1,1.8227788E2,5.43061E0,8.53891E1,2.3213861E1,3.7648495E1,9.696621E0,3.883401E1,3.9476635E1,7.9351335E0,2.1311373E1,1.4619187E1,1.3558965E2,9.236543E1,3.491249E1,5.6207718E1,1.9664742E1,6.147604E0,1.0926328E1,6.817403E0,7.04976E0,5.1001043E0,2.3351606E1,1.5892628E2,8.047117E0,7.734199E1],"tree_param":{"num_deleted":"0","num_feature":"141","num_nodes":"51","size_leaf_vector":"1"}},{"base_weights":[1.1518894E-2,-3.509368E-1,3.4609917E-1,-5.0153273E-1,-7.865511E-2,5.1979598E-2,5.1658994E-1,-1.0586916E0,-3.980132E-1,-1.4304183E-1,5.725006E-1,-1.9831976E-1,2.3072255E-1,3.8362178E-1,8.0117714E-1,-1.3312211E0,-5.7162607E-1,-4.3491483E-1,1.5418648E-2,-7.6109457E-1,-1.0994365E-2,3.6557764E-3,2.735893E-2,-7.794112E-1,1.3278008E-2,7.6990443E-1,1.3801233E-1,5.8184093E-1,2.0824079E-1,8.6993086E-1,-6.9051585E-3,-4.64901E-2,-2.430878E-2,-4.0026742E-4,-2.671326E-2,7.0664603E-3,-1.4345727E-2,-2.9499745E-3,-3.81054E-2,2.4307525E-2,-3.6212823E-3,-6.271936E-3,-3.3439107E-2,-1.0346325E-2,8.343751E-3,3.0192023E-2,7.873729E-3,-4.2239316E-3,1.0492265E-2,1.7728548E-3,2.253252E-2,-1.6429266E-2,9.6618645E-3,-3.6103108E-3,2.8392984E-2],"categories":[],"categories_nodes":[],"categories_segments":[],"categories_sizes":[],"default_left":[0,0,0,0,0,0,0,0,0,0,0,0,0,0,0,0,0,0,0,0,0,0,0,0,0,0,0,0,0,0,0,0,0,0,0,0,0,0,0,0,0,0,0,0,0,0,0,0,0,0,0,0,0,0,0],"id":16,"left_children":[1,3,5,7,9,11,13,15,17,19,21,23,25,27,29,31,33,35,-1,37,39,-1,-1,41,43,45,47,49,51,53,-1,-1,-1,-1,-1,-1,-1,-1,-1,-1,-1,-1,-1,-1,-1,-1,-1,-1,-1,-1,-1,-1,-1,-1,-1],"loss_changes":[1.050635E2,1.6929901E1,2.2499111E1,1.4631691E1,6.3716264E0,7.554085E0,1.0200684E1,4.0849495E0,7.99564E0,1.1164958E1,1.820148E0,8.729597E0,4.673255E0,6.597452E0,6.682392E0,7.146263E-1,2.989037E0,6.57415E0,0E0,7.8144217E0,1.0465117E1,0E0,0E0,3.1322184E0,5.1498475E0,1.1528225E0,5.1732044E0,7.948061E0,9.471343E0,6.6123695E0,0E0,0E0,0E0,0E0,0E0,0E0,0E0,0E0,0E0,0E0,0E0,0E0,0E0,0E0,0E0,0E0,0E0,0E0,0E0,0E0,0E0,0E0,0E0,0E0,0E0],"parents":[2147483647,0,0,1,1,2,2,3,3,4,4,5,5,6,6,7,7,8,8,9,9,10,10,11,11,12,12,13,13,14,14,15,15,16,16,17,17,19,19,20,20,23,23,24,24,25,25,26,26,27,27,28,28,29,29],"right_children":[2,4,6,8,10,12,14,16,18,20,22,24,26,28,30,32,34,36,-1,38,40,-1,-1,42,44,46,48,50,52,54,-1,-1,-1,-1,-1,-1,-1,-1,-1,-1,-1,-1,-1,-1,-1,-1,-1,-1,-1,-1,-1,-1,-1,-1,-1],"split_conditions":[-1E0,5.555556E-1,5.7142857E-2,-4.6666667E-1,1.222E2,4.4444445E-1,1.16E1,-4.6E0,1.14E1,-1.08E1,-4E-1,2E-1,4.4444445E-1,1.151E2,1.20333336E2,-8.4E0,-3.3333333E0,-5.7E0,1.5418648E-2,-1.42E1,-8.2E0,3.6557764E-3,2.735893E-2,0E0,-6E-1,2.3E0,5.714286E-1,2E0,1.086E2,1.109E2,-6.9051585E-3,-4.64901E-2,-2.430878E-2,-4.0026742E-4,-2.671326E-2,7.0664603E-3,-1.4345727E-2,-2.9499745E-3,-3.81054E-2,2.4307525E-2,-3.6212823E-3,-6.271936E-3,-3.3439107E-2,-1.0346325E-2,8.343751E-3,3.0192023E-2,7.873729E-3,-4.2239316E-3,1.0492265E-2,1.7728548E-3,2.253252E-2,-1.6429266E-2,9.6618645E-3,-3.6103108E-3,2.8392984E-2],"split_indices":[131,39,133,135,89,41,140,94,94,94,44,131,45,1,87,136,95,84,0,94,95,0,0,83,36,131,39,38,87,40,0,0,0,0,0,0,0,0,0,0,0,0,0,0,0,0,0,0,0,0,0,0,0,0,0],"split_type":[0,0,0,0,0,0,0,0,0,0,0,0,0,0,0,0,0,0,0,0,0,0,0,0,0,0,0,0,0,0,0,0,0,0,0,0,0,0,0,0,0,0,0,0,0,0,0,0,0,0,0,0,0,0,0],"sum_hessian":[8.6335803E2,4.142369E2,4.4912112E2,2.656685E2,1.4856842E2,1.6574039E2,2.833807E2,3.9306732E1,2.2636177E2,1.364047E2,1.2163726E1,6.8747444E1,9.699295E1,1.9577966E2,8.760106E1,2.3405529E1,1.5901204E1,2.1841808E2,7.9436994E0,2.2621408E1,1.1378328E2,6.228448E0,5.935278E0,1.7402893E1,5.1344547E1,1.2464858E1,8.452809E1,9.000623E1,1.0577343E2,8.243721E1,5.1638513E0,1.4268078E1,9.137451E0,6.461972E0,9.439232E0,1.2699126E1,2.0571895E2,1.0690261E1,1.1931147E1,1.2173383E1,1.016099E2,7.454217E0,9.948677E0,2.1474077E1,2.9870472E1,7.3618803E0,5.1029773E0,3.6497578E1,4.8030518E1,2.2652737E1,6.735349E1,1.297975E1,9.279368E1,5.756454E0,7.6680756E1],"tree_param":{"num_deleted":"0","num_feature":"141","num_nodes":"55","size_leaf_vector":"1"}},{"base_weights":[2.6616897E-3,-3.3876607E-1,3.1465113E-1,-6.60346E-1,-1.8819734E-1,1.8386962E-1,6.317109E-1,-9.852938E-1,-4.9903685E-1,-6.1964643E-1,-6.851622E-2,-1.1859354E-1,2.7087903E-1,1.8726712E-1,7.515779E-1,-1.1757208E0,-6.228966E-1,-8.748478E-1,-3.1660175E-1,-4.0740117E-1,-3.713199E-2,-7.5065476E-1,-1.3401665E-2,-2.298821E-2,-2.5940249E-2,1.6472508E-1,5.995172E-1,6.917711E-1,-2.128867E-1,-1.9081702E-3,8.202867E-1,-4.3047927E-2,-2.0236893E-2,9.855674E-3,-3.5693835E-2,-1.2890247E-2,-3.318779E-2,3.1282844E-3,-1.8621383E-2,-1.8744685E-2,2.6346312E-3,-3.067216E-2,-4.472099E-3,-5.4369774E-3,5.75515E-3,1.506198E-2,-5.8534914E-3,1.665064E-3,1.4589385E-2,2.2333173E-2,-6.826819E-3,-0E0,3.346336E-2,4.9365954E-3,-2.5325092E-2,2.1429067E-3,2.5967574E-2],"categories":[],"categories_nodes":[],"categories_segments":[],"categories_sizes":[],"default_left":[0,0,0,0,0,0,0,0,0,0,0,0,0,0,0,0,0,0,0,0,0,0,0,0,0,0,0,0,0,0,0,0,0,0,0,0,0,0,0,0,0,0,0,0,0,0,0,0,0,0,0,0,0,0,0,0,0],"id":17,"left_children":[1,3,5,7,9,11,13,15,17,19,21,23,25,27,29,31,33,35,37,39,-1,41,43,-1,45,47,49,51,53,-1,55,-1,-1,-1,-1,-1,-1,-1,-1,-1,-1,-1,-1,-1,-1,-1,-1,-1,-1,-1,-1,-1,-1,-1,-1,-1,-1],"loss_changes":[9.145755E1,1.9571815E1,1.8353504E1,5.9219475E0,1.4399645E1,8.486741E0,6.632309E0,1.5745544E0,5.6385746E0,7.048237E0,8.26175E0,4.2291317E0,8.471842E0,6.2919064E0,5.8604774E0,1.614563E0,1.0171267E1,2.0586147E0,8.230783E0,5.2585506E0,0E0,2.3430042E0,7.1895633E0,0E0,5.9163203E0,6.6041837E0,7.5050297E0,3.9600554E0,4.487729E0,0E0,3.0085526E0,0E0,0E0,0E0,0E0,0E0,0E0,0E0,0E0,0E0,0E0,0E0,0E0,0E0,0E0,0E0,0E0,0E0,0E0,0E0,0E0,0E0,0E0,0E0,0E0,0E0,0E0],"parents":[2147483647,0,0,1,1,2,2,3,3,4,4,5,5,6,6,7,7,8,8,9,9,10,10,11,11,12,12,13,13,14,14,15,15,16,16,17,17,18,18,19,19,21,21,22,22,24,24,25,25,26,26,27,27,28,28,30,30],"right_children":[2,4,6,8,10,12,14,16,18,20,22,24,26,28,30,32,34,36,38,40,-1,42,44,-1,46,48,50,52,54,-1,56,-1,-1,-1,-1,-1,-1,-1,-1,-1,-1,-1,-1,-1,-1,-1,-1,-1,-1,-1,-1,-1,-1,-1,-1,-1,-1],"split_conditions":[-1E0,-1.04E1,9.7E0,3.3333334E-1,0E0,0E0,8E-1,1.1171429E2,-4.7777778E-1,-2.7E0,1.25E-1,-9.8E0,7.777778E-1,3.3333334E-1,4.2857143E-1,-7.6E0,1.151E2,-1.08E1,6.8E0,-3.4E0,-3.713199E-2,6E-1,3.4E0,-2.298821E-2,1.088E2,2.1428572E-1,5.6E0,6.75E0,9.3E0,-1.9081702E-3,1.036E2,-4.3047927E-2,-2.0236893E-2,9.855674E-3,-3.5693835E-2,-1.2890247E-2,-3.318779E-2,3.1282844E-3,-1.8621383E-2,-1.8744685E-2,2.6346312E-3,-3.067216E-2,-4.472099E-3,-5.4369774E-3,5.75515E-3,1.506198E-2,-5.8534914E-3,1.665064E-3,1.4589385E-2,2.2333173E-2,-6.826819E-3,-0E0,3.346336E-2,4.9365954E-3,-2.5325092E-2,2.1429067E-3,2.5967574E-2],"split_indices":[131,131,131,43,132,132,94,40,133,131,43,83,39,86,39,94,40,134,83,130,0,94,84,0,89,135,84,138,37,0,87,0,0,0,0,0,0,0,0,0,0,0,0,0,0,0,0,0,0,0,0,0,0,0,0,0,0],"split_type":[0,0,0,0,0,0,0,0,0,0,0,0,0,0,0,0,0,0,0,0,0,0,0,0,0,0,0,0,0,0,0,0,0,0,0,0,0,0,0,0,0,0,0,0,0,0,0,0,0,0,0,0,0,0,0,0,0],"sum_hessian":[8.556018E2,4.0831274E2,4.472891E2,1.2838005E2,2.7993268E2,3.1856995E2,1.2871913E2,3.9840855E1,8.853919E1,5.924682E1,2.2068587E2,7.0791145E1,2.4777881E2,2.8335243E1,1.00383896E2,2.3729479E1,1.6111376E1,2.6895014E1,6.1644176E1,4.6075428E1,1.317139E1,1.49469595E1,2.057389E2,7.359659E0,6.3431484E1,1.8921597E2,5.8562828E1,1.2160434E1,1.617481E1,7.6987967E0,9.26851E1,1.3666478E1,1.0063001E1,6.1851835E0,9.926193E0,1.08123255E1,1.6082687E1,2.6133402E1,3.5510777E1,3.1885736E1,1.4189691E1,9.458717E0,5.4882426E0,1.13549095E2,9.218981E1,1.4532436E1,4.8899048E1,1.4278934E2,4.6426636E1,5.0061714E1,8.501112E0,5.2236376E0,6.9367957E0,1.071749E1,5.45732E0,5.6332126E0,8.705188E1],"tree_param":{"num_deleted":"0","num_feature":"141","num_nodes":"57","size_leaf_vector":"1"}},{"base_weights":[4.2679165E-3,-2.4322313E-1,3.8017967E-1,-9.203026E-2,-5.106874E-1,2.0033504E-1,6.515953E-1,-3.100838E-1,6.990999E-2,-6.880751E-1,-1.05837315E-1,2.3994936E-1,-1.8883353E-2,7.3427886E-1,1.9689725E-1,-4.0738827E-1,1.8460217E-1,6.401979E-1,3.2499467E-3,-7.74874E-1,-1.5150172E-1,-4.6682674E-1,2.1021068E-1,-1.3553254E-1,3.2124496E-1,2.6432984E-4,8.073319E-1,-1.621442E-1,3.190149E-2,-1.5901612E-2,3.5418575E-3,-1.4743587E-2,1.9633552E-2,3.3367496E-2,3.3149344E-3,-6.0425536E-3,5.7403026E-3,1.4777145E-3,-2.4659093E-2,4.2984723E-3,-1.9723475E-2,5.111162E-3,-2.7465373E-2,1.126331E-2,-8.582479E-3,-1.0713423E-2,1.00890305E-2,1.6651014E-2,5.804032E-3,-1.3479437E-2,1.3555163E-2,1.7414311E-2,3.1371694E-2,1.2467188E-2,-1.4636263E-2],"categories":[],"categories_nodes":[],"categories_segments":[],"categories_sizes":[],"default_left":[0,0,0,0,0,0,0,0,0,0,0,0,0,0,0,0,0,0,0,0,0,0,0,0,0,0,0,0,0,0,0,0,0,0,0,0,0,0,0,0,0,0,0,0,0,0,0,0,0,0,0,0,0,0,0],"id":18,"left_children":[1,3,5,7,9,11,13,15,17,19,21,23,-1,25,27,29,31,33,35,37,39,41,43,45,47,49,51,53,-1,-1,-1,-1,-1,-1,-1,-1,-1,-1,-1,-1,-1,-1,-1,-1,-1,-1,-1,-1,-1,-1,-1,-1,-1,-1,-1],"loss_changes":[7.928679E1,2.0640947E1,1.6238651E1,1.1717368E1,1.3092434E1,6.9570913E0,4.7275047E0,6.9351473E0,7.172803E0,5.699543E0,6.8228397E0,6.1204233E0,0E0,5.95879E0,7.458073E0,7.78496E0,8.148784E0,4.6361847E0,6.685508E0,4.3988266E0,3.1559553E0,8.262983E0,2.7912812E0,3.9493716E0,4.6400814E0,2.7044559E0,4.460228E0,3.5813518E0,0E0,0E0,0E0,0E0,0E0,0E0,0E0,0E0,0E0,0E0,0E0,0E0,0E0,0E0,0E0,0E0,0E0,0E0,0E0,0E0,0E0,0E0,0E0,0E0,0E0,0E0,0E0],"parents":[2147483647,0,0,1,1,2,2,3,3,4,4,5,5,6,6,7,7,8,8,9,9,10,10,11,11,13,13,14,14,15,15,16,16,17,17,18,18,19,19,20,20,21,21,22,22,23,23,24,24,25,25,26,26,27,27],"right_children":[2,4,6,8,10,12,14,16,18,20,22,24,-1,26,28,30,32,34,36,38,40,42,44,46,48,50,52,54,-1,-1,-1,-1,-1,-1,-1,-1,-1,-1,-1,-1,-1,-1,-1,-1,-1,-1,-1,-1,-1,-1,-1,-1,-1,-1,-1],"split_conditions":[2.1E0,6E-1,9.6E0,-3E0,-2.8E0,9.2E0,1.183E2,1.182E2,-2.1E0,2.5E-2,1.13E2,-1.4E0,-1.8883353E-2,1.031E2,9.4E0,4.2857143E-1,-6.4E0,4.2857143E-1,4E0,-4E0,3E-1,1.141E2,1.234E2,4.6666665E0,3.3333334E-1,1.1111111E-1,1.42E1,3E-1,3.190149E-2,-1.5901612E-2,3.5418575E-3,-1.4743587E-2,1.9633552E-2,3.3367496E-2,3.3149344E-3,-6.0425536E-3,5.7403026E-3,1.4777145E-3,-2.4659093E-2,4.2984723E-3,-1.9723475E-2,5.111162E-3,-2.7465373E-2,1.126331E-2,-8.582479E-3,-1.0713423E-2,1.00890305E-2,1.6651014E-2,5.804032E-3,-1.3479437E-2,1.3555163E-2,1.7414311E-2,3.1371694E-2,1.2467188E-2,-1.4636263E-2],"split_indices":[140,90,140,37,130,131,87,89,37,135,1,37,0,48,94,41,37,41,93,84,95,87,0,44,88,92,131,139,0,0,0,0,0,0,0,0,0,0,0,0,0,0,0,0,0,0,0,0,0,0,0,0,0,0,0],"split_type":[0,0,0,0,0,0,0,0,0,0,0,0,0,0,0,0,0,0,0,0,0,0,0,0,0,0,0,0,0,0,0,0,0,0,0,0,0,0,0,0,0,0,0,0,0,0,0,0,0,0,0,0,0,0,0],"sum_hessian":[8.4908923E2,5.121595E2,3.3692975E2,3.287263E2,1.834332E2,2.0443994E2,1.324898E2,1.3977017E2,1.8895612E2,1.2664603E2,5.6787163E1,1.9625723E2,8.182709E0,1.1113793E2,2.1351875E1,1.1718651E2,2.2583664E1,1.8267609E1,1.706885E2,1.082779E2,1.8368126E1,2.6322475E1,3.0464687E1,3.4532112E1,1.6172511E2,1.0320001E1,1.00817924E2,1.5876928E1,5.4749465E0,9.515086E1,2.203564E1,9.1443205E0,1.3439343E1,8.687308E0,9.5803E0,8.143714E1,8.925136E1,5.7346654E0,1.02543236E2,1.216051E1,6.207617E0,1.1168765E1,1.5153709E1,2.3280548E1,7.1841383E0,2.3889713E1,1.0642398E1,5.510445E1,1.0662067E2,5.0642195E0,5.255781E0,5.4513985E1,4.6303944E1,5.464451E0,1.04124775E1],"tree_param":{"num_deleted":"0","num_feature":"141","num_nodes":"55","size_leaf_vector":"1"}},{"base_weights":[1.3499116E-2,-3.590164E-1,2.590263E-1,-6.8147534E-1,-2.4565461E-1,7.150688E-2,4.90198E-1,-2.7263713E-1,-9.648395E-1,-4.5371136E-1,-6.390391E-2,3.0454287E-1,-2.8407363E-2,6.7568916E-1,2.426226E-1,-7.7283084E-1,6.778244E-2,-1.1754637E0,-1.5323348E-1,1.5914828E-2,-5.158461E-1,2.7617753E-1,-2.585902E-1,4.6022817E-1,-4.56873E-1,-2.5762603E-1,1.3492832E-1,-5.126833E-3,7.417271E-1,1.0012018E-1,7.345404E-1,-3.764393E-2,-3.527212E-3,-1.4966223E-2,1.6289126E-2,-1.6967027E-2,-3.8812865E-2,-1.618634E-2,8.44939E-3,6.5395767E-3,-1.742872E-2,-2.8364654E-3,2.1440007E-2,-1.2541829E-2,4.9962564E-3,-1.13865975E-2,1.6392648E-2,4.4792816E-3,-2.8759565E-2,8.374883E-3,-1.2311377E-2,1.7367586E-2,-5.3017742E-5,-1.0722403E-4,2.3276486E-2,7.3895818E-3,-9.532398E-3,9.123729E-3,2.6894376E-2],"categories":[],"categories_nodes":[],"categories_segments":[],"categories_sizes":[],"default_left":[0,0,0,0,0,0,0,0,0,0,0,0,0,0,0,0,0,0,0,0,0,0,0,0,0,0,0,0,0,0,0,0,0,0,0,0,0,0,0,0,0,0,0,0,0,0,0,0,0,0,0,0,0,0,0,0,0,0,0],"id":19,"left_children":[1,3,5,7,9,11,13,15,17,19,21,23,25,27,29,31,33,35,37,-1,39,41,43,45,47,49,51,-1,53,55,57,-1,-1,-1,-1,-1,-1,-1,-1,-1,-1,-1,-1,-1,-1,-1,-1,-1,-1,-1,-1,-1,-1,-1,-1,-1,-1,-1,-1],"loss_changes":[7.921845E1,1.2230484E1,2.252929E1,9.722828E0,9.626376E0,6.8005433E0,1.0380447E1,6.6916275E0,8.396587E0,7.7086887E0,9.323075E0,1.0694384E1,7.712492E0,7.646778E0,6.9941325E0,4.631302E0,6.906352E0,1.6420097E0,2.341815E0,0E0,5.631897E0,8.490127E0,6.1972213E0,5.651349E0,5.0122585E0,7.2175446E0,7.3429017E0,0E0,3.2167969E0,5.0831923E0,1.0488539E0,0E0,0E0,0E0,0E0,0E0,0E0,0E0,0E0,0E0,0E0,0E0,0E0,0E0,0E0,0E0,0E0,0E0,0E0,0E0,0E0,0E0,0E0,0E0,0E0,0E0,0E0,0E0,0E0],"parents":[2147483647,0,0,1,1,2,2,3,3,4,4,5,5,6,6,7,7,8,8,9,9,10,10,11,11,12,12,13,13,14,14,15,15,16,16,17,17,18,18,20,20,21,21,22,22,23,23,24,24,25,25,26,26,28,28,29,29,30,30],"right_children":[2,4,6,8,10,12,14,16,18,20,22,24,26,28,30,32,34,36,38,-1,40,42,44,46,48,50,52,-1,54,56,58,-1,-1,-1,-1,-1,-1,-1,-1,-1,-1,-1,-1,-1,-1,-1,-1,-1,-1,-1,-1,-1,-1,-1,-1,-1,-1,-1,-1],"split_conditions":[-2.8E0,-1.06E1,5.4E0,5.6E0,4E0,4.2857143E-1,3.3333334E-1,-1.4285715E-1,2E-1,-5.8E0,6.7E0,4.2E0,4.2857143E-1,-4E-1,1.19E1,-1.13E1,1.2E2,1.136E2,1.184E2,1.5914828E-2,1.054E2,1.159E2,5.555556E-1,1.0075E2,1.5E0,-6.9E0,1E-1,-5.126833E-3,-4.3E0,3E0,3.3E0,-3.764393E-2,-3.527212E-3,-1.4966223E-2,1.6289126E-2,-1.6967027E-2,-3.8812865E-2,-1.618634E-2,8.44939E-3,6.5395767E-3,-1.742872E-2,-2.8364654E-3,2.1440007E-2,-1.2541829E-2,4.9962564E-3,-1.13865975E-2,1.6392648E-2,4.4792816E-3,-2.8759565E-2,8.374883E-3,-1.2311377E-2,1.7367586E-2,-5.3017742E-5,-1.0722403E-4,2.3276486E-2,7.3895818E-3,-9.532398E-3,9.123729E-3,2.6894376E-2],"split_indices":[131,94,140,83,84,86,88,137,37,84,93,140,41,137,37,134,47,89,89,0,47,40,41,47,95,136,37,0,37,85,95,0,0,0,0,0,0,0,0,0,0,0,0,0,0,0,0,0,0,0,0,0,0,0,0,0,0,0,0],"split_type":[0,0,0,0,0,0,0,0,0,0,0,0,0,0,0,0,0,0,0,0,0,0,0,0,0,0,0,0,0,0,0,0,0,0,0,0,0,0,0,0,0,0,0,0,0,0,0,0,0,0,0,0,0,0,0,0,0,0,0],"sum_hessian":[8.632129E2,3.4248767E2,5.207252E2,8.690004E1,2.5558762E2,2.8883096E2,2.3189427E2,3.692325E1,4.997679E1,1.1786662E2,1.37721E2,8.6053055E1,2.0277791E2,1.308555E2,1.01038765E2,1.4300012E1,2.2623238E1,3.904764E1,1.0929149E1,6.232268E0,1.1163435E2,4.972281E1,8.799819E1,7.204652E1,1.4006541E1,8.4267136E1,1.18510765E2,9.18688E0,1.21668625E2,7.9901024E1,2.1137743E1,7.360796E0,6.9392157E0,1.0188437E1,1.24348E1,7.889481E0,3.1158161E1,5.7183633E0,5.2107854E0,8.68565E0,1.0294871E2,2.7457243E1,2.2265564E1,6.418282E1,2.3815365E1,6.123168E0,6.592335E1,6.7302837E0,7.2762575E0,1.824756E1,6.601958E1,2.6927698E1,9.158307E1,5.262061E0,1.1640656E2,5.98251E1,2.0075924E1,7.1276793E0,1.4010063E1],"tree_param":{"num_deleted":"0","num_feature":"141","num_nodes":"59","size_leaf_vector":"1"}},{"base_weights":[3.1884506E-2,-1.4723617E-1,5.08558E-1,-5.592483E-1,-4.5691833E-2,2.8448465E-1,7.1936053E-1,-8.895786E-1,-4.2224592E-1,-9.990991E-2,3.462367E-1,4.0910545E-1,-4.424068E-1,-1.0149385E-3,7.827657E-1,-1.0060107E-2,-1.0504911E0,-6.758096E-1,-1.9944252E-1,-2.492965E-1,5.0308987E-2,-2.3490863E-2,5.3582764E-1,9.6162915E-1,2.7693504E-1,5.6367586E-3,-2.6728788E-2,-2.54119E-3,8.307598E-1,-3.6548726E-2,-9.023909E-3,-1.2524102E-2,-3.1273965E-2,-1.210816E-2,9.830964E-3,-9.08003E-3,2.104397E-2,-9.606785E-3,4.6044863E-3,3.0986905E-2,1.14318095E-2,1.046614E-2,3.427913E-2,1.6698688E-2,1.7211679E-3,2.6600692E-2,5.0141583E-3],"categories":[],"categories_nodes":[],"categories_segments":[],"categories_sizes":[],"default_left":[0,0,0,0,0,0,0,0,0,0,0,0,0,0,0,0,0,0,0,0,0,0,0,0,0,0,0,0,0,0,0,0,0,0,0,0,0,0,0,0,0,0,0,0,0,0,0],"id":20,"left_children":[1,3,5,7,9,11,13,15,17,19,21,23,25,-1,27,-1,29,31,33,35,37,-1,39,41,43,-1,-1,-1,45,-1,-1,-1,-1,-1,-1,-1,-1,-1,-1,-1,-1,-1,-1,-1,-1,-1,-1],"loss_changes":[7.308416E1,2.5920681E1,1.0636662E1,4.85569E0,1.0668552E1,1.07804785E1,5.810074E0,2.3995552E0,4.7811604E0,9.94195E0,1.3657936E1,6.7765675E0,5.293695E0,0E0,4.767563E0,0E0,2.5445805E0,3.0983524E0,5.599477E0,1.15361E1,8.504064E0,0E0,3.3586273E0,1.3096199E0,4.9826007E0,0E0,0E0,0E0,3.5567932E0,0E0,0E0,0E0,0E0,0E0,0E0,0E0,0E0,0E0,0E0,0E0,0E0,0E0,0E0,0E0,0E0,0E0,0E0],"parents":[2147483647,0,0,1,1,2,2,3,3,4,4,5,5,6,6,7,7,8,8,9,9,10,10,11,11,12,12,14,14,16,16,17,17,18,18,19,19,20,20,22,22,23,23,24,24,28,28],"right_children":[2,4,6,8,10,12,14,16,18,20,22,24,26,-1,28,-1,30,32,34,36,38,-1,40,42,44,-1,-1,-1,46,-1,-1,-1,-1,-1,-1,-1,-1,-1,-1,-1,-1,-1,-1,-1,-1,-1,-1],"split_conditions":[5.3E0,-1.07E1,1.02E1,-1.76E1,2.75E-1,3.25E0,4.2857143E-1,1.158E2,4.2857143E-1,5.555556E-1,1.099E2,1.068E2,-2E-1,-1.0149385E-3,-9.7222224E-2,-1.0060107E-2,1.242E2,-5.4E0,-8.8E0,1.1E1,2E0,-2.3490863E-2,-6.4E0,1.014E2,3.3333334E-1,5.6367586E-3,-2.6728788E-2,-2.54119E-3,1.20333336E2,-3.6548726E-2,-9.023909E-3,-1.2524102E-2,-3.1273965E-2,-1.210816E-2,9.830964E-3,-9.08003E-3,2.104397E-2,-9.606785E-3,4.6044863E-3,3.0986905E-2,1.14318095E-2,1.046614E-2,3.427913E-2,1.6698688E-2,1.7211679E-3,2.6600692E-2,5.0141583E-3],"split_indices":[131,140,131,131,135,91,39,47,43,39,87,47,94,0,133,0,47,37,130,94,38,0,83,47,88,0,0,0,87,0,0,0,0,0,0,0,0,0,0,0,0,0,0,0,0,0,0],"split_type":[0,0,0,0,0,0,0,0,0,0,0,0,0,0,0,0,0,0,0,0,0,0,0,0,0,0,0,0,0,0,0,0,0,0,0,0,0,0,0,0,0,0,0,0,0,0,0],"sum_hessian":[8.527273E2,6.204182E2,2.3230907E2,1.2114227E2,4.9927597E2,1.1454825E2,1.17760826E2,3.2884323E1,8.825794E1,4.3980728E2,5.9468693E1,9.846109E1,1.608716E1,9.075478E0,1.0868535E2,8.579788E0,2.4304537E1,3.9643078E1,4.8614864E1,2.2035226E2,2.1945502E2,7.798094E0,5.1670597E1,1.704331E1,8.141778E1,6.958262E0,9.128899E0,5.528536E0,1.03156815E2,1.8984398E1,5.3201385E0,2.5298676E1,1.4344403E1,3.5432877E1,1.318199E1,2.0970795E2,1.06443205E1,4.6898933E1,1.7255608E2,1.0094133E1,4.1576466E1,5.013825E0,1.2029485E1,3.4593285E1,4.6824493E1,9.4534546E1,8.622267E0],"tree_param":{"num_deleted":"0","num_feature":"141","num_nodes":"47","size_leaf_vector":"1"}},{"base_weights":[-6.6847974E-3,-3.7076876E-1,1.73983E-1,2.755267E-1,-4.4301093E-1,4.5604274E-1,1.5588692E-2,-7.979217E-2,2.63014E-2,-9.876934E-3,-5.4794544E-1,6.1375016E-1,1.9507158E-1,-1.8813565E-2,7.082223E-1,-3.8187632E-1,1.4605614E-2,2.780882E-1,-4.8691165E-1,-6.876761E-1,-2.5373068E-1,3.1951952E-1,7.949879E-1,1.9329108E-2,6.385846E-1,-1.1137674E-1,2.4272756E-1,3.518721E-2,-1.346775E-3,3.586943E-3,-2.5731895E-2,-1.6769215E-2,1.3995295E-2,3.8034692E-3,-2.2326345E-2,-2.1706773E-2,3.9882497E-3,1.9080689E-3,-2.089685E-2,-1.2057471E-2,1.3710807E-2,8.189781E-3,2.66067E-2,2.0233741E-2,-3.7258682E-3,4.746723E-3,2.3508003E-2,-2.256923E-3,-3.3748053E-2,-2.2484107E-2,1.1258995E-2],"categories":[],"categories_nodes":[],"categories_segments":[],"categories_sizes":[],"default_left":[0,0,0,0,0,0,0,0,0,0,0,0,0,0,0,0,0,0,0,0,0,0,0,0,0,0,0,0,0,0,0,0,0,0,0,0,0,0,0,0,0,0,0,0,0,0,0,0,0,0,0],"id":21,"left_children":[1,3,5,7,9,11,13,15,-1,17,19,21,23,25,27,29,-1,31,33,35,37,39,41,43,45,47,49,-1,-1,-1,-1,-1,-1,-1,-1,-1,-1,-1,-1,-1,-1,-1,-1,-1,-1,-1,-1,-1,-1,-1,-1],"loss_changes":[5.642295E1,1.3485798E1,2.5539526E1,6.4638386E0,1.1601604E1,8.208046E0,8.8740425E0,3.6483896E0,0E0,7.335319E0,8.129196E0,6.29681E0,6.1468163E0,8.56267E0,6.3588085E0,3.5289536E0,0E0,5.6032763E0,3.3870373E0,4.291313E0,9.83535E0,5.3650565E0,3.2419891E0,5.724905E0,1.2857475E0,9.341215E0,1.25320215E1,0E0,0E0,0E0,0E0,0E0,0E0,0E0,0E0,0E0,0E0,0E0,0E0,0E0,0E0,0E0,0E0,0E0,0E0,0E0,0E0,0E0,0E0,0E0,0E0],"parents":[2147483647,0,0,1,1,2,2,3,3,4,4,5,5,6,6,7,7,9,9,10,10,11,11,12,12,13,13,14,14,15,15,17,17,18,18,19,19,20,20,21,21,22,22,23,23,24,24,25,25,26,26],"right_children":[2,4,6,8,10,12,14,16,-1,18,20,22,24,26,28,30,-1,32,34,36,38,40,42,44,46,48,50,-1,-1,-1,-1,-1,-1,-1,-1,-1,-1,-1,-1,-1,-1,-1,-1,-1,-1,-1,-1,-1,-1,-1,-1],"split_conditions":[-3E0,1.054E2,-2E0,-5.1E0,4E-1,3.3333334E-1,1.17E1,-5.5E0,2.63014E-2,1.14E2,4.4444445E-1,9E0,1.177E2,5.9E0,2.7E0,3.2E0,1.4605614E-2,-7.25E0,5E-1,1.189E2,-4.8E0,-3.7142856E0,1.03333336E2,1.094E2,0E0,5.5E0,-8.3E0,3.518721E-2,-1.346775E-3,3.586943E-3,-2.5731895E-2,-1.6769215E-2,1.3995295E-2,3.8034692E-3,-2.2326345E-2,-2.1706773E-2,3.9882497E-3,1.9080689E-3,-2.089685E-2,-1.2057471E-2,1.3710807E-2,8.189781E-3,2.66067E-2,2.0233741E-2,-3.7258682E-3,4.746723E-3,2.3508003E-2,-2.256923E-3,-3.3748053E-2,-2.2484107E-2,1.1258995E-2],"split_indices":[46,47,93,93,92,88,136,46,0,0,39,130,42,46,93,130,0,44,90,42,46,44,47,0,132,46,134,0,0,0,0,0,0,0,0,0,0,0,0,0,0,0,0,0,0,0,0,0,0,0,0],"split_type":[0,0,0,0,0,0,0,0,0,0,0,0,0,0,0,0,0,0,0,0,0,0,0,0,0,0,0,0,0,0,0,0,0,0,0,0,0,0,0,0,0,0,0,0,0,0,0,0,0,0,0],"sum_hessian":[8.545051E2,2.830581E2,5.71447E2,2.789528E1,2.5516283E2,2.0426077E2,3.6718622E2,1.8245962E1,9.64932E0,5.0267944E1,2.0489488E2,1.2581727E2,7.84435E1,3.5106418E2,1.6122044E1,1.2335425E1,5.910537E0,3.1605202E1,1.8662745E1,1.3732811E2,6.756677E1,4.9748783E1,7.606849E1,5.7464127E1,2.0979372E1,2.602142E2,9.084998E1,9.535283E0,6.5867615E0,6.4507556E0,5.8846693E0,5.1675863E0,2.6437616E1,5.6231136E0,1.3039631E1,1.318615E2,5.46662E0,3.9977562E1,2.7589207E1,7.386073E0,4.236271E1,1.2442138E1,6.3626347E1,9.454815E0,4.800931E1,5.752048E0,1.5227324E1,2.52905E2,7.309212E0,9.796529E0,8.105345E1],"tree_param":{"num_deleted":"0","num_feature":"141","num_nodes":"51","size_leaf_vector":"1"}},{"base_weights":[-6.9697085E-3,-2.1929564E-1,3.3918783E-1,-5.2548444E-1,-9.596253E-2,2.137063E-1,6.750511E-1,-1.0248413E0,-3.9147848E-1,-1.724459E-1,2.1989954E-1,1.0245271E-1,4.1884834E-1,8.616653E-1,2.874093E-1,-1.2348495E0,-1.1292922E-2,-5.670359E-1,-3.902902E-2,-2.5790626E-1,8.069296E-2,-3.8670346E-1,3.8608152E-1,-0E0,6.5476847E-1,4.8961544E-1,-4.641661E-3,3.0836424E-1,3.4718223E-2,1.1351804E-2,2.3192417E-2,-2.1420578E-2,-4.1885935E-2,-1.5953458E-3,-2.0220254E-2,5.2190647E-3,-3.003624E-2,-1.0552292E-2,1.0220844E-3,5.790817E-3,-2.0901479E-2,-2.1723539E-2,4.041222E-3,1.940548E-2,-1.4922651E-3,3.859621E-3,-1.0851298E-2,3.616387E-2,1.0522558E-2,9.707487E-3,2.7878592E-2,-1.8233613E-3,2.1451386E-2,1.1301925E-2,-2.5174761E-2],"categories":[],"categories_nodes":[],"categories_segments":[],"categories_sizes":[],"default_left":[0,0,0,0,0,0,0,0,0,0,0,0,0,0,0,0,0,0,0,0,0,0,0,0,0,0,0,0,0,0,0,0,0,0,0,0,0,0,0,0,0,0,0,0,0,0,0,0,0,0,0,0,0,0,0],"id":22,"left_children":[1,3,5,7,9,11,13,15,17,19,21,23,25,27,29,31,-1,33,35,37,39,41,43,45,47,49,-1,51,-1,53,-1,-1,-1,-1,-1,-1,-1,-1,-1,-1,-1,-1,-1,-1,-1,-1,-1,-1,-1,-1,-1,-1,-1,-1,-1],"loss_changes":[6.245117E1,1.9759903E1,1.3304707E1,9.342815E0,9.176161E0,5.3041697E0,5.8016357E0,3.3364906E0,7.4192257E0,6.6503468E0,7.686447E0,8.804892E0,3.504466E0,8.764023E0,4.0207157E0,1.8398666E-1,0E0,4.312254E0,8.986829E0,6.317999E0,6.951293E0,3.1150455E0,6.8120346E0,6.265154E0,3.2892113E0,4.836212E0,0E0,3.4743235E0,0E0,7.019143E0,0E0,0E0,0E0,0E0,0E0,0E0,0E0,0E0,0E0,0E0,0E0,0E0,0E0,0E0,0E0,0E0,0E0,0E0,0E0,0E0,0E0,0E0,0E0,0E0,0E0],"parents":[2147483647,0,0,1,1,2,2,3,3,4,4,5,5,6,6,7,7,8,8,9,9,10,10,11,11,12,12,13,13,14,14,15,15,17,17,18,18,19,19,20,20,21,21,22,22,23,23,24,24,25,25,27,27,29,29],"right_children":[2,4,6,8,10,12,14,16,18,20,22,24,26,28,30,32,-1,34,36,38,40,42,44,46,48,50,-1,52,-1,54,-1,-1,-1,-1,-1,-1,-1,-1,-1,-1,-1,-1,-1,-1,-1,-1,-1,-1,-1,-1,-1,-1,-1,-1,-1],"split_conditions":[2.1E0,-1.14E1,3.809524E-1,-4.6666667E-1,1.14285715E-1,2.75E-1,3.75E-1,1.128E2,-9E-1,2.3809524E-2,2E0,1.194E2,1.244E2,1.086E2,8.8E0,6.25E-1,-1.1292922E-2,-3.25E-1,1.23E2,1.157E2,1.3E0,1.2E0,8E-1,3E0,1.4E0,1.19E2,-4.641661E-3,1.18E2,3.4718223E-2,4E0,2.3192417E-2,-2.1420578E-2,-4.1885935E-2,-1.5953458E-3,-2.0220254E-2,5.2190647E-3,-3.003624E-2,-1.0552292E-2,1.0220844E-3,5.790817E-3,-2.0901479E-2,-2.1723539E-2,4.041222E-3,1.940548E-2,-1.4922651E-3,3.859621E-3,-1.0851298E-2,3.616387E-2,1.0522558E-2,9.707487E-3,2.7878592E-2,-1.8233613E-3,2.1451386E-2,1.1301925E-2,-2.5174761E-2],"split_indices":[131,130,133,135,135,135,88,0,134,133,38,42,0,87,94,86,0,135,40,42,140,130,37,38,94,1,0,40,0,94,0,0,0,0,0,0,0,0,0,0,0,0,0,0,0,0,0,0,0,0,0,0,0,0,0],"split_type":[0,0,0,0,0,0,0,0,0,0,0,0,0,0,0,0,0,0,0,0,0,0,0,0,0,0,0,0,0,0,0,0,0,0,0,0,0,0,0,0,0,0,0,0,0,0,0,0,0,0,0,0,0,0,0],"sum_hessian":[8.468415E2,5.2540656E2,3.2143497E2,1.4922821E2,3.761783E2,2.3601122E2,8.5423744E1,2.9305824E1,1.19922386E2,3.0364975E2,7.252858E1,1.547974E2,8.121383E1,5.6251522E1,2.917222E1,2.0995054E1,8.31077E0,7.925029E1,4.0672096E1,2.2728462E2,7.636511E1,1.5039318E1,5.7489258E1,1.3193315E2,2.2864231E1,7.264482E1,8.569012E0,2.0772999E1,3.547852E1,1.970996E1,9.46226E0,7.037113E0,1.3957941E1,1.420329E1,6.5047E1,3.4221363E1,6.4507337E0,1.7203159E2,5.525304E1,6.782125E1,8.543868E0,8.893081E0,6.1462374E0,3.5657394E1,2.1831863E1,9.815419E1,3.3778965E1,6.433682E0,1.643055E1,5.4787037E1,1.7857784E1,1.1428944E1,9.344055E0,1.4453778E1,5.256182E0],"tree_param":{"num_deleted":"0","num_feature":"141","num_nodes":"55","size_leaf_vector":"1"}},{"base_weights":[1.857453E-2,-2.8048673E-1,2.6762897E-1,-5.3303915E-1,-1.2593788E-1,1.2792009E-1,6.3377345E-1,-1.1805332E0,-3.9299628E-1,-8.3299637E-1,-8.553447E-2,2.668472E-1,3.0756956E-3,-1.1996091E-2,6.9918984E-1,-4.1911576E-2,-1.2950663E-2,2.2061018E-2,-5.4263866E-1,-3.449199E-2,-1.1495294E-2,2.2901532E-1,-1.5913564E-1,5.315959E-1,1.3166602E-1,2.4556483E-1,-9.371837E-2,8.380499E-1,4.713309E-1,-9.306024E-3,1.7418066E-2,-1.8302826E-2,9.351832E-3,1.9231257E-3,2.8571656E-2,2.5410282E-3,-9.985691E-3,-3.693956E-3,2.5625803E-2,8.553929E-3,-7.6952376E-3,-1.1061875E-2,1.2997138E-2,-1.6076304E-2,8.481356E-6,2.3369542E-3,2.6972046E-2,1.9040974E-2,-0E0],"categories":[],"categories_nodes":[],"categories_segments":[],"categories_sizes":[],"default_left":[0,0,0,0,0,0,0,0,0,0,0,0,0,0,0,0,0,0,0,0,0,0,0,0,0,0,0,0,0,0,0,0,0,0,0,0,0,0,0,0,0,0,0,0,0,0,0,0,0],"id":23,"left_children":[1,3,5,7,9,11,13,15,17,19,21,23,25,-1,27,-1,-1,29,31,-1,-1,33,35,37,39,41,43,45,47,-1,-1,-1,-1,-1,-1,-1,-1,-1,-1,-1,-1,-1,-1,-1,-1,-1,-1,-1,-1],"loss_changes":[6.2972218E1,1.4822931E1,2.3406227E1,1.2302353E1,6.6704125E0,5.8006606E0,9.027485E0,2.9535828E0,7.6262627E0,9.9416924E-1,5.3553386E0,5.507223E0,4.2488256E0,0E0,3.0718231E0,0E0,0E0,6.514791E0,5.4821186E0,0E0,0E0,5.035316E0,7.985389E0,1.1401426E1,6.5033245E0,6.2119436E0,5.401106E0,3.1521263E0,3.736127E0,0E0,0E0,0E0,0E0,0E0,0E0,0E0,0E0,0E0,0E0,0E0,0E0,0E0,0E0,0E0,0E0,0E0,0E0,0E0,0E0],"parents":[2147483647,0,0,1,1,2,2,3,3,4,4,5,5,6,6,7,7,8,8,9,9,10,10,11,11,12,12,14,14,17,17,18,18,21,21,22,22,23,23,24,24,25,25,26,26,27,27,28,28],"right_children":[2,4,6,8,10,12,14,16,18,20,22,24,26,-1,28,-1,-1,30,32,-1,-1,34,36,38,40,42,44,46,48,-1,-1,-1,-1,-1,-1,-1,-1,-1,-1,-1,-1,-1,-1,-1,-1,-1,-1,-1,-1],"split_conditions":[-1.5E0,4.2857143E-1,9.6E0,-1.1666667E1,-1.81E1,6E-1,-6.3E0,-5.3E0,-6.9E0,1.116E2,-8.2E0,4.2857143E-1,1.153E2,-1.1996091E-2,1.116E2,-4.1911576E-2,-1.2950663E-2,-4.7E0,1.221E2,-3.449199E-2,-1.1495294E-2,7E-1,1.143E2,1.084E2,3E0,-4.375E0,-2.4E0,1.105E2,8.4E0,-9.306024E-3,1.7418066E-2,-1.8302826E-2,9.351832E-3,1.9231257E-3,2.8571656E-2,2.5410282E-3,-9.985691E-3,-3.693956E-3,2.5625803E-2,8.553929E-3,-7.6952376E-3,-1.1061875E-2,1.2997138E-2,-1.6076304E-2,8.481356E-6,2.3369542E-3,2.6972046E-2,1.9040974E-2,-0E0],"split_indices":[140,43,140,134,140,95,134,136,95,40,136,86,1,0,89,0,0,134,89,0,0,39,48,42,38,91,36,40,95,0,0,0,0,0,0,0,0,0,0,0,0,0,0,0,0,0,0,0,0],"split_type":[0,0,0,0,0,0,0,0,0,0,0,0,0,0,0,0,0,0,0,0,0,0,0,0,0,0,0,0,0,0,0,0,0,0,0,0,0,0,0,0,0,0,0,0,0,0,0,0,0],"sum_hessian":[8.424683E2,3.8253476E2,4.5993353E2,1.4358241E2,2.3895236E2,3.3456973E2,1.2536379E2,2.3423605E1,1.2015881E2,1.1192008E1,2.2776035E2,1.5716692E2,1.7740282E2,6.914244E0,1.1844955E2,1.7059189E1,6.364416E0,3.200324E1,8.815557E1,5.0674906E0,6.124518E0,4.232968E1,1.8543066E2,5.138747E1,1.0577944E2,5.024824E1,1.2715458E2,7.082945E1,4.7620094E1,2.0372223E1,1.1631015E1,8.221063E1,5.94494E0,3.591347E1,6.4162107E0,7.722696E1,1.0820371E2,1.7165903E1,3.422157E1,7.627847E1,2.950097E1,1.129555E1,3.8952694E1,2.1243406E1,1.0591117E2,5.6386323E0,6.519082E1,3.486229E1,1.2757807E1],"tree_param":{"num_deleted":"0","num_feature":"141","num_nodes":"49","size_leaf_vector":"1"}},{"base_weights":[-0E0,-3.151192E-1,2.1416403E-1,-5.7047427E-1,-1.7800441E-1,9.301786E-2,5.914144E-1,8.5536735E-3,-6.2575346E-1,-1.1194311E-1,-8.76271E-1,3.5276997E-1,4.7530807E-3,3.1202722E-1,7.961834E-1,-9.6865046E-1,-4.6276075E-1,-3.3100432E-1,6.8941586E-2,-1.1679629E0,-3.810026E-3,1.0143664E0,1.9448054E-1,-4.5443586E-1,9.6870676E-2,5.601067E-1,-2.9011015E-2,4.6406054E-1,9.2625433E-1,-1.1893621E-2,-3.4739535E-2,3.6030232E-3,-1.686697E-2,-2.2424322E-2,-4.6116738E-3,2.2205647E-2,-1.7060096E-3,-1.6735414E-2,-4.2998258E-2,1.6928483E-2,4.2846244E-2,-1.6604086E-2,9.229798E-3,-3.2569546E-2,-7.0384624E-3,-3.5758659E-3,7.115386E-3,2.312873E-2,2.7552978E-3,1.37748625E-2,-1.0271702E-2,2.3181288E-2,-1.803443E-3,3.030139E-2,8.270328E-3],"categories":[],"categories_nodes":[],"categories_segments":[],"categories_sizes":[],"default_left":[0,0,0,0,0,0,0,0,0,0,0,0,0,0,0,0,0,0,0,0,0,0,0,0,0,0,0,0,0,0,0,0,0,0,0,0,0,0,0,0,0,0,0,0,0,0,0,0,0,0,0,0,0,0,0],"id":24,"left_children":[1,3,5,7,9,11,13,-1,15,17,19,21,23,25,27,29,31,33,35,37,-1,39,41,43,45,47,49,51,53,-1,-1,-1,-1,-1,-1,-1,-1,-1,-1,-1,-1,-1,-1,-1,-1,-1,-1,-1,-1,-1,-1,-1,-1,-1,-1],"loss_changes":[5.7978287E1,1.1941563E1,2.3231815E1,6.0002785E0,1.0297304E1,8.886015E0,6.6038322E0,0E0,5.542122E0,8.407763E0,3.8889408E0,9.889503E0,1.2395832E1,4.7365E0,2.2537575E0,2.9564056E0,4.793785E0,6.809554E0,9.959181E0,8.172455E-1,0E0,2.041916E0,7.120865E0,6.2748947E0,7.478777E0,2.9790697E0,3.963933E0,3.8636923E0,2.114212E0,0E0,0E0,0E0,0E0,0E0,0E0,0E0,0E0,0E0,0E0,0E0,0E0,0E0,0E0,0E0,0E0,0E0,0E0,0E0,0E0,0E0,0E0,0E0,0E0,0E0,0E0],"parents":[2147483647,0,0,1,1,2,2,3,3,4,4,5,5,6,6,8,8,9,9,10,10,11,11,12,12,13,13,14,14,15,15,16,16,17,17,18,18,19,19,21,21,22,22,23,23,24,24,25,25,26,26,27,27,28,28],"right_children":[2,4,6,8,10,12,14,-1,16,18,20,22,24,26,28,30,32,34,36,38,-1,40,42,44,46,48,50,52,54,-1,-1,-1,-1,-1,-1,-1,-1,-1,-1,-1,-1,-1,-1,-1,-1,-1,-1,-1,-1,-1,-1,-1,-1,-1,-1],"split_conditions":[-2.8E0,3.75E-1,9.7E0,-5.7E0,-3.4E0,2E0,4E0,8.5536735E-3,-1.13E1,-2E-1,6.6E0,-5.4E0,2E0,3.3333334E-1,1.155E2,-1.52E1,-9.6E0,1.126E2,1.11E2,1E0,-3.810026E-3,-3.5E0,2.5E-1,-2.2E0,6E-1,6.5E0,-1.9E0,8.8E0,1.52E1,-1.1893621E-2,-3.4739535E-2,3.6030232E-3,-1.686697E-2,-2.2424322E-2,-4.6116738E-3,2.2205647E-2,-1.7060096E-3,-1.6735414E-2,-4.2998258E-2,1.6928483E-2,4.2846244E-2,-1.6604086E-2,9.229798E-3,-3.2569546E-2,-7.0384624E-3,-3.5758659E-3,7.115386E-3,2.312873E-2,2.7552978E-3,1.37748625E-2,-1.0271702E-2,2.3181288E-2,-1.803443E-3,3.030139E-2,8.270328E-3],"split_indices":[131,39,140,93,131,85,136,0,46,44,83,95,38,88,0,37,46,40,40,93,0,134,41,130,39,95,136,95,36,0,0,0,0,0,0,0,0,0,0,0,0,0,0,0,0,0,0,0,0,0,0,0,0,0,0],"split_type":[0,0,0,0,0,0,0,0,0,0,0,0,0,0,0,0,0,0,0,0,0,0,0,0,0,0,0,0,0,0,0,0,0,0,0,0,0,0,0,0,0,0,0,0,0,0,0,0,0,0,0,0,0,0,0],"sum_hessian":[8.5618036E2,3.460495E2,5.1013086E2,1.1898611E2,2.2706339E2,3.8774838E2,1.22382484E2,6.732734E0,1.1225337E2,2.0915904E2,1.7904345E1,9.691417E1,2.9083423E2,5.3568123E1,6.881436E1,3.3580425E1,7.867294E1,9.428398E1,1.1487506E2,1.2187909E1,5.7164354E0,1.7022337E1,7.989183E1,4.7428192E1,2.4340602E2,3.062236E1,2.2945765E1,2.1510338E1,4.7304024E1,9.63402E0,2.3946407E1,1.1277166E1,6.7395775E1,2.654217E1,6.774181E1,1.7101322E1,9.777374E1,5.218409E0,6.9694996E0,9.968152E0,7.0541844E0,9.617222E0,7.027461E1,1.0606999E1,3.6821194E1,9.5639946E1,1.4776608E2,2.0298923E1,1.0323438E1,8.573424E0,1.4372339E1,1.3210933E1,8.299406E0,4.103619E1,6.2678347E0],"tree_param":{"num_deleted":"0","num_feature":"141","num_nodes":"55","size_leaf_vector":"1"}},{"base_weights":[6.6650556E-3,-2.0026952E-1,3.380066E-1,-7.158606E-1,-1.44855E-1,2.4796915E-1,7.571193E-1,-9.1638386E-1,-2.6222864E-1,-2.2215004E-1,7.6715365E-2,-4.0513217E-1,2.8946444E-1,2.9042293E-3,8.3896035E-1,-3.1146118E-3,-1.0906388E0,-5.9675264E-1,1.2390716E-2,-3.418139E-1,-2.2998638E-2,-3.2829186E-1,2.0576942E-1,8.529382E-3,-2.5237236E-2,-4.727015E-2,3.6061686E-1,3.337232E-2,4.7960237E-1,-3.618286E-2,-1.5685664E-2,-0E0,-2.9956449E-2,4.668621E-3,-1.2530288E-2,1.2412549E-2,-8.470182E-3,5.0127544E-3,-1.9463096E-2,8.775799E-3,-1.8755356E-2,-1.7287673E-2,5.188635E-3,1.2195752E-2,-4.7897575E-3,-6.048534E-3,2.1174893E-2],"categories":[],"categories_nodes":[],"categories_segments":[],"categories_sizes":[],"default_left":[0,0,0,0,0,0,0,0,0,0,0,0,0,0,0,0,0,0,0,0,0,0,0,0,0,0,0,0,0,0,0,0,0,0,0,0,0,0,0,0,0,0,0,0,0,0,0],"id":25,"left_children":[1,3,5,7,9,11,13,15,17,19,21,23,25,-1,27,-1,29,31,-1,33,35,37,39,-1,-1,41,43,-1,45,-1,-1,-1,-1,-1,-1,-1,-1,-1,-1,-1,-1,-1,-1,-1,-1,-1,-1],"loss_changes":[5.8342E1,1.4715258E1,1.1965504E1,4.092432E0,8.170744E0,7.529625E0,2.861496E0,4.5377445E0,4.3766055E0,8.35659E0,6.54745E0,5.4408197E0,6.203909E0,0E0,3.986061E0,0E0,7.0438004E-1,2.9025598E0,0E0,8.421423E0,1.537359E1,5.013137E0,7.0762534E0,0E0,0E0,5.529457E0,5.1909695E0,0E0,4.046156E0,0E0,0E0,0E0,0E0,0E0,0E0,0E0,0E0,0E0,0E0,0E0,0E0,0E0,0E0,0E0,0E0,0E0,0E0],"parents":[2147483647,0,0,1,1,2,2,3,3,4,4,5,5,6,6,7,7,8,8,9,9,10,10,11,11,12,12,14,14,16,16,17,17,19,19,20,20,21,21,22,22,25,25,26,26,28,28],"right_children":[2,4,6,8,10,12,14,16,18,20,22,24,26,-1,28,-1,30,32,-1,34,36,38,40,-1,-1,42,44,-1,46,-1,-1,-1,-1,-1,-1,-1,-1,-1,-1,-1,-1,-1,-1,-1,-1,-1,-1],"split_conditions":[2E0,-1.56E1,1.42E1,1.135E2,2.3809524E-2,-8.7E0,1.031E2,3E0,1.202E2,5E-1,2E0,1.118E2,-8.3333336E-2,2.9042293E-3,1.111E2,-3.1146118E-3,-6E0,1.17E2,1.2390716E-2,-1E1,1.136E2,-3.2E0,4E0,8.529382E-3,-2.5237236E-2,-1.1E0,1.246E2,3.337232E-2,2E0,-3.618286E-2,-1.5685664E-2,-0E0,-2.9956449E-2,4.668621E-3,-1.2530288E-2,1.2412549E-2,-8.470182E-3,5.0127544E-3,-1.9463096E-2,8.775799E-3,-1.8755356E-2,-1.7287673E-2,5.188635E-3,1.2195752E-2,-4.7897575E-3,-6.048534E-3,2.1174893E-2],"split_indices":[131,131,131,40,133,136,48,83,89,41,38,0,133,0,89,0,134,40,0,95,89,131,38,0,0,95,0,0,85,0,0,0,0,0,0,0,0,0,0,0,0,0,0,0,0,0,0],"split_type":[0,0,0,0,0,0,0,0,0,0,0,0,0,0,0,0,0,0,0,0,0,0,0,0,0,0,0,0,0,0,0,0,0,0,0,0,0,0,0,0,0,0,0,0,0,0,0],"sum_hessian":[8.477061E2,5.2199396E2,3.257122E2,4.8747986E1,4.7324594E2,2.7027536E2,5.543684E1,3.2590916E1,1.615707E1,3.5118286E2,1.22063095E2,1.52170315E1,2.5505833E2,6.609129E0,4.8827713E1,6.2790065E0,2.631191E1,1.1020113E1,5.136956E0,2.183853E2,1.3279756E2,2.8749285E1,9.3313805E1,6.009468E0,9.207564E0,4.4335423E1,2.107229E2,2.5785133E1,2.3042578E1,2.0317886E1,5.994024E0,5.1375504E0,5.8825626E0,2.851505E1,1.8987024E2,4.8999638E1,8.379793E1,1.1452421E1,1.7296864E1,8.548121E1,7.832597E0,1.2452721E1,3.1882702E1,1.9411472E2,1.660819E1,5.6750135E0,1.7367563E1],"tree_param":{"num_deleted":"0","num_feature":"141","num_nodes":"47","size_leaf_vector":"1"}},{"base_weights":[1.0729981E-2,-2.8008357E-1,2.0573181E-1,-4.1058266E-1,-1.0346541E-2,4.0314698E-1,6.113722E-2,-8.4027904E-1,-3.158744E-1,-4.5467538E-1,1.0885653E-1,2.3836836E-1,6.076088E-1,-4.4739953E-1,1.16543464E-1,-1.1441798E0,-3.6147505E-1,-3.586001E-1,1.3563637E-2,-8.221783E-1,1.7740171E-2,6.408613E-1,-4.0284533E-2,-6.6779554E-1,3.3482072E-1,6.68553E-1,-8.3985785E-3,6.7043877E-3,-7.2839284E-1,-2.0114455E-1,2.1008E-1,-1.7258558E-2,-3.8463313E-2,-2.1379719E-2,4.235129E-3,-1.3056413E-2,6.128941E-3,-5.02293E-3,-3.404653E-2,3.0695882E-2,1.0981236E-3,-2.0219402E-2,2.09557E-3,-3.041877E-2,-4.509473E-3,3.7360884E-2,7.931104E-3,2.1524342E-2,-3.1278178E-3,3.129454E-4,-3.0054145E-2,-1.7954778E-2,6.3442998E-3,4.4562267E-3,2.3117423E-2],"categories":[],"categories_nodes":[],"categories_segments":[],"categories_sizes":[],"default_left":[0,0,0,0,0,0,0,0,0,0,0,0,0,0,0,0,0,0,0,0,0,0,0,0,0,0,0,0,0,0,0,0,0,0,0,0,0,0,0,0,0,0,0,0,0,0,0,0,0,0,0,0,0,0,0],"id":26,"left_children":[1,3,5,7,9,11,13,15,17,19,21,23,25,27,29,31,33,35,-1,37,-1,39,41,43,45,47,-1,-1,49,51,53,-1,-1,-1,-1,-1,-1,-1,-1,-1,-1,-1,-1,-1,-1,-1,-1,-1,-1,-1,-1,-1,-1,-1,-1],"loss_changes":[4.860428E1,1.2056759E1,1.4568621E1,8.906391E0,6.1424847E0,6.990509E0,8.45129E0,5.1528416E0,6.5427036E0,1.0195065E1,7.3074155E0,1.1017072E1,5.4774704E0,5.845287E0,8.099312E0,5.9768105E-1,3.4078982E0,8.05249E0,0E0,3.4494333E0,0E0,4.4880724E0,5.171835E0,1.8394513E0,6.533348E0,3.5679436E0,0E0,0E0,4.3992167E0,1.0398266E1,6.975436E0,0E0,0E0,0E0,0E0,0E0,0E0,0E0,0E0,0E0,0E0,0E0,0E0,0E0,0E0,0E0,0E0,0E0,0E0,0E0,0E0,0E0,0E0,0E0,0E0],"parents":[2147483647,0,0,1,1,2,2,3,3,4,4,5,5,6,6,7,7,8,8,9,9,10,10,11,11,12,12,13,13,14,14,15,15,16,16,17,17,19,19,21,21,22,22,23,23,24,24,25,25,28,28,29,29,30,30],"right_children":[2,4,6,8,10,12,14,16,18,20,22,24,26,28,30,32,34,36,-1,38,-1,40,42,44,46,48,-1,-1,50,52,54,-1,-1,-1,-1,-1,-1,-1,-1,-1,-1,-1,-1,-1,-1,-1,-1,-1,-1,-1,-1,-1,-1,-1,-1],"split_conditions":[-2.8E0,5.555556E-1,3.3333334E-1,-4.6666667E-1,-1.06E1,8.1E0,-8.4E0,-4.4E0,7.777778E-1,1.216E2,-6E0,-1.3E1,7E-1,5.555556E-1,2E0,4.4E0,1.168E2,1.234E2,1.3563637E-2,6.666667E-1,1.7740171E-2,1.21E2,1.7E0,3.3333334E-1,1.024E2,2.74E1,-8.3985785E-3,6.7043877E-3,-5E-1,5E0,6.5E0,-1.7258558E-2,-3.8463313E-2,-2.1379719E-2,4.235129E-3,-1.3056413E-2,6.128941E-3,-5.02293E-3,-3.404653E-2,3.0695882E-2,1.0981236E-3,-2.0219402E-2,2.09557E-3,-3.041877E-2,-4.509473E-3,3.7360884E-2,7.931104E-3,2.1524342E-2,-3.1278178E-3,3.129454E-4,-3.0054145E-2,-1.7954778E-2,6.3442998E-3,4.4562267E-3,2.3117423E-2],"split_indices":[131,39,88,135,94,140,134,94,43,89,94,83,86,86,38,83,48,47,0,86,0,47,84,41,48,130,0,0,84,130,93,0,0,0,0,0,0,0,0,0,0,0,0,0,0,0,0,0,0,0,0,0,0,0,0],"split_type":[0,0,0,0,0,0,0,0,0,0,0,0,0,0,0,0,0,0,0,0,0,0,0,0,0,0,0,0,0,0,0,0,0,0,0,0,0,0,0,0,0,0,0,0,0,0,0,0,0,0,0,0,0,0,0],"sum_hessian":[8.541866E2,3.423941E2,5.1179248E2,2.29977E2,1.12417114E2,2.1494882E2,2.9684366E2,3.9210876E1,1.9076613E2,2.3063923E1,8.935319E1,1.2109473E2,9.3854095E1,2.7944319E1,2.6889935E2,2.258356E1,1.6627316E1,1.815934E2,9.172727E0,1.7375769E1,5.6881547E0,1.862839E1,7.07248E1,1.0694877E1,1.1039985E2,8.827548E1,5.5786157E0,8.234756E0,1.9709562E1,6.052776E1,2.0837158E2,6.0620213E0,1.652154E1,9.536622E0,7.090694E0,1.6029433E2,2.1299076E1,6.4640975E0,1.0911672E1,1.0671006E1,7.9573836E0,9.469395E0,6.1255405E1,5.4300933E0,5.264784E0,6.0299788E0,1.0436987E2,8.3242386E1,5.03309E0,5.6145988E0,1.4094964E1,3.0613792E1,2.9913969E1,1.896277E2,1.8743876E1],"tree_param":{"num_deleted":"0","num_feature":"141","num_nodes":"55","size_leaf_vector":"1"}},{"base_weights":[1.98189E-3,-2.9432398E-1,2.3879673E-1,-1.4967255E-1,-5.126509E-1,4.470653E-1,8.522343E-2,-4.5268035E-1,-3.528843E-2,-8.345084E-1,-3.3446538E-1,6.255896E-2,5.3151524E-1,-1.957833E-1,2.3418191E-1,1.4972918E-2,-5.882391E-1,2.535039E-1,-1.8718363E-1,-5.478109E-1,-1.0399686E0,-0E0,-5.545476E-1,-4.438862E-1,2.7567625E-1,5.685283E-1,-5.3979256E-3,-5.26439E-1,7.666941E-2,8.308439E-1,1.7992154E-1,-2.2671055E-2,-3.237409E-3,3.0379728E-3,1.976901E-2,-1.9942459E-2,-1.4556409E-3,-3.0949105E-2,-6.1827563E-3,-1.7601142E-2,-3.567478E-2,-1.7217752E-2,6.044946E-3,-3.257683E-2,-8.47344E-3,-2.3610529E-2,-0E0,-8.706649E-3,1.51000945E-2,-6.2479833E-3,1.8375872E-2,4.118419E-3,-2.0541357E-2,1.3883252E-2,-9.944544E-3,2.9641746E-2,1.2191205E-2,-1.6085802E-2,6.457033E-3],"categories":[],"categories_nodes":[],"categories_segments":[],"categories_sizes":[],"default_left":[0,0,0,0,0,0,0,0,0,0,0,0,0,0,0,0,0,0,0,0,0,0,0,0,0,0,0,0,0,0,0,0,0,0,0,0,0,0,0,0,0,0,0,0,0,0,0,0,0,0,0,0,0,0,0,0,0,0,0],"id":27,"left_children":[1,3,5,7,9,11,13,15,17,19,21,23,25,27,29,-1,31,33,35,37,39,41,43,45,47,49,-1,51,53,55,57,-1,-1,-1,-1,-1,-1,-1,-1,-1,-1,-1,-1,-1,-1,-1,-1,-1,-1,-1,-1,-1,-1,-1,-1,-1,-1,-1,-1],"loss_changes":[5.91258E1,1.1634644E1,1.4875772E1,7.810056E0,7.964176E0,6.327568E0,1.1450294E1,8.443695E0,7.389129E0,2.0266838E0,7.177253E0,4.2261515E0,4.4613686E0,8.641584E0,5.455639E0,0E0,4.2167225E0,3.4017603E0,7.1984673E0,3.677051E0,6.8224144E-1,4.8950715E0,7.9367447E0,1.7691889E0,3.7879195E0,5.515831E0,0E0,4.72972E0,8.610003E0,2.1365643E-1,4.332391E0,0E0,0E0,0E0,0E0,0E0,0E0,0E0,0E0,0E0,0E0,0E0,0E0,0E0,0E0,0E0,0E0,0E0,0E0,0E0,0E0,0E0,0E0,0E0,0E0,0E0,0E0,0E0,0E0],"parents":[2147483647,0,0,1,1,2,2,3,3,4,4,5,5,6,6,7,7,8,8,9,9,10,10,11,11,12,12,13,13,14,14,16,16,17,17,18,18,19,19,20,20,21,21,22,22,23,23,24,24,25,25,27,27,28,28,29,29,30,30],"right_children":[2,4,6,8,10,12,14,16,18,20,22,24,26,28,30,-1,32,34,36,38,40,42,44,46,48,50,-1,52,54,56,58,-1,-1,-1,-1,-1,-1,-1,-1,-1,-1,-1,-1,-1,-1,-1,-1,-1,-1,-1,-1,-1,-1,-1,-1,-1,-1,-1,-1],"split_conditions":[-1.9E0,6E-1,4.4444445E-1,-8.2E0,-8.4E0,1.064E2,5E-1,3.3333334E-1,-2.5E-1,-3.888889E-1,1.128E2,1.107E2,6.25E-1,6E-1,4.4444445E-1,1.4972918E-2,-7.1428575E-2,3E0,-2.3333333E-1,-4.6666667E-1,1.168E2,2E0,1.143E2,1.055E2,1.115E2,-8.9E0,-5.3979256E-3,1.075E2,1.139E2,1.175E2,-8.6E0,-2.2671055E-2,-3.237409E-3,3.0379728E-3,1.976901E-2,-1.9942459E-2,-1.4556409E-3,-3.0949105E-2,-6.1827563E-3,-1.7601142E-2,-3.567478E-2,-1.7217752E-2,6.044946E-3,-3.257683E-2,-8.47344E-3,-2.3610529E-2,-0E0,-8.706649E-3,1.51000945E-2,-6.2479833E-3,1.8375872E-2,4.118419E-3,-2.0541357E-2,1.3883252E-2,-9.944544E-3,2.9641746E-2,1.2191205E-2,-1.6085802E-2,6.457033E-3],"split_indices":[131,90,86,36,94,87,41,92,139,139,0,40,88,46,45,0,135,38,133,135,87,38,40,89,42,136,0,0,89,87,136,0,0,0,0,0,0,0,0,0,0,0,0,0,0,0,0,0,0,0,0,0,0,0,0,0,0,0,0],"split_type":[0,0,0,0,0,0,0,0,0,0,0,0,0,0,0,0,0,0,0,0,0,0,0,0,0,0,0,0,0,0,0,0,0,0,0,0,0,0,0,0,0,0,0,0,0,0,0,0,0,0,0,0,0,0,0,0,0,0,0],"sum_hessian":[8.396891E2,3.7264462E2,4.6704446E2,2.2593732E2,1.4670732E2,1.9673048E2,2.7031396E2,6.046163E1,1.654757E2,5.010896E1,9.659836E1,3.6110817E1,1.6061966E2,9.325248E1,1.770615E2,6.944305E0,5.351733E1,5.6463024E1,1.0901266E2,2.3417908E1,2.669105E1,3.9074383E1,5.7523975E1,1.0075131E1,2.6035683E1,1.5309668E2,7.522981E0,4.1660686E1,5.159179E1,1.2816499E1,1.64245E2,3.889029E1,1.4627039E1,4.259228E1,1.3870746E1,2.308696E1,8.59257E1,8.318708E0,1.5099199E1,8.607954E0,1.8083096E1,9.535023E0,2.9539358E1,1.7837608E1,3.9686367E1,5.03845E0,5.036682E0,7.2249875E0,1.8810696E1,7.785111E0,1.4531157E2,7.938327E0,3.372236E1,2.6534737E1,2.5057053E1,7.7272835E0,5.0892153E0,6.585658E0,1.5765935E2],"tree_param":{"num_deleted":"0","num_feature":"141","num_nodes":"59","size_leaf_vector":"1"}},{"base_weights":[-1.2650564E-2,-1.9473934E-1,3.03159E-1,-5.166829E-1,-9.563226E-2,-3.950286E-1,3.3651784E-1,-6.108339E-1,-1.0018151E-1,-3.663568E-1,-1.2826837E-2,-2.1833774E-2,4.0854295E-3,-1.2680535E-1,3.950224E-1,